{"learner":{"attributes":{"scikit_learn":"{\"_estimator_type\": \"regressor\"}"},"feature_names":[],"feature_types":[],"gradient_booster":{"model":{"cats":{"enc":[],"feature_segments":[],"sorted_idx":[]},"gbtree_model_param":{"num_parallel_tree":"1","num_trees":"1000"},"iteration_indptr":[0,1,2,3,4,5,6,7,8,9,10,11,12,13,14,15,16,17,18,19,20,21,22,23,24,25,26,27,28,29,30,31,32,33,34,35,36,37,38,39,40,41,42,43,44,45,46,47,48,49,50,51,52,53,54,55,56,57,58,59,60,61,62,63,64,65,66,67,68,69,70,71,72,73,74,75,76,77,78,79,80,81,82,83,84,85,86,87,88,89,90,91,92,93,94,95,96,97,98,99,100,101,102,103,104,105,106,107,108,109,110,111,112,113,114,115,116,117,118,119,120,121,122,123,124,125,126,127,128,129,130,131,132,133,134,135,136,137,138,139,140,141,142,143,144,145,146,147,148,149,150,151,152,153,154,155,156,157,158,159,160,161,162,163,164,165,166,167,168,169,170,171,172,173,174,175,176,177,178,179,180,181,182,183,184,185,186,187,188,189,190,191,192,193,194,195,196,197,198,199,200,201,202,203,204,205,206,207,208,209,210,211,212,213,214,215,216,217,218,219,220,221,222,223,224,225,226,227,228,229,230,231,232,233,234,235,236,237,238,239,240,241,242,243,244,245,246,247,248,249,250,251,252,253,254,255,256,257,258,259,260,261,262,263,264,265,266,267,268,269,270,271,272,273,274,275,276,277,278,279,280,281,282,283,284,285,286,287,288,289,290,291,292,293,294,295,296,297,298,299,300,301,302,303,304,305,306,307,308,309,310,311,312,313,314,315,316,317,318,319,320,321,322,323,324,325,326,327,328,329,330,331,332,333,334,335,336,337,338,339,340,341,342,343,344,345,346,347,348,349,350,351,352,353,354,355,356,357,358,359,360,361,362,363,364,365,366,367,368,369,370,371,372,373,374,375,376,377,378,379,380,381,382,383,384,385,386,387,388,389,390,391,392,393,394,395,396,397,398,399,400,401,402,403,404,405,406,407,408,409,410,411,412,413,414,415,416,417,418,419,420,421,422,423,424,425,426,427,428,429,430,431,432,433,434,435,436,437,438,439,440,441,442,443,444,445,446,447,448,449,450,451,452,453,454,455,456,457,458,459,460,461,462,463,464,465,466,467,468,469,470,471,472,473,474,475,476,477,478,479,480,481,482,483,484,485,486,487,488,489,490,491,492,493,494,495,496,497,498,499,500,501,502,503,504,505,506,507,508,509,510,511,512,513,514,515,516,517,518,519,520,521,522,523,524,525,526,527,528,529,530,531,532,533,534,535,536,537,538,539,540,541,542,543,544,545,546,547,548,549,550,551,552,553,554,555,556,557,558,559,560,561,562,563,564,565,566,567,568,569,570,571,572,573,574,575,576,577,578,579,580,581,582,583,584,585,586,587,588,589,590,591,592,593,594,595,596,597,598,599,600,601,602,603,604,605,606,607,608,609,610,611,612,613,614,615,616,617,618,619,620,621,622,623,624,625,626,627,628,629,630,631,632,633,634,635,636,637,638,639,640,641,642,643,644,645,646,647,648,649,650,651,652,653,654,655,656,657,658,659,660,661,662,663,664,665,666,667,668,669,670,671,672,673,674,675,676,677,678,679,680,681,682,683,684,685,686,687,688,689,690,691,692,693,694,695,696,697,698,699,700,701,702,703,704,705,706,707,708,709,710,711,712,713,714,715,716,717,718,719,720,721,722,723,724,725,726,727,728,729,730,731,732,733,734,735,736,737,738,739,740,741,742,743,744,745,746,747,748,749,750,751,752,753,754,755,756,757,758,759,760,761,762,763,764,765,766,767,768,769,770,771,772,773,774,775,776,777,778,779,780,781,782,783,784,785,786,787,788,789,790,791,792,793,794,795,796,797,798,799,800,801,802,803,804,805,806,807,808,809,810,811,812,813,814,815,816,817,818,819,820,821,822,823,824,825,826,827,828,829,830,831,832,833,834,835,836,837,838,839,840,841,842,843,844,845,846,847,848,849,850,851,852,853,854,855,856,857,858,859,860,861,862,863,864,865,866,867,868,869,870,871,872,873,874,875,876,877,878,879,880,881,882,883,884,885,886,887,888,889,890,891,892,893,894,895,896,897,898,899,900,901,902,903,904,905,906,907,908,909,910,911,912,913,914,915,916,917,918,919,920,921,922,923,924,925,926,927,928,929,930,931,932,933,934,935,936,937,938,939,940,941,942,943,944,945,946,947,948,949,950,951,952,953,954,955,956,957,958,959,960,961,962,963,964,965,966,967,968,969,970,971,972,973,974,975,976,977,978,979,980,981,982,983,984,985,986,987,988,989,990,991,992,993,994,995,996,997,998,999,1000],"tree_info":[0,0,0,0,0,0,0,0,0,0,0,0,0,0,0,0,0,0,0,0,0,0,0,0,0,0,0,0,0,0,0,0,0,0,0,0,0,0,0,0,0,0,0,0,0,0,0,0,0,0,0,0,0,0,0,0,0,0,0,0,0,0,0,0,0,0,0,0,0,0,0,0,0,0,0,0,0,0,0,0,0,0,0,0,0,0,0,0,0,0,0,0,0,0,0,0,0,0,0,0,0,0,0,0,0,0,0,0,0,0,0,0,0,0,0,0,0,0,0,0,0,0,0,0,0,0,0,0,0,0,0,0,0,0,0,0,0,0,0,0,0,0,0,0,0,0,0,0,0,0,0,0,0,0,0,0,0,0,0,0,0,0,0,0,0,0,0,0,0,0,0,0,0,0,0,0,0,0,0,0,0,0,0,0,0,0,0,0,0,0,0,0,0,0,0,0,0,0,0,0,0,0,0,0,0,0,0,0,0,0,0,0,0,0,0,0,0,0,0,0,0,0,0,0,0,0,0,0,0,0,0,0,0,0,0,0,0,0,0,0,0,0,0,0,0,0,0,0,0,0,0,0,0,0,0,0,0,0,0,0,0,0,0,0,0,0,0,0,0,0,0,0,0,0,0,0,0,0,0,0,0,0,0,0,0,0,0,0,0,0,0,0,0,0,0,0,0,0,0,0,0,0,0,0,0,0,0,0,0,0,0,0,0,0,0,0,0,0,0,0,0,0,0,0,0,0,0,0,0,0,0,0,0,0,0,0,0,0,0,0,0,0,0,0,0,0,0,0,0,0,0,0,0,0,0,0,0,0,0,0,0,0,0,0,0,0,0,0,0,0,0,0,0,0,0,0,0,0,0,0,0,0,0,0,0,0,0,0,0,0,0,0,0,0,0,0,0,0,0,0,0,0,0,0,0,0,0,0,0,0,0,0,0,0,0,0,0,0,0,0,0,0,0,0,0,0,0,0,0,0,0,0,0,0,0,0,0,0,0,0,0,0,0,0,0,0,0,0,0,0,0,0,0,0,0,0,0,0,0,0,0,0,0,0,0,0,0,0,0,0,0,0,0,0,0,0,0,0,0,0,0,0,0,0,0,0,0,0,0,0,0,0,0,0,0,0,0,0,0,0,0,0,0,0,0,0,0,0,0,0,0,0,0,0,0,0,0,0,0,0,0,0,0,0,0,0,0,0,0,0,0,0,0,0,0,0,0,0,0,0,0,0,0,0,0,0,0,0,0,0,0,0,0,0,0,0,0,0,0,0,0,0,0,0,0,0,0,0,0,0,0,0,0,0,0,0,0,0,0,0,0,0,0,0,0,0,0,0,0,0,0,0,0,0,0,0,0,0,0,0,0,0,0,0,0,0,0,0,0,0,0,0,0,0,0,0,0,0,0,0,0,0,0,0,0,0,0,0,0,0,0,0,0,0,0,0,0,0,0,0,0,0,0,0,0,0,0,0,0,0,0,0,0,0,0,0,0,0,0,0,0,0,0,0,0,0,0,0,0,0,0,0,0,0,0,0,0,0,0,0,0,0,0,0,0,0,0,0,0,0,0,0,0,0,0,0,0,0,0,0,0,0,0,0,0,0,0,0,0,0,0,0,0,0,0,0,0,0,0,0,0,0,0,0,0,0,0,0,0,0,0,0,0,0,0,0,0,0,0,0,0,0,0,0,0,0,0,0,0,0,0,0,0,0,0,0,0,0,0,0,0,0,0,0,0,0,0,0,0,0,0,0,0,0,0,0,0,0,0,0,0,0,0,0,0,0,0,0,0,0,0,0,0,0,0,0,0,0,0,0,0,0,0,0,0,0,0,0,0,0,0,0,0,0,0,0,0,0,0,0,0,0,0,0,0,0,0,0,0,0,0,0,0,0,0,0,0,0,0,0,0,0,0,0,0,0,0,0,0,0,0,0,0,0,0,0,0,0,0,0,0,0,0,0,0,0,0,0,0,0,0,0,0,0,0,0,0,0,0,0,0,0,0,0,0,0,0,0,0,0,0,0,0,0,0,0,0,0,0,0,0,0,0,0,0,0,0,0,0,0,0,0,0,0,0,0,0,0,0,0,0,0,0,0,0,0,0,0,0,0,0,0,0,0,0,0,0,0,0,0,0,0,0,0,0,0,0,0,0,0,0,0,0,0,0,0,0,0,0,0,0,0,0,0,0,0,0,0,0,0,0,0,0,0,0,0,0,0,0,0,0,0,0,0,0,0,0,0,0,0,0,0,0,0,0,0,0,0,0,0],"trees":[{"base_weights":[-3.381257E-9,2.3137465E0,-1.7363954E-2,7.903098E-2,2.0278307E-2,4.655412E-2,-9.156284E-2,3.2301955E-2,4.381089E-1,2.4232073E-2,-9.8501995E-2,1.2274958E-3,-1.7040765E-2,3.1516643E-3,3.5406448E-2,-2.1785058E-2,-2.5537994E-3],"categories":[],"categories_nodes":[],"categories_segments":[],"categories_sizes":[],"default_left":[0,0,0,0,0,0,0,0,0,0,0,0,0,0,0,0,0],"id":0,"left_children":[1,3,5,-1,-1,7,9,11,13,-1,15,-1,-1,-1,-1,-1,-1],"loss_changes":[2.1574394E1,3.197651E-1,2.5320945E0,0E0,0E0,1.5874525E0,1.6209381E0,1.460937E0,2.3476214E0,0E0,2.0034184E0,0E0,0E0,0E0,0E0,0E0,0E0],"parents":[2147483647,0,0,1,1,2,2,5,5,6,6,7,7,8,8,10,10],"right_children":[2,4,6,-1,-1,8,10,12,14,-1,16,-1,-1,-1,-1,-1,-1],"split_conditions":[1.895175E0,2.0794415E0,4.65396E0,7.903098E-2,2.0278307E-2,8.2903915E1,1.609438E0,7.832009E0,8.2298386E-1,2.4232073E-2,3.4448817E0,1.2274958E-3,-1.7040765E-2,3.1516643E-3,3.5406448E-2,-2.1785058E-2,-2.5537994E-3],"split_indices":[10,2,9,0,0,16,3,20,1,0,10,0,0,0,0,0,0],"split_type":[0,0,0,0,0,0,0,0,0,0,0,0,0,0,0,0,0],"sum_hessian":[5.35E2,3E0,5.32E2,2E0,1E0,2.86E2,2.46E2,2.77E2,9E0,1E0,2.45E2,2.74E2,3E0,7E0,2E0,4E0,2.41E2],"tree_param":{"num_deleted":"0","num_feature":"22","num_nodes":"17","size_leaf_vector":"1"}},{"base_weights":[2.2751564E-4,2.2691615E0,-1.6800558E-2,7.7450365E-2,1.9974131E-2,4.523675E-2,-8.8816375E-2,6.1769243E-2,-2.8155887E-1,2.3868592E-2,-9.5645875E-2,3.33057E-2,1.6158673E-3,-2.6294451E-2,-3.2809475E-3,-2.126222E-2,-2.477502E-3],"categories":[],"categories_nodes":[],"categories_segments":[],"categories_sizes":[],"default_left":[0,0,0,0,0,0,0,0,0,0,0,0,0,0,0,0,0],"id":1,"left_children":[1,3,5,-1,-1,7,9,11,13,-1,15,-1,-1,-1,-1,-1,-1],"loss_changes":[2.074679E1,2.8541565E-1,2.385285E0,0E0,0E0,1.5679793E0,1.5680401E0,2.211625E0,1.3383332E0,0E0,1.9115701E0,0E0,0E0,0E0,0E0,0E0,0E0],"parents":[2147483647,0,0,1,1,2,2,5,5,6,6,7,7,8,8,10,10],"right_children":[2,4,6,-1,-1,8,10,12,14,-1,16,-1,-1,-1,-1,-1,-1],"split_conditions":[1.895175E0,2.0794415E0,4.65396E0,7.7450365E-2,1.9974131E-2,2.9155195E1,1.609438E0,2.0794415E0,2.7080503E0,2.3868592E-2,3.4448817E0,3.33057E-2,1.6158673E-3,-2.6294451E-2,-3.2809475E-3,-2.126222E-2,-2.477502E-3],"split_indices":[10,2,9,0,0,15,3,2,2,0,10,0,0,0,0,0,0],"split_type":[0,0,0,0,0,0,0,0,0,0,0,0,0,0,0,0,0],"sum_hessian":[5.35E2,3E0,5.32E2,2E0,1E0,2.86E2,2.46E2,2.73E2,1.3E1,1E0,2.45E2,1E0,2.72E2,2E0,1.1E1,4E0,2.41E2],"tree_param":{"num_deleted":"0","num_feature":"22","num_nodes":"17","size_leaf_vector":"1"}},{"base_weights":[4.126665E-4,2.2254426E0,-1.6286269E-2,7.590136E-2,1.967452E-2,4.3898277E-2,-8.615136E-2,2.9946527E-2,4.2736715E-1,2.3510562E-2,-9.2873E-2,1.1504798E-3,-1.6656978E-2,3.0265166E-3,3.4666E-2,-2.0751923E-2,-2.403484E-3],"categories":[],"categories_nodes":[],"categories_segments":[],"categories_sizes":[],"default_left":[0,0,0,0,0,0,0,0,0,0,0,0,0,0,0,0,0],"id":2,"left_children":[1,3,5,-1,-1,7,9,11,13,-1,15,-1,-1,-1,-1,-1,-1],"loss_changes":[1.9951662E1,2.5320053E-1,2.2449398E0,0E0,0E0,1.5226699E0,1.5169243E0,1.3882588E0,2.2607665E0,0E0,1.8239105E0,0E0,0E0,0E0,0E0,0E0,0E0],"parents":[2147483647,0,0,1,1,2,2,5,5,6,6,7,7,8,8,10,10],"right_children":[2,4,6,-1,-1,8,10,12,14,-1,16,-1,-1,-1,-1,-1,-1],"split_conditions":[1.895175E0,2.0794415E0,4.65396E0,7.590136E-2,1.967452E-2,8.2903915E1,1.609438E0,7.832009E0,8.2298386E-1,2.3510562E-2,3.4448817E0,1.1504798E-3,-1.6656978E-2,3.0265166E-3,3.4666E-2,-2.0751923E-2,-2.403484E-3],"split_indices":[10,2,9,0,0,16,3,20,1,0,10,0,0,0,0,0,0],"split_type":[0,0,0,0,0,0,0,0,0,0,0,0,0,0,0,0,0],"sum_hessian":[5.35E2,3E0,5.32E2,2E0,1E0,2.86E2,2.46E2,2.77E2,9E0,1E0,2.45E2,2.74E2,3E0,7E0,2E0,4E0,2.41E2],"tree_param":{"num_deleted":"0","num_feature":"22","num_nodes":"17","size_leaf_vector":"1"}},{"base_weights":[6.206518E-4,2.1825733E0,-1.5755393E-2,7.438333E-2,1.9379402E-2,4.265863E-2,-8.356539E-2,5.8734745E-2,-2.7502096E-1,2.3157906E-2,-9.018094E-2,3.2788858E-2,1.5282853E-3,-2.579157E-2,-3.1778412E-3,-1.2683045E-2,-2.0486622E-3],"categories":[],"categories_nodes":[],"categories_segments":[],"categories_sizes":[],"default_left":[0,0,0,0,0,0,0,0,0,0,0,0,0,0,0,0,0],"id":3,"left_children":[1,3,5,-1,-1,7,9,11,13,-1,15,-1,-1,-1,-1,-1,-1],"loss_changes":[1.9186607E1,2.2300911E-1,2.114807E0,0E0,0E0,1.4818778E0,1.4675288E0,2.1523767E0,1.2930881E0,0E0,1.7622716E0,0E0,0E0,0E0,0E0,0E0,0E0],"parents":[2147483647,0,0,1,1,2,2,5,5,6,6,7,7,8,8,10,10],"right_children":[2,4,6,-1,-1,8,10,12,14,-1,16,-1,-1,-1,-1,-1,-1],"split_conditions":[1.895175E0,2.0794415E0,4.65396E0,7.438333E-2,1.9379402E-2,2.9155195E1,1.609438E0,2.0794415E0,2.7080503E0,2.3157906E-2,4.0073333E0,3.2788858E-2,1.5282853E-3,-2.579157E-2,-3.1778412E-3,-1.2683045E-2,-2.0486622E-3],"split_indices":[10,2,9,0,0,15,3,2,2,0,2,0,0,0,0,0,0],"split_type":[0,0,0,0,0,0,0,0,0,0,0,0,0,0,0,0,0],"sum_hessian":[5.35E2,3E0,5.32E2,2E0,1E0,2.86E2,2.46E2,2.73E2,1.3E1,1E0,2.45E2,1E0,2.72E2,2E0,1.1E1,1.4E1,2.31E2],"tree_param":{"num_deleted":"0","num_feature":"22","num_nodes":"17","size_leaf_vector":"1"}},{"base_weights":[8.0265984E-4,2.1405368E0,-1.5256888E-2,7.289566E-2,1.9088712E-2,4.1397505E-2,-8.102431E-2,2.7739873E-2,4.1693994E-1,2.2810537E-2,-8.7535396E-2,1.0780934E-3,-1.628129E-2,2.9069532E-3,3.394212E-2,-1.9949485E-2,-2.2572884E-3],"categories":[],"categories_nodes":[],"categories_segments":[],"categories_sizes":[],"default_left":[0,0,0,0,0,0,0,0,0,0,0,0,0,0,0,0,0],"id":4,"left_children":[1,3,5,-1,-1,7,9,11,13,-1,15,-1,-1,-1,-1,-1,-1],"loss_changes":[1.8451313E1,1.9473076E-1,1.9893196E0,0E0,0E0,1.4604629E0,1.4196897E0,1.3193566E0,2.17695E0,0E0,1.6961322E0,0E0,0E0,0E0,0E0,0E0,0E0],"parents":[2147483647,0,0,1,1,2,2,5,5,6,6,7,7,8,8,10,10],"right_children":[2,4,6,-1,-1,8,10,12,14,-1,16,-1,-1,-1,-1,-1,-1],"split_conditions":[1.895175E0,2.0794415E0,4.65396E0,7.289566E-2,1.9088712E-2,8.2903915E1,1.609438E0,7.832009E0,8.2298386E-1,2.2810537E-2,3.4448817E0,1.0780934E-3,-1.628129E-2,2.9069532E-3,3.394212E-2,-1.9949485E-2,-2.2572884E-3],"split_indices":[10,2,9,0,0,16,3,20,1,0,10,0,0,0,0,0,0],"split_type":[0,0,0,0,0,0,0,0,0,0,0,0,0,0,0,0,0],"sum_hessian":[5.35E2,3E0,5.32E2,2E0,1E0,2.86E2,2.46E2,2.77E2,9E0,1E0,2.45E2,2.74E2,3E0,7E0,2E0,4E0,2.41E2],"tree_param":{"num_deleted":"0","num_feature":"22","num_nodes":"17","size_leaf_vector":"1"}},{"base_weights":[9.917055E-4,2.0993168E0,-1.4757435E-2,7.143775E-2,1.8802382E-2,-1.7384532E-1,7.709568E-3,-3.5798743E-1,-5.1978807E-4,3.2280855E-2,3.1178177E-3,-7.1561914E-3,-2.8658917E-2,2.2468379E-2,-1.3377216E-3,5.001979E-3,-5.202458E-4],"categories":[],"categories_nodes":[],"categories_segments":[],"categories_sizes":[],"default_left":[0,0,0,0,0,0,0,0,0,0,0,0,0,0,0,0,0],"id":5,"left_children":[1,3,5,-1,-1,7,9,11,13,-1,15,-1,-1,-1,-1,-1,-1],"loss_changes":[1.7744074E1,1.6827202E-1,1.9064037E0,0E0,0E0,2.1063051E0,2.2923973E0,2.0552373E0,1.189434E0,0E0,1.5661515E0,0E0,0E0,0E0,0E0,0E0,0E0],"parents":[2147483647,0,0,1,1,2,2,5,5,6,6,7,7,8,8,10,10],"right_children":[2,4,6,-1,-1,8,10,12,14,-1,16,-1,-1,-1,-1,-1,-1],"split_conditions":[1.895175E0,2.0794415E0,3.38879E-5,7.143775E-2,1.8802382E-2,6.5101326E1,2.0794415E0,3.546049E-1,1.609438E0,3.2280855E-2,3.4011974E0,-7.1561914E-3,-2.8658917E-2,2.2468379E-2,-1.3377216E-3,5.001979E-3,-5.202458E-4],"split_indices":[10,2,19,0,0,16,2,1,2,0,9,0,0,0,0,0,0],"split_type":[0,0,0,0,0,0,0,0,0,0,0,0,0,0,0,0,0],"sum_hessian":[5.35E2,3E0,5.32E2,2E0,1E0,6.5E1,4.67E2,3.1E1,3.4E1,1E0,4.66E2,2.7E1,4E0,1E0,3.3E1,5.1E1,4.15E2],"tree_param":{"num_deleted":"0","num_feature":"22","num_nodes":"17","size_leaf_vector":"1"}},{"base_weights":[1.1715011E-3,2.0588973E0,-1.4273292E-2,7.000899E-2,1.8520346E-2,3.976328E-2,-7.7002935E-2,2.639301E-2,4.0748042E-1,-1.0629579E-1,1.0963451E-1,1.2530136E-3,-7.995065E-3,2.8235936E-3,3.321846E-2,2.2131354E-2,-3.4116511E-3,5.1913904E-3,8.244239E-4],"categories":[],"categories_nodes":[],"categories_segments":[],"categories_sizes":[],"default_left":[0,0,0,0,0,0,0,0,0,0,0,0,0,0,0,0,0,0,0],"id":6,"left_children":[1,3,5,-1,-1,7,9,11,13,15,17,-1,-1,-1,-1,-1,-1,-1,-1],"loss_changes":[1.7064083E1,1.4352989E-1,1.8097694E0,0E0,0E0,1.4002742E0,1.3620381E0,1.2629659E0,2.0886855E0,1.4251442E0,1.7236817E-1,0E0,0E0,0E0,0E0,0E0,0E0,0E0,0E0],"parents":[2147483647,0,0,1,1,2,2,5,5,6,6,7,7,8,8,9,9,10,10],"right_children":[2,4,6,-1,-1,8,10,12,14,16,18,-1,-1,-1,-1,-1,-1,-1,-1],"split_conditions":[1.895175E0,2.0794415E0,4.65396E0,7.000899E-2,1.8520346E-2,8.2903915E1,9.944216E-1,2.9155195E1,8.2298386E-1,1.609438E0,5.598422E0,1.2530136E-3,-7.995065E-3,2.8235936E-3,3.321846E-2,2.2131354E-2,-3.4116511E-3,5.1913904E-3,8.244239E-4],"split_indices":[10,2,9,0,0,16,19,15,1,3,9,0,0,0,0,0,0,0,0],"split_type":[0,0,0,0,0,0,0,0,0,0,0,0,0,0,0,0,0,0,0],"sum_hessian":[5.35E2,3E0,5.32E2,2E0,1E0,2.86E2,2.46E2,2.77E2,9E0,2.13E2,3.3E1,2.64E2,1.3E1,7E0,2E0,1E0,2.12E2,1.8E1,1.5E1],"tree_param":{"num_deleted":"0","num_feature":"22","num_nodes":"19","size_leaf_vector":"1"}},{"base_weights":[1.402336E-3,1.5256474E0,-1.873185E-2,1.8041693E0,-2.1822553E-3,-1.9100638E-1,5.3380565E-3,6.860881E-2,2.9731005E-2,-6.3024634E-1,-1.2712833E-1,3.1777844E-2,7.935728E-4,-2.727244E-2,-8.433872E-3,-7.1110744E-3,-9.12634E-4,4.9836985E-3,-5.85779E-4],"categories":[],"categories_nodes":[],"categories_segments":[],"categories_sizes":[],"default_left":[0,0,0,0,0,0,0,0,0,0,0,0,0,0,0,0,0,0,0],"id":7,"left_children":[1,3,5,7,-1,9,11,-1,-1,13,15,-1,17,-1,-1,-1,-1,-1,-1],"loss_changes":[1.6478115E1,3.2475414E0,2.1987343E0,8.899498E-2,0E0,1.7436342E0,2.2310839E0,0E0,0E0,5.231998E-1,6.0926205E-1,0E0,1.5653759E0,0E0,0E0,0E0,0E0,0E0,0E0],"parents":[2147483647,0,0,1,1,2,2,3,3,5,5,6,6,9,9,10,10,12,12],"right_children":[2,4,6,8,-1,10,12,-1,-1,14,16,-1,18,-1,-1,-1,-1,-1,-1],"split_conditions":[2.0794415E0,1.2053668E-1,3.38879E-5,5.6525284E1,-2.1822553E-3,3.9512436E0,2.0794415E0,6.860881E-2,2.9731005E-2,6.0864025E1,6.5101326E1,3.1777844E-2,3.4011974E0,-2.727244E-2,-8.433872E-3,-7.1110744E-3,-9.12634E-4,4.9836985E-3,-5.85779E-4],"split_indices":[3,0,19,18,0,2,2,0,0,17,16,0,9,0,0,0,0,0,0],"split_type":[0,0,0,0,0,0,0,0,0,0,0,0,0,0,0,0,0,0,0],"sum_hessian":[5.35E2,6E0,5.29E2,5E0,1E0,6.4E1,4.65E2,2E0,3E0,7E0,5.7E1,1E0,4.64E2,3E0,4E0,2.6E1,3.1E1,5E1,4.14E2],"tree_param":{"num_deleted":"0","num_feature":"22","num_nodes":"19","size_leaf_vector":"1"}},{"base_weights":[1.5255723E-3,1.4936148E0,-1.8184146E-2,1.7664342E0,-2.1495214E-3,-1.8594895E-1,5.2555474E-3,6.723664E-2,2.9062055E-2,-6.158023E-1,-1.2345283E-1,6.604224E-1,-1.8463787E-3,7.316104E-4,-2.1322252E-2,-6.9056433E-3,-8.861105E-4,9.115251E-3,3.1301174E-2,7.309466E-5,-1.973812E-2],"categories":[],"categories_nodes":[],"categories_segments":[],"categories_sizes":[],"default_left":[0,0,0,0,0,0,0,0,0,0,0,0,0,0,0,0,0,0,0,0,0],"id":8,"left_children":[1,3,5,7,-1,9,11,-1,-1,13,15,17,19,-1,-1,-1,-1,-1,-1,-1,-1],"loss_changes":[1.57902E1,3.1158094E0,2.0851257E0,1.0127449E-1,0E0,1.6701486E0,2.1694922E0,0E0,0E0,5.0356674E-1,5.746005E-1,3.6574292E-1,1.2998002E0,0E0,0E0,0E0,0E0,0E0,0E0,0E0,0E0],"parents":[2147483647,0,0,1,1,2,2,3,3,5,5,6,6,9,9,10,10,11,11,12,12],"right_children":[2,4,6,8,-1,10,12,-1,-1,14,16,18,20,-1,-1,-1,-1,-1,-1,-1,-1],"split_conditions":[2.0794415E0,1.2053668E-1,3.38879E-5,5.6525284E1,-2.1495214E-3,3.9512436E0,2.4849067E0,6.723664E-2,2.9062055E-2,4.3615414E1,6.5101326E1,-1.2053668E-1,7.832009E0,7.316104E-4,-2.1322252E-2,-6.9056433E-3,-8.861105E-4,9.115251E-3,3.1301174E-2,7.309466E-5,-1.973812E-2],"split_indices":[3,0,19,18,0,2,2,0,0,18,16,0,20,0,0,0,0,0,0,0,0],"split_type":[0,0,0,0,0,0,0,0,0,0,0,0,0,0,0,0,0,0,0,0,0],"sum_hessian":[5.35E2,6E0,5.29E2,5E0,1E0,6.4E1,4.65E2,2E0,3E0,7E0,5.7E1,4E0,4.61E2,1E0,6E0,2.6E1,3.1E1,3E0,1E0,4.59E2,2E0],"tree_param":{"num_deleted":"0","num_feature":"22","num_nodes":"21","size_leaf_vector":"1"}},{"base_weights":[1.6412179E-3,1.4622562E0,-1.765302E-2,1.729491E0,-2.1172785E-3,-1.8080714E-1,5.1424103E-3,6.589191E-2,2.8408162E-2,-5.9990203E-1,-1.1988358E-1,3.083166E-2,7.331596E-4,-2.6179062E-2,-7.852049E-3,-6.706147E-3,-8.60358E-4,4.8243315E-3,-5.6822493E-4],"categories":[],"categories_nodes":[],"categories_segments":[],"categories_sizes":[],"default_left":[0,0,0,0,0,0,0,0,0,0,0,0,0,0,0,0,0,0,0],"id":9,"left_children":[1,3,5,7,-1,9,11,-1,-1,13,15,-1,17,-1,-1,-1,-1,-1,-1],"loss_changes":[1.5131072E1,2.9894419E0,1.9720892E0,1.1241722E-1,0E0,1.5877106E0,2.1003518E0,0E0,0E0,5.0943637E-1,5.419109E-1,0E0,1.4675033E0,0E0,0E0,0E0,0E0,0E0,0E0],"parents":[2147483647,0,0,1,1,2,2,3,3,5,5,6,6,9,9,10,10,12,12],"right_children":[2,4,6,8,-1,10,12,-1,-1,14,16,-1,18,-1,-1,-1,-1,-1,-1],"split_conditions":[2.0794415E0,1.2053668E-1,3.38879E-5,5.6525284E1,-2.1172785E-3,3.9512436E0,2.0794415E0,6.589191E-2,2.8408162E-2,6.0864025E1,6.5101326E1,3.083166E-2,3.4011974E0,-2.6179062E-2,-7.852049E-3,-6.706147E-3,-8.60358E-4,4.8243315E-3,-5.6822493E-4],"split_indices":[3,0,19,18,0,2,2,0,0,17,16,0,9,0,0,0,0,0,0],"split_type":[0,0,0,0,0,0,0,0,0,0,0,0,0,0,0,0,0,0,0],"sum_hessian":[5.35E2,6E0,5.29E2,5E0,1E0,6.4E1,4.65E2,2E0,3E0,7E0,5.7E1,1E0,4.64E2,3E0,4E0,2.6E1,3.1E1,5E1,4.14E2],"tree_param":{"num_deleted":"0","num_feature":"22","num_nodes":"19","size_leaf_vector":"1"}},{"base_weights":[1.7518189E-3,1.4315575E0,-1.7135713E-2,1.6933229E0,-2.0855195E-3,-1.7602289E-1,5.063433E-3,6.457406E-2,2.7768977E-2,-5.861589E-1,-1.16417535E-1,6.407106E-1,-1.8268245E-3,-2.5590032E-2,-7.663599E-3,-6.512414E-3,-8.3535386E-4,8.842056E-3,3.0369183E-2,7.103519E-5,-1.933199E-2],"categories":[],"categories_nodes":[],"categories_segments":[],"categories_sizes":[],"default_left":[0,0,0,0,0,0,0,0,0,0,0,0,0,0,0,0,0,0,0,0,0],"id":10,"left_children":[1,3,5,7,-1,9,11,-1,-1,13,15,17,19,-1,-1,-1,-1,-1,-1,-1,-1],"loss_changes":[1.4499479E1,2.8682194E0,1.8702857E0,1.2249756E-1,0E0,1.5207703E0,2.0421448E0,0E0,0E0,4.8806787E-1,5.110809E-1,3.4445214E-1,1.2467902E0,0E0,0E0,0E0,0E0,0E0,0E0,0E0,0E0],"parents":[2147483647,0,0,1,1,2,2,3,3,5,5,6,6,9,9,10,10,11,11,12,12],"right_children":[2,4,6,8,-1,10,12,-1,-1,14,16,18,20,-1,-1,-1,-1,-1,-1,-1,-1],"split_conditions":[2.0794415E0,1.2053668E-1,3.38879E-5,5.6525284E1,-2.0855195E-3,3.9512436E0,2.4849067E0,6.457406E-2,2.7768977E-2,6.0864025E1,6.5101326E1,-1.2053668E-1,7.832009E0,-2.5590032E-2,-7.663599E-3,-6.512414E-3,-8.3535386E-4,8.842056E-3,3.0369183E-2,7.103519E-5,-1.933199E-2],"split_indices":[3,0,19,18,0,2,2,0,0,17,16,0,20,0,0,0,0,0,0,0,0],"split_type":[0,0,0,0,0,0,0,0,0,0,0,0,0,0,0,0,0,0,0,0,0],"sum_hessian":[5.35E2,6E0,5.29E2,5E0,1E0,6.4E1,4.65E2,2E0,3E0,7E0,5.7E1,4E0,4.61E2,3E0,4E0,2.6E1,3.1E1,3E0,1E0,4.59E2,2E0],"tree_param":{"num_deleted":"0","num_feature":"22","num_nodes":"21","size_leaf_vector":"1"}},{"base_weights":[1.8291278E-3,1.4015048E0,-1.6660605E-2,1.6579137E0,-2.0542368E-3,-1.7136684E-1,4.954343E-3,6.328259E-2,2.7144177E-2,-5.46719E-1,-1.0909427E-1,2.9913647E-2,6.7630276E-4,-2.5014255E-2,-7.926185E-3,-6.3242777E-3,-5.0953863E-4,4.670031E-3,-5.5117393E-4],"categories":[],"categories_nodes":[],"categories_segments":[],"categories_sizes":[],"default_left":[0,0,0,0,0,0,0,0,0,0,0,0,0,0,0,0,0,0,0],"id":11,"left_children":[1,3,5,7,-1,9,11,-1,-1,13,15,-1,17,-1,-1,-1,-1,-1,-1],"loss_changes":[1.3894831E1,2.751937E0,1.7731518E0,1.3158035E-1,0E0,1.4596757E0,1.9772773E0,0E0,0E0,5.0966096E-1,5.304486E-1,0E0,1.3757238E0,0E0,0E0,0E0,0E0,0E0,0E0],"parents":[2147483647,0,0,1,1,2,2,3,3,5,5,6,6,9,9,10,10,12,12],"right_children":[2,4,6,8,-1,10,12,-1,-1,14,16,-1,18,-1,-1,-1,-1,-1,-1],"split_conditions":[2.0794415E0,1.2053668E-1,3.38879E-5,5.6525284E1,-2.0542368E-3,4.2904596E0,2.0794415E0,6.328259E-2,2.7144177E-2,6.0864025E1,6.5101326E1,2.9913647E-2,3.4011974E0,-2.5014255E-2,-7.926185E-3,-6.3242777E-3,-5.0953863E-4,4.670031E-3,-5.5117393E-4],"split_indices":[3,0,19,18,0,2,2,0,0,17,16,0,9,0,0,0,0,0,0],"split_type":[0,0,0,0,0,0,0,0,0,0,0,0,0,0,0,0,0,0,0],"sum_hessian":[5.35E2,6E0,5.29E2,5E0,1E0,6.4E1,4.65E2,2E0,3E0,8E0,5.6E1,1E0,4.64E2,3E0,5E0,2.6E1,3E1,5E1,4.14E2],"tree_param":{"num_deleted":"0","num_feature":"22","num_nodes":"19","size_leaf_vector":"1"}},{"base_weights":[1.9284142E-3,1.3720843E0,-1.6171621E-2,1.6232474E0,-2.023423E-3,-1.6683774E-1,4.878742E-3,6.2016934E-2,2.653343E-2,-5.339775E-1,-1.0594133E-1,6.2159103E-1,-1.8061931E-3,-2.4451435E-2,-7.7280304E-3,-6.1415765E-3,-4.947456E-4,8.577192E-3,2.9464941E-2,6.906335E-5,-1.8934326E-2],"categories":[],"categories_nodes":[],"categories_segments":[],"categories_sizes":[],"default_left":[0,0,0,0,0,0,0,0,0,0,0,0,0,0,0,0,0,0,0,0,0],"id":12,"left_children":[1,3,5,7,-1,9,11,-1,-1,13,15,17,19,-1,-1,-1,-1,-1,-1,-1,-1],"loss_changes":[1.33149185E1,2.6403856E0,1.6817496E0,1.3973236E-1,0E0,1.3966671E0,1.9222922E0,0E0,0E0,4.891739E-1,5.0025666E-1,3.2438827E-1,1.1959598E0,0E0,0E0,0E0,0E0,0E0,0E0,0E0,0E0],"parents":[2147483647,0,0,1,1,2,2,3,3,5,5,6,6,9,9,10,10,11,11,12,12],"right_children":[2,4,6,8,-1,10,12,-1,-1,14,16,18,20,-1,-1,-1,-1,-1,-1,-1,-1],"split_conditions":[2.0794415E0,1.2053668E-1,3.38879E-5,5.6525284E1,-2.023423E-3,4.2904596E0,2.4849067E0,6.2016934E-2,2.653343E-2,6.0864025E1,6.5101326E1,-1.2053668E-1,7.832009E0,-2.4451435E-2,-7.7280304E-3,-6.1415765E-3,-4.947456E-4,8.577192E-3,2.9464941E-2,6.906335E-5,-1.8934326E-2],"split_indices":[3,0,19,18,0,2,2,0,0,17,16,0,20,0,0,0,0,0,0,0,0],"split_type":[0,0,0,0,0,0,0,0,0,0,0,0,0,0,0,0,0,0,0,0,0],"sum_hessian":[5.35E2,6E0,5.29E2,5E0,1E0,6.4E1,4.65E2,2E0,3E0,8E0,5.6E1,4E0,4.61E2,3E0,5E0,2.6E1,3E1,3E0,1E0,4.59E2,2E0],"tree_param":{"num_deleted":"0","num_feature":"22","num_nodes":"21","size_leaf_vector":"1"}},{"base_weights":[1.995353E-3,1.3432827E0,-1.5723528E-2,1.5893084E0,-1.9930718E-3,-1.6242978E-1,4.7735325E-3,6.0776595E-2,2.5936428E-2,-5.2153367E-1,-1.0287952E-1,2.9022967E-2,6.22799E-4,-2.3901278E-2,-7.5348294E-3,5.454498E-4,-5.2201073E-3,4.5206365E-3,-5.346131E-4],"categories":[],"categories_nodes":[],"categories_segments":[],"categories_sizes":[],"default_left":[0,0,0,0,0,0,0,0,0,0,0,0,0,0,0,0,0,0,0],"id":13,"left_children":[1,3,5,7,-1,9,11,-1,-1,13,15,-1,17,-1,-1,-1,-1,-1,-1],"loss_changes":[1.2759756E1,2.5333757E0,1.5945103E0,1.4701271E-1,0E0,1.3363522E0,1.8614122E0,0E0,0E0,4.6949768E-1,4.939543E-1,0E0,1.2896591E0,0E0,0E0,0E0,0E0,0E0,0E0],"parents":[2147483647,0,0,1,1,2,2,3,3,5,5,6,6,9,9,10,10,12,12],"right_children":[2,4,6,8,-1,10,12,-1,-1,14,16,-1,18,-1,-1,-1,-1,-1,-1],"split_conditions":[2.0794415E0,1.2053668E-1,3.38879E-5,5.6525284E1,-1.9930718E-3,4.2904596E0,2.0794415E0,6.0776595E-2,2.5936428E-2,6.0864025E1,6.8416157E0,2.9022967E-2,3.4011974E0,-2.3901278E-2,-7.5348294E-3,5.454498E-4,-5.2201073E-3,4.5206365E-3,-5.346131E-4],"split_indices":[3,0,19,18,0,2,2,0,0,17,9,0,9,0,0,0,0,0,0],"split_type":[0,0,0,0,0,0,0,0,0,0,0,0,0,0,0,0,0,0,0],"sum_hessian":[5.35E2,6E0,5.29E2,5E0,1E0,6.4E1,4.65E2,2E0,3E0,8E0,5.6E1,1E0,4.64E2,3E0,5E0,2.1E1,3.5E1,5E1,4.14E2],"tree_param":{"num_deleted":"0","num_feature":"22","num_nodes":"19","size_leaf_vector":"1"}},{"base_weights":[2.0877654E-3,1.7444229E0,-1.0991838E-2,5.9561063E-2,1.5323776E-2,6.7040613E-3,-1.5888573E-1,5.569795E-1,2.0462435E-3,-1.708283E-1,7.6484764E-3,2.3587963E-2,-1.9631758E-3,-2.0168614E-2,1.8983777E-4,4.073993E-3,-5.3661736E-3],"categories":[],"categories_nodes":[],"categories_segments":[],"categories_sizes":[],"default_left":[0,0,0,0,0,0,0,0,0,0,0,0,0,0,0,0,0],"id":14,"left_children":[1,3,5,-1,-1,7,9,11,13,15,-1,-1,-1,-1,-1,-1,-1],"loss_changes":[1.2234105E1,1.7484188E-1,1.3959876E0,0E0,0E0,1.2214507E0,3.2526112E-1,6.223E-1,1.3728256E0,1.6241813E-1,0E0,0E0,0E0,0E0,0E0,0E0,0E0],"parents":[2147483647,0,0,1,1,2,2,5,5,6,6,7,7,8,8,9,9],"right_children":[2,4,6,-1,-1,8,10,12,14,16,-1,-1,-1,-1,-1,-1,-1],"split_conditions":[1.895175E0,2.0794415E0,6.658011E0,5.9561063E-2,1.5323776E-2,2.0794415E0,8.165079E0,1.2053668E-1,1.609438E0,1.3974206E1,7.6484764E-3,2.3587963E-2,-1.9631758E-3,-2.0168614E-2,1.8983777E-4,4.073993E-3,-5.3661736E-3],"split_indices":[10,2,9,0,0,3,5,0,2,12,0,0,0,0,0,0,0],"split_type":[0,0,0,0,0,0,0,0,0,0,0,0,0,0,0,0,0],"sum_hessian":[5.35E2,3E0,5.32E2,2E0,1E0,4.76E2,5.6E1,3E0,4.73E2,5.5E1,1E0,2E0,1E0,2E0,4.71E2,1E0,5.4E1],"tree_param":{"num_deleted":"0","num_feature":"22","num_nodes":"17","size_leaf_vector":"1"}},{"base_weights":[2.1797752E-3,1.7108115E0,-1.0647067E-2,5.8369845E-2,1.509392E-2,3.5947137E-2,-6.474379E-2,2.2856737E-2,3.9626563E-1,-9.1986924E-2,1.08631976E-1,1.1157582E-3,-7.5036264E-3,2.7180451E-3,3.237844E-2,1.85268E-2,-2.9465242E-3,5.096048E-3,8.73731E-4],"categories":[],"categories_nodes":[],"categories_segments":[],"categories_sizes":[],"default_left":[0,0,0,0,0,0,0,0,0,0,0,0,0,0,0,0,0,0,0],"id":15,"left_children":[1,3,5,-1,-1,7,9,11,13,15,17,-1,-1,-1,-1,-1,-1,-1,-1],"loss_changes":[1.1765379E1,1.5557289E-1,1.3458037E0,0E0,0E0,1.3446395E0,1.1766479E0,1.0971694E0,1.9899495E0,1.0067207E0,1.6059032E-1,0E0,0E0,0E0,0E0,0E0,0E0,0E0,0E0],"parents":[2147483647,0,0,1,1,2,2,5,5,6,6,7,7,8,8,9,9,10,10],"right_children":[2,4,6,-1,-1,8,10,12,14,16,18,-1,-1,-1,-1,-1,-1,-1,-1],"split_conditions":[1.895175E0,2.0794415E0,4.65396E0,5.8369845E-2,1.509392E-2,8.2903915E1,9.944216E-1,2.9155195E1,8.2298386E-1,1.609438E0,5.598422E0,1.1157582E-3,-7.5036264E-3,2.7180451E-3,3.237844E-2,1.85268E-2,-2.9465242E-3,5.096048E-3,8.73731E-4],"split_indices":[10,2,9,0,0,16,19,15,1,3,9,0,0,0,0,0,0,0,0],"split_type":[0,0,0,0,0,0,0,0,0,0,0,0,0,0,0,0,0,0,0],"sum_hessian":[5.35E2,3E0,5.32E2,2E0,1E0,2.86E2,2.46E2,2.77E2,9E0,2.13E2,3.3E1,2.64E2,1.3E1,7E0,2E0,1E0,2.12E2,1.8E1,1.5E1],"tree_param":{"num_deleted":"0","num_feature":"22","num_nodes":"19","size_leaf_vector":"1"}},{"base_weights":[2.345206E-3,1.2688541E0,-1.4386695E-2,1.500565E0,-1.8211736E-3,-1.5196347E-1,4.8340717E-3,5.720245E-2,2.4623588E-2,-5.017338E-1,-9.4070554E-2,2.8568039E-2,7.486913E-4,-2.3148786E-2,-7.1454956E-3,-5.667668E-3,-2.5269735E-4,4.0158182E-3,-5.904369E-4],"categories":[],"categories_nodes":[],"categories_segments":[],"categories_sizes":[],"default_left":[0,0,0,0,0,0,0,0,0,0,0,0,0,0,0,0,0,0,0],"id":16,"left_children":[1,3,5,7,-1,9,11,-1,-1,13,15,-1,17,-1,-1,-1,-1,-1,-1],"loss_changes":[1.1376685E1,2.2476072E0,1.4022301E0,9.165478E-2,0E0,1.2690012E0,1.8029996E0,0E0,0E0,4.5638418E-1,4.6146494E-1,0E0,1.2671864E0,0E0,0E0,0E0,0E0,0E0,0E0],"parents":[2147483647,0,0,1,1,2,2,3,3,5,5,6,6,9,9,10,10,12,12],"right_children":[2,4,6,8,-1,10,12,-1,-1,14,16,-1,18,-1,-1,-1,-1,-1,-1],"split_conditions":[2.0794415E0,1.2053668E-1,3.38879E-5,5.6525284E1,-1.8211736E-3,4.2904596E0,2.0794415E0,5.720245E-2,2.4623588E-2,6.0864025E1,6.5101326E1,2.8568039E-2,7.333424E-1,-2.3148786E-2,-7.1454956E-3,-5.667668E-3,-2.5269735E-4,4.0158182E-3,-5.904369E-4],"split_indices":[3,0,19,18,0,2,2,0,0,17,16,0,20,0,0,0,0,0,0],"split_type":[0,0,0,0,0,0,0,0,0,0,0,0,0,0,0,0,0,0,0],"sum_hessian":[5.35E2,6E0,5.29E2,5E0,1E0,6.4E1,4.65E2,2E0,3E0,8E0,5.6E1,1E0,4.64E2,3E0,5E0,2.6E1,3E1,6.1E1,4.03E2],"tree_param":{"num_deleted":"0","num_feature":"22","num_nodes":"19","size_leaf_vector":"1"}},{"base_weights":[2.4162363E-3,1.2422177E0,-1.3963059E-2,1.4691857E0,-1.793856E-3,1.3979764E-1,-3.0982627E-2,5.6058396E-2,2.4069557E-2,9.517059E-2,8.518583E-1,-2.3937705E-1,-1.7483914E-2,9.28607E-3,1.7912999E-3,3.6150835E-2,2.1827908E-3,-5.35026E-3,-2.922538E-2,-4.6298006E-3,1.3114349E-4],"categories":[],"categories_nodes":[],"categories_segments":[],"categories_sizes":[],"default_left":[0,0,0,0,0,0,0,0,0,0,0,0,0,0,0,0,0,0,0,0,0],"id":17,"left_children":[1,3,5,7,-1,9,11,-1,-1,13,15,17,19,-1,-1,-1,-1,-1,-1,-1,-1],"loss_changes":[1.09019375E1,2.156456E0,1.39131E0,9.896755E-2,0E0,1.6031183E0,1.3404558E0,0E0,0E0,3.6919475E-1,7.3778415E-1,1.1268752E0,1.3465116E0,0E0,0E0,0E0,0E0,0E0,0E0,0E0,0E0],"parents":[2147483647,0,0,1,1,2,2,3,3,5,5,6,6,9,9,10,10,11,11,12,12],"right_children":[2,4,6,8,-1,10,12,-1,-1,14,16,18,20,-1,-1,-1,-1,-1,-1,-1,-1],"split_conditions":[2.0794415E0,1.2053668E-1,3.4011974E0,5.6525284E1,-1.793856E-3,9.9270886E-1,3.7376697E0,5.6058396E-2,2.4069557E-2,2.101277E1,-3.2162452E-16,1E0,3.38879E-5,9.28607E-3,1.7912999E-3,3.6150835E-2,2.1827908E-3,-5.35026E-3,-2.922538E-2,-4.6298006E-3,1.3114349E-4],"split_indices":[3,0,9,18,0,1,9,0,0,15,0,1,19,0,0,0,0,0,0,0,0],"split_type":[0,0,0,0,0,0,0,0,0,0,0,0,0,0,0,0,0,0,0,0,0],"sum_hessian":[5.35E2,6E0,5.29E2,5E0,1E0,5.2E1,4.77E2,2E0,3E0,5E1,2E0,2.8E1,4.49E2,6E0,4.4E1,1E0,1E0,2.7E1,1E0,6.1E1,3.88E2],"tree_param":{"num_deleted":"0","num_feature":"22","num_nodes":"21","size_leaf_vector":"1"}},{"base_weights":[2.509179E-3,1.2161417E0,-1.3524665E-2,1.4384648E0,-1.7669481E-3,1.36536E-1,-3.0134896E-2,5.493723E-2,2.3527991E-2,9.253267E-2,8.390805E-1,-2.33388E-1,-1.6969396E-2,9.668421E-3,1.8166186E-3,3.5608575E-2,2.1500492E-3,-5.1954845E-3,-2.8786998E-2,-1.058096E-3,4.3356954E-3],"categories":[],"categories_nodes":[],"categories_segments":[],"categories_sizes":[],"default_left":[0,0,0,0,0,0,0,0,0,0,0,0,0,0,0,0,0,0,0,0,0],"id":18,"left_children":[1,3,5,7,-1,9,11,-1,-1,13,15,17,19,-1,-1,-1,-1,-1,-1,-1,-1],"loss_changes":[1.0446576E1,2.0690184E0,1.3251619E0,1.05540276E-1,0E0,1.5608151E0,1.2751336E0,0E0,0E0,3.5518402E-1,7.1581674E-1,1.1016915E0,1.3350227E0,0E0,0E0,0E0,0E0,0E0,0E0,0E0,0E0],"parents":[2147483647,0,0,1,1,2,2,3,3,5,5,6,6,9,9,10,10,11,11,12,12],"right_children":[2,4,6,8,-1,10,12,-1,-1,14,16,18,20,-1,-1,-1,-1,-1,-1,-1,-1],"split_conditions":[2.0794415E0,1.2053668E-1,3.4011974E0,5.6525284E1,-1.7669481E-3,9.9270886E-1,3.7376697E0,5.493723E-2,2.3527991E-2,2.8903718E0,-3.2162452E-16,1E0,9.9995506E-1,9.668421E-3,1.8166186E-3,3.5608575E-2,2.1500492E-3,-5.1954845E-3,-2.8786998E-2,-1.058096E-3,4.3356954E-3],"split_indices":[3,0,9,18,0,1,9,0,0,2,0,1,19,0,0,0,0,0,0,0,0],"split_type":[0,0,0,0,0,0,0,0,0,0,0,0,0,0,0,0,0,0,0,0,0],"sum_hessian":[5.35E2,6E0,5.29E2,5E0,1E0,5.2E1,4.77E2,2E0,3E0,5E1,2E0,2.8E1,4.49E2,5E0,4.5E1,1E0,1E0,2.7E1,1E0,4.04E2,4.5E1],"tree_param":{"num_deleted":"0","num_feature":"22","num_nodes":"21","size_leaf_vector":"1"}},{"base_weights":[2.6115847E-3,1.1906143E0,-1.3083946E-2,1.4083884E0,-1.740444E-3,1.3336904E-1,-2.9295085E-2,5.3838484E-2,2.299861E-2,8.998189E-2,8.2649434E-1,-2.2755818E-1,-1.645303E-2,-9.817663E-3,3.1461522E-3,3.5074446E-2,2.1177982E-3,-5.0451867E-3,-2.8355194E-2,1.2711864E-3,-1.9622324E-3],"categories":[],"categories_nodes":[],"categories_segments":[],"categories_sizes":[],"default_left":[0,0,0,0,0,0,0,0,0,0,0,0,0,0,0,0,0,0,0,0,0],"id":19,"left_children":[1,3,5,7,-1,9,11,-1,-1,13,15,17,19,-1,-1,-1,-1,-1,-1,-1,-1],"loss_changes":[1.0010014E1,1.9851398E0,1.2622169E0,1.1142254E-1,0E0,1.5194854E0,1.2132945E0,0E0,0E0,3.5116255E-1,6.945033E-1,1.0769048E0,1.2986839E0,0E0,0E0,0E0,0E0,0E0,0E0,0E0,0E0],"parents":[2147483647,0,0,1,1,2,2,3,3,5,5,6,6,9,9,10,10,11,11,12,12],"right_children":[2,4,6,8,-1,10,12,-1,-1,14,16,18,20,-1,-1,-1,-1,-1,-1,-1,-1],"split_conditions":[2.0794415E0,1.2053668E-1,3.4011974E0,5.6525284E1,-1.740444E-3,9.9270886E-1,3.7376697E0,5.3838484E-2,2.299861E-2,2.3978953E0,-3.2162452E-16,1E0,4.65396E0,-9.817663E-3,3.1461522E-3,3.5074446E-2,2.1177982E-3,-5.0451867E-3,-2.8355194E-2,1.2711864E-3,-1.9622324E-3],"split_indices":[3,0,9,18,0,1,9,0,0,5,0,1,9,0,0,0,0,0,0,0,0],"split_type":[0,0,0,0,0,0,0,0,0,0,0,0,0,0,0,0,0,0,0,0,0],"sum_hessian":[5.35E2,6E0,5.29E2,5E0,1E0,5.2E1,4.77E2,2E0,3E0,5E1,2E0,2.8E1,4.49E2,1E0,4.9E1,1E0,1E0,2.7E1,1E0,2.04E2,2.45E2],"tree_param":{"num_deleted":"0","num_feature":"22","num_nodes":"21","size_leaf_vector":"1"}},{"base_weights":[2.666682E-3,1.165624E0,-1.2698164E-2,1.378943E0,-1.7143373E-3,-1.4084515E-1,5.203665E-3,5.2761715E-2,2.2481145E-2,-4.839662E-1,-8.419717E-2,2.8134355E-2,1.181256E-3,-2.2455812E-2,-6.807939E-3,-5.282932E-3,-4.316127E-5,3.9459164E-3,-5.6477304E-4],"categories":[],"categories_nodes":[],"categories_segments":[],"categories_sizes":[],"default_left":[0,0,0,0,0,0,0,0,0,0,0,0,0,0,0,0,0,0,0],"id":20,"left_children":[1,3,5,7,-1,9,11,-1,-1,13,15,-1,17,-1,-1,-1,-1,-1,-1],"loss_changes":[9.592403E0,1.9046764E0,1.2165875E0,1.1665821E-1,0E0,1.2226638E0,1.7470126E0,0E0,0E0,4.421482E-1,4.3326297E-1,0E0,1.2151502E0,0E0,0E0,0E0,0E0,0E0,0E0],"parents":[2147483647,0,0,1,1,2,2,3,3,5,5,6,6,9,9,10,10,12,12],"right_children":[2,4,6,8,-1,10,12,-1,-1,14,16,-1,18,-1,-1,-1,-1,-1,-1],"split_conditions":[2.0794415E0,1.2053668E-1,3.38879E-5,5.6525284E1,-1.7143373E-3,4.2904596E0,2.0794415E0,5.2761715E-2,2.2481145E-2,6.0864025E1,6.5101326E1,2.8134355E-2,7.333424E-1,-2.2455812E-2,-6.807939E-3,-5.282932E-3,-4.316127E-5,3.9459164E-3,-5.6477304E-4],"split_indices":[3,0,19,18,0,2,2,0,0,17,16,0,20,0,0,0,0,0,0],"split_type":[0,0,0,0,0,0,0,0,0,0,0,0,0,0,0,0,0,0,0],"sum_hessian":[5.35E2,6E0,5.29E2,5E0,1E0,6.4E1,4.65E2,2E0,3E0,8E0,5.6E1,1E0,4.64E2,3E0,5E0,2.6E1,3E1,6.1E1,4.03E2],"tree_param":{"num_deleted":"0","num_feature":"22","num_nodes":"19","size_leaf_vector":"1"}},{"base_weights":[2.7181266E-3,1.1411594E0,-1.2323019E-2,1.3501152E0,-1.6886223E-3,1.3013785E-1,-2.8093109E-2,5.170648E-2,2.1975318E-2,8.734131E-2,8.142996E-1,-2.2228912E-1,-1.5515826E-2,4.535932E-4,5.455655E-3,3.4556802E-2,2.0866788E-3,-4.912455E-3,-2.7921395E-2,-9.990638E-4,4.2425483E-3],"categories":[],"categories_nodes":[],"categories_segments":[],"categories_sizes":[],"default_left":[0,0,0,0,0,0,0,0,0,0,0,0,0,0,0,0,0,0,0,0,0],"id":21,"left_children":[1,3,5,7,-1,9,11,-1,-1,13,15,17,19,-1,-1,-1,-1,-1,-1,-1,-1],"loss_changes":[9.192239E0,1.827488E0,1.1943648E0,1.2128925E-1,0E0,1.4807045E0,1.1640458E0,0E0,0E0,3.4537312E-1,6.741415E-1,1.050273E0,1.2607846E0,0E0,0E0,0E0,0E0,0E0,0E0,0E0,0E0],"parents":[2147483647,0,0,1,1,2,2,3,3,5,5,6,6,9,9,10,10,11,11,12,12],"right_children":[2,4,6,8,-1,10,12,-1,-1,14,16,18,20,-1,-1,-1,-1,-1,-1,-1,-1],"split_conditions":[2.0794415E0,1.2053668E-1,3.4011974E0,5.6525284E1,-1.6886223E-3,9.9270886E-1,3.7376697E0,5.170648E-2,2.1975318E-2,3.1780539E0,-3.2162452E-16,1E0,9.9995506E-1,4.535932E-4,5.455655E-3,3.4556802E-2,2.0866788E-3,-4.912455E-3,-2.7921395E-2,-9.990638E-4,4.2425483E-3],"split_indices":[3,0,9,18,0,1,9,0,0,8,0,1,19,0,0,0,0,0,0,0,0],"split_type":[0,0,0,0,0,0,0,0,0,0,0,0,0,0,0,0,0,0,0,0,0],"sum_hessian":[5.35E2,6E0,5.29E2,5E0,1E0,5.2E1,4.77E2,2E0,3E0,5E1,2E0,2.8E1,4.49E2,2.9E1,2.1E1,1E0,1E0,2.7E1,1E0,4.04E2,4.5E1],"tree_param":{"num_deleted":"0","num_feature":"22","num_nodes":"21","size_leaf_vector":"1"}},{"base_weights":[2.7950816E-3,1.1172094E0,-1.1928871E-2,1.321892E0,-1.663293E-3,-1.8924512E-2,-8.389869E-3,5.0672352E-2,2.1480873E-2,2.7727326E-2,-1.1913357E-2,3.8110975E-3,-8.217649E-4],"categories":[],"categories_nodes":[],"categories_segments":[],"categories_sizes":[],"default_left":[0,0,0,0,0,0,0,0,0,0,0,0,0],"id":22,"left_children":[1,3,5,7,-1,-1,9,-1,-1,-1,11,-1,-1],"loss_changes":[8.808328E0,1.7534409E0,1.1555384E0,1.2535954E-1,0E0,0E0,1.7460849E0,0E0,0E0,0E0,1.1369406E0,0E0,0E0],"parents":[2147483647,0,0,1,1,2,2,3,3,6,6,10,10],"right_children":[2,4,6,8,-1,-1,10,-1,-1,-1,12,-1,-1],"split_conditions":[2.0794415E0,1.2053668E-1,1.609438E0,5.6525284E1,-1.663293E-3,-1.8924512E-2,2.0794415E0,5.0672352E-2,2.1480873E-2,2.7727326E-2,3.4011974E0,3.8110975E-3,-8.217649E-4],"split_indices":[3,0,2,18,0,0,2,0,0,0,9,0,0],"split_type":[0,0,0,0,0,0,0,0,0,0,0,0,0],"sum_hessian":[5.35E2,6E0,5.29E2,5E0,1E0,2E0,5.27E2,2E0,3E0,1E0,5.26E2,5.2E1,4.74E2],"tree_param":{"num_deleted":"0","num_feature":"22","num_nodes":"13","size_leaf_vector":"1"}},{"base_weights":[2.8647408E-3,1.0937631E0,-1.1548757E-2,1.2942607E0,-1.6383437E-3,-1.5341182E-1,3.5482538E-3,4.9658906E-2,2.0997554E-2,-1.859138E-2,-1.1135733E-1,2.7311416E-2,-2.4551E-4,-3.740499E-3,7.72445E-3,1.0259399E-4,-1.7488437E-2],"categories":[],"categories_nodes":[],"categories_segments":[],"categories_sizes":[],"default_left":[0,0,0,0,0,0,0,0,0,0,0,0,0,0,0,0,0],"id":23,"left_children":[1,3,5,7,-1,9,11,-1,-1,-1,13,-1,15,-1,-1,-1,-1],"loss_changes":[8.440515E0,1.6824064E0,1.1356494E0,1.2890148E-1,0E0,9.311024E-1,1.6515712E0,0E0,0E0,0E0,2.6803035E-1,0E0,1.0250345E0,0E0,0E0,0E0,0E0],"parents":[2147483647,0,0,1,1,2,2,3,3,5,5,6,6,10,10,12,12],"right_children":[2,4,6,8,-1,10,12,-1,-1,-1,14,-1,16,-1,-1,-1,-1],"split_conditions":[2.0794415E0,1.2053668E-1,3.994E-7,5.6525284E1,-1.6383437E-3,2.3978953E0,2.0794415E0,4.9658906E-2,2.0997554E-2,-1.859138E-2,8.165079E0,2.7311416E-2,7.832009E0,-3.740499E-3,7.72445E-3,1.0259399E-4,-1.7488437E-2],"split_indices":[3,0,19,18,0,2,2,0,0,0,5,0,20,0,0,0,0],"split_type":[0,0,0,0,0,0,0,0,0,0,0,0,0,0,0,0,0],"sum_hessian":[5.35E2,6E0,5.29E2,5E0,1E0,5E1,4.79E2,2E0,3E0,3E0,4.7E1,1E0,4.78E2,4.6E1,1E0,4.76E2,2E0],"tree_param":{"num_deleted":"0","num_feature":"22","num_nodes":"17","size_leaf_vector":"1"}},{"base_weights":[2.8988286E-3,1.07081E0,-1.1211128E-2,1.267209E0,-1.6137684E-3,3.1389758E-2,-6.052024E-2,4.8665732E-2,2.0525109E-2,1.8952787E-2,3.7151113E-1,-5.780228E-1,-4.957795E-2,7.603835E-4,-1.7138667E-2,2.5978535E-3,3.0223502E-2,-2.213565E-2,9.1959356E-4,-2.2249038E-3,3.0902636E-3],"categories":[],"categories_nodes":[],"categories_segments":[],"categories_sizes":[],"default_left":[0,0,0,0,0,0,0,0,0,0,0,0,0,0,0,0,0,0,0,0,0],"id":24,"left_children":[1,3,5,7,-1,9,11,-1,-1,13,15,17,19,-1,-1,-1,-1,-1,-1,-1,-1],"loss_changes":[8.088549E0,1.6142626E0,1.1152239E0,1.319542E-1,0E0,1.1985315E0,1.3643571E0,0E0,0E0,1.0559963E0,1.7246517E0,5.0904775E-1,9.1548365E-1,0E0,0E0,0E0,0E0,0E0,0E0,0E0,0E0],"parents":[2147483647,0,0,1,1,2,2,3,3,5,5,6,6,9,9,10,10,11,11,12,12],"right_children":[2,4,6,8,-1,10,12,-1,-1,14,16,18,20,-1,-1,-1,-1,-1,-1,-1,-1],"split_conditions":[2.0794415E0,1.2053668E-1,4.65396E0,5.6525284E1,-1.6137684E-3,8.2903915E1,3.4448817E0,4.8665732E-2,2.0525109E-2,7.832009E0,8.2298386E-1,-3.2162452E-16,9.944216E-1,7.603835E-4,-1.7138667E-2,2.5978535E-3,3.0223502E-2,-2.213565E-2,9.1959356E-4,-2.2249038E-3,3.0902636E-3],"split_indices":[3,0,9,18,0,16,10,0,0,20,1,0,19,0,0,0,0,0,0,0,0],"split_type":[0,0,0,0,0,0,0,0,0,0,0,0,0,0,0,0,0,0,0,0,0],"sum_hessian":[5.35E2,6E0,5.29E2,5E0,1E0,2.84E2,2.45E2,2E0,3E0,2.75E2,9E0,4E0,2.41E2,2.73E2,2E0,7E0,2E0,3E0,1E0,2.08E2,3.3E1],"tree_param":{"num_deleted":"0","num_feature":"22","num_nodes":"21","size_leaf_vector":"1"}},{"base_weights":[2.9306493E-3,1.0483395E0,-1.0882167E-2,1.2407246E0,-1.5895619E-3,3.050576E-2,-5.8787357E-2,4.7692414E-2,2.0063294E-2,1.8324863E-2,3.6364794E-1,-5.6492525E-1,-4.8087038E-2,7.3765527E-4,-1.6795896E-2,-1.1062098E-3,2.3146326E-2,-2.1637598E-2,9.057996E-4,-2.158476E-3,3.0002822E-3],"categories":[],"categories_nodes":[],"categories_segments":[],"categories_sizes":[],"default_left":[0,0,0,0,0,0,0,0,0,0,0,0,0,0,0,0,0,0,0,0,0],"id":25,"left_children":[1,3,5,7,-1,9,11,-1,-1,13,15,17,19,-1,-1,-1,-1,-1,-1,-1,-1],"loss_changes":[7.7512703E0,1.5488892E0,1.0526224E0,1.34552E-1,0E0,1.1498576E0,1.3051304E0,0E0,0E0,1.0133184E0,1.6621627E0,4.869454E-1,8.623999E-1,0E0,0E0,0E0,0E0,0E0,0E0,0E0,0E0],"parents":[2147483647,0,0,1,1,2,2,3,3,5,5,6,6,9,9,10,10,11,11,12,12],"right_children":[2,4,6,8,-1,10,12,-1,-1,14,16,18,20,-1,-1,-1,-1,-1,-1,-1,-1],"split_conditions":[2.0794415E0,1.2053668E-1,4.65396E0,5.6525284E1,-1.5895619E-3,8.2903915E1,3.4448817E0,4.7692414E-2,2.0063294E-2,7.832009E0,7.0555595E1,-3.2162452E-16,9.944216E-1,7.3765527E-4,-1.6795896E-2,-1.1062098E-3,2.3146326E-2,-2.1637598E-2,9.057996E-4,-2.158476E-3,3.0002822E-3],"split_indices":[3,0,9,18,0,16,10,0,0,20,17,0,19,0,0,0,0,0,0,0,0],"split_type":[0,0,0,0,0,0,0,0,0,0,0,0,0,0,0,0,0,0,0,0,0],"sum_hessian":[5.35E2,6E0,5.29E2,5E0,1E0,2.84E2,2.45E2,2E0,3E0,2.75E2,9E0,4E0,2.41E2,2.73E2,2E0,5E0,4E0,3E0,1E0,2.08E2,3.3E1],"tree_param":{"num_deleted":"0","num_feature":"22","num_nodes":"21","size_leaf_vector":"1"}},{"base_weights":[2.940226E-3,1.0263417E0,-1.0581944E-2,1.2147955E0,-1.5657186E-3,-1.7751442E-2,-7.260012E-3,4.673857E-2,1.961187E-2,2.6879273E-2,-1.0674075E-2,3.6268018E-3,-7.599529E-4],"categories":[],"categories_nodes":[],"categories_segments":[],"categories_sizes":[],"default_left":[0,0,0,0,0,0,0,0,0,0,0,0,0],"id":26,"left_children":[1,3,5,7,-1,-1,9,-1,-1,-1,11,-1,-1],"loss_changes":[7.4283547E0,1.4861751E0,1.0188605E0,1.3672352E-1,0E0,0E0,1.6377599E0,0E0,0E0,0E0,1.0193688E0,0E0,0E0],"parents":[2147483647,0,0,1,1,2,2,3,3,6,6,10,10],"right_children":[2,4,6,8,-1,-1,10,-1,-1,-1,12,-1,-1],"split_conditions":[2.0794415E0,1.2053668E-1,1.609438E0,5.6525284E1,-1.5657186E-3,-1.7751442E-2,2.0794415E0,4.673857E-2,1.961187E-2,2.6879273E-2,3.4011974E0,3.6268018E-3,-7.599529E-4],"split_indices":[3,0,2,18,0,0,2,0,0,0,9,0,0],"split_type":[0,0,0,0,0,0,0,0,0,0,0,0,0],"sum_hessian":[5.35E2,6E0,5.29E2,5E0,1E0,2E0,5.27E2,2E0,3E0,1E0,5.26E2,5.2E1,4.74E2],"tree_param":{"num_deleted":"0","num_feature":"22","num_nodes":"13","size_leaf_vector":"1"}},{"base_weights":[2.9952643E-3,1.332298E0,-6.986361E-3,4.5803793E-2,1.1232187E-2,-1.7739596E-2,1.7390084E-1,-3.466017E-2,1.03446774E-1,2.816807E-1,-5.9708834E-1,5.6994316E-4,-2.3194836E-3,6.829669E-4,5.076616E-3,1.4332345E-2,-1.4080465E-3,-6.078531E-3,-2.6707502E-2],"categories":[],"categories_nodes":[],"categories_segments":[],"categories_sizes":[],"default_left":[0,0,0,0,0,0,0,0,0,0,0,0,0,0,0,0,0,0,0],"id":27,"left_children":[1,3,5,-1,-1,7,9,11,13,15,17,-1,-1,-1,-1,-1,-1,-1,-1],"loss_changes":[7.1212783E0,1.7358017E-1,1.0398353E0,0E0,0E0,1.0370593E0,2.661101E0,1.0154271E0,3.2516348E-1,1.7620258E0,2.8219438E-1,0E0,0E0,0E0,0E0,0E0,0E0,0E0,0E0],"parents":[2147483647,0,0,1,1,2,2,5,5,6,6,7,7,8,8,9,9,10,10],"right_children":[2,4,6,-1,-1,8,10,12,14,16,18,-1,-1,-1,-1,-1,-1,-1,-1],"split_conditions":[1.895175E0,2.0794415E0,9.9270886E-1,4.5803793E-2,1.1232187E-2,9.944216E-1,7.893136E1,4.304065E0,2.62979E1,2.7702356E1,1E0,5.6994316E-4,-2.3194836E-3,6.829669E-4,5.076616E-3,1.4332345E-2,-1.4080465E-3,-6.078531E-3,-2.6707502E-2],"split_indices":[10,2,1,0,0,19,17,2,12,14,1,0,0,0,0,0,0,0,0],"split_type":[0,0,0,0,0,0,0,0,0,0,0,0,0,0,0,0,0,0,0],"sum_hessian":[5.35E2,3E0,5.32E2,2E0,1E0,5.03E2,2.9E1,4.42E2,6.1E1,2.6E1,3E0,1.96E2,2.46E2,2.8E1,3.3E1,1.6E1,1E1,2E0,1E0],"tree_param":{"num_deleted":"0","num_feature":"22","num_nodes":"19","size_leaf_vector":"1"}},{"base_weights":[2.9822437E-3,9.881872E-1,-1.0035524E-2,1.1697863E0,-1.521112E-3,-1.738803E-2,-6.7803496E-3,5.0889302E-2,2.1756584E-2,2.62611E-2,-1.0115303E-2,3.4870482E-3,-7.2576106E-4],"categories":[],"categories_nodes":[],"categories_segments":[],"categories_sizes":[],"default_left":[0,0,0,0,0,0,0,0,0,0,0,0,0],"id":28,"left_children":[1,3,5,7,-1,-1,9,-1,-1,-1,11,-1,-1],"loss_changes":[6.8842077E0,1.3799453E0,9.787088E-1,1.7425251E-1,0E0,0E0,1.5621938E0,0E0,0E0,0E0,9.4013345E-1,0E0,0E0],"parents":[2147483647,0,0,1,1,2,2,3,3,6,6,10,10],"right_children":[2,4,6,8,-1,-1,10,-1,-1,-1,12,-1,-1],"split_conditions":[2.0794415E0,1.2053668E-1,1.609438E0,3.4339871E0,-1.521112E-3,-1.738803E-2,2.0794415E0,5.0889302E-2,2.1756584E-2,2.62611E-2,3.4011974E0,3.4870482E-3,-7.2576106E-4],"split_indices":[3,0,2,7,0,0,2,0,0,0,9,0,0],"split_type":[0,0,0,0,0,0,0,0,0,0,0,0,0],"sum_hessian":[5.35E2,6E0,5.29E2,5E0,1E0,2E0,5.27E2,1E0,4E0,1E0,5.26E2,5.2E1,4.74E2],"tree_param":{"num_deleted":"0","num_feature":"22","num_nodes":"13","size_leaf_vector":"1"}},{"base_weights":[3.0471792E-3,9.6870226E-1,-9.712505E-3,1.1468004E0,-1.4982955E-3,-1.4051726E-1,4.2057335E-3,5.0125964E-2,2.1234429E-2,-1.7282886E-2,-1.0129157E-1,5.489347E-1,-1.5250448E-3,-3.4323973E-3,7.731412E-3,7.651459E-3,2.5867185E-2,-1.848612E-2,7.105637E-5],"categories":[],"categories_nodes":[],"categories_segments":[],"categories_sizes":[],"default_left":[0,0,0,0,0,0,0,0,0,0,0,0,0,0,0,0,0,0,0],"id":29,"left_children":[1,3,5,7,-1,9,11,-1,-1,-1,13,15,17,-1,-1,-1,-1,-1,-1],"loss_changes":[6.613708E0,1.3272071E0,9.6549404E-1,1.976819E-1,0E0,8.1302655E-1,1.4992633E0,0E0,0E0,0E0,2.55602E-1,2.4046648E-1,1.1406742E0,0E0,0E0,0E0,0E0,0E0,0E0],"parents":[2147483647,0,0,1,1,2,2,3,3,5,5,6,6,10,10,11,11,12,12],"right_children":[2,4,6,8,-1,10,12,-1,-1,-1,14,16,18,-1,-1,-1,-1,-1,-1],"split_conditions":[2.0794415E0,1.2053668E-1,3.994E-7,3.4339871E0,-1.4982955E-3,2.3978953E0,2.4849067E0,5.0125964E-2,2.1234429E-2,-1.7282886E-2,8.165079E0,-1.2053668E-1,2.7080503E0,-3.4323973E-3,7.731412E-3,7.651459E-3,2.5867185E-2,-1.848612E-2,7.105637E-5],"split_indices":[3,0,19,7,0,2,2,0,0,0,5,0,2,0,0,0,0,0,0],"split_type":[0,0,0,0,0,0,0,0,0,0,0,0,0,0,0,0,0,0,0],"sum_hessian":[5.35E2,6E0,5.29E2,5E0,1E0,5E1,4.79E2,1E0,4E0,3E0,4.7E1,4E0,4.75E2,4.6E1,1E0,3E0,1E0,2E0,4.73E2],"tree_param":{"num_deleted":"0","num_feature":"22","num_nodes":"19","size_leaf_vector":"1"}},{"base_weights":[3.090056E-3,1.2598387E0,-6.347251E-3,4.3447655E-2,1.0418839E-2,8.260393E-3,-1.2847881E-1,-2.3537104E-3,1.6648898E-1,-1.3983907E-1,7.6154405E-3,-5.8679504E-4,3.2771567E-3,8.157993E-3,-1.7606435E-2,4.4340054E-3,-4.4326847E-3],"categories":[],"categories_nodes":[],"categories_segments":[],"categories_sizes":[],"default_left":[0,0,0,0,0,0,0,0,0,0,0,0,0,0,0,0,0],"id":30,"left_children":[1,3,5,-1,-1,7,9,11,13,15,-1,-1,-1,-1,-1,-1,-1],"loss_changes":[6.36513E0,1.847825E-1,9.519622E-1,0E0,0E0,8.014916E-1,2.8306794E-1,8.6232823E-1,2.5427465E0,1.4936495E-1,0E0,0E0,0E0,0E0,0E0,0E0,0E0],"parents":[2147483647,0,0,1,1,2,2,5,5,6,6,7,7,8,8,9,9],"right_children":[2,4,6,-1,-1,8,10,12,14,16,-1,-1,-1,-1,-1,-1,-1],"split_conditions":[1.895175E0,2.0794415E0,6.658011E0,4.3447655E-2,1.0418839E-2,9.9270886E-1,8.165079E0,9.944216E-1,7.893136E1,1.3974206E1,7.6154405E-3,-5.8679504E-4,3.2771567E-3,8.157993E-3,-1.7606435E-2,4.4340054E-3,-4.4326847E-3],"split_indices":[10,2,9,0,0,1,5,19,17,12,0,0,0,0,0,0,0],"split_type":[0,0,0,0,0,0,0,0,0,0,0,0,0,0,0,0,0],"sum_hessian":[5.35E2,3E0,5.32E2,2E0,1E0,4.76E2,5.6E1,4.47E2,2.9E1,5.5E1,1E0,3.88E2,5.9E1,2.6E1,3E0,1E0,5.4E1],"tree_param":{"num_deleted":"0","num_feature":"22","num_nodes":"17","size_leaf_vector":"1"}},{"base_weights":[3.0994555E-3,9.3347245E-1,-9.194338E-3,1.1068089E0,-1.5981909E-3,-1.6770326E-2,-6.052967E-3,4.872236E-2,2.0356175E-2,2.5356807E-2,-9.272145E-3,3.3675786E-3,-6.843669E-4],"categories":[],"categories_nodes":[],"categories_segments":[],"categories_sizes":[],"default_left":[0,0,0,0,0,0,0,0,0,0,0,0,0],"id":31,"left_children":[1,3,5,7,-1,-1,9,-1,-1,-1,11,-1,-1],"loss_changes":[6.139251E0,1.2562351E0,9.1202044E-1,2.2718573E-1,0E0,0E0,1.4547795E0,0E0,0E0,0E0,8.697159E-1,0E0,0E0],"parents":[2147483647,0,0,1,1,2,2,3,3,6,6,10,10],"right_children":[2,4,6,8,-1,-1,10,-1,-1,-1,12,-1,-1],"split_conditions":[2.0794415E0,1.2053668E-1,1.609438E0,3.4339871E0,-1.5981909E-3,-1.6770326E-2,2.0794415E0,4.872236E-2,2.0356175E-2,2.5356807E-2,3.4011974E0,3.3675786E-3,-6.843669E-4],"split_indices":[3,0,2,7,0,0,2,0,0,0,9,0,0],"split_type":[0,0,0,0,0,0,0,0,0,0,0,0,0],"sum_hessian":[5.35E2,6E0,5.29E2,5E0,1E0,2E0,5.27E2,1E0,4E0,1E0,5.26E2,5.2E1,4.74E2],"tree_param":{"num_deleted":"0","num_feature":"22","num_nodes":"13","size_leaf_vector":"1"}},{"base_weights":[3.1533926E-3,1.2131516E0,-5.9331856E-3,4.188792E-2,9.957214E-3,8.166172E-3,-1.2381846E-1,1.1856937E-2,-4.31231E-1,-1.3497172E-1,7.511474E-3,-6.172618E-5,7.2688507E-3,-2.6022708E-2,9.9232646E-5,4.3777605E-3,-4.281964E-3],"categories":[],"categories_nodes":[],"categories_segments":[],"categories_sizes":[],"default_left":[0,0,0,0,0,0,0,0,0,0,0,0,0,0,0,0,0],"id":32,"left_children":[1,3,5,-1,-1,7,9,11,13,15,-1,-1,-1,-1,-1,-1,-1],"loss_changes":[5.90038E0,1.8203688E-1,8.8691396E-1,0E0,0E0,7.786695E-1,2.716878E-1,1.5203441E0,7.6103956E-1,1.429013E-1,0E0,0E0,0E0,0E0,0E0,0E0,0E0],"parents":[2147483647,0,0,1,1,2,2,5,5,6,6,7,7,8,8,9,9],"right_children":[2,4,6,-1,-1,8,10,12,14,16,-1,-1,-1,-1,-1,-1,-1],"split_conditions":[1.895175E0,2.0794415E0,6.658011E0,4.188792E-2,9.957214E-3,7.832009E0,8.165079E0,9.9270886E-1,1.2053668E-1,1.3974206E1,7.511474E-3,-6.172618E-5,7.2688507E-3,-2.6022708E-2,9.9232646E-5,4.3777605E-3,-4.281964E-3],"split_indices":[10,2,9,0,0,20,5,1,0,12,0,0,0,0,0,0,0],"split_type":[0,0,0,0,0,0,0,0,0,0,0,0,0,0,0,0,0],"sum_hessian":[5.35E2,3E0,5.32E2,2E0,1E0,4.76E2,5.6E1,4.73E2,3E0,5.5E1,1E0,4.47E2,2.6E1,1E0,2E0,1E0,5.4E1],"tree_param":{"num_deleted":"0","num_feature":"22","num_nodes":"17","size_leaf_vector":"1"}},{"base_weights":[3.134792E-3,9.0067416E-1,-8.725416E-3,1.0682944E0,-1.5757064E-3,-1.650699E-2,-5.6321435E-3,4.7363207E-2,1.9513313E-2,2.4867421E-2,-8.7886145E-3,-1.7357412E-4,-1.5940525E-2],"categories":[],"categories_nodes":[],"categories_segments":[],"categories_sizes":[],"default_left":[0,0,0,0,0,0,0,0,0,0,0,0,0],"id":33,"left_children":[1,3,5,7,-1,-1,9,-1,-1,-1,11,-1,-1],"loss_changes":[5.713581E0,1.1745367E0,8.846673E-1,2.5292063E-1,0E0,0E0,1.3981537E0,0E0,0E0,0E0,8.238706E-1,0E0,0E0],"parents":[2147483647,0,0,1,1,2,2,3,3,6,6,10,10],"right_children":[2,4,6,8,-1,-1,10,-1,-1,-1,12,-1,-1],"split_conditions":[2.0794415E0,1.2053668E-1,1.609438E0,3.4339871E0,-1.5757064E-3,-1.650699E-2,2.0794415E0,4.7363207E-2,1.9513313E-2,2.4867421E-2,7.832009E0,-1.7357412E-4,-1.5940525E-2],"split_indices":[3,0,2,7,0,0,2,0,0,0,20,0,0],"split_type":[0,0,0,0,0,0,0,0,0,0,0,0,0],"sum_hessian":[5.35E2,6E0,5.29E2,5E0,1E0,2E0,5.27E2,1E0,4E0,1E0,5.26E2,5.24E2,2E0],"tree_param":{"num_deleted":"0","num_feature":"22","num_nodes":"13","size_leaf_vector":"1"}},{"base_weights":[3.1481115E-3,8.829827E-1,-8.478285E-3,1.0473917E0,-1.5520708E-3,-1.617685E-2,-5.4466017E-3,4.665276E-2,1.9044993E-2,2.449441E-2,-8.555534E-3,3.2670842E-3,-6.4930203E-4],"categories":[],"categories_nodes":[],"categories_segments":[],"categories_sizes":[],"default_left":[0,0,0,0,0,0,0,0,0,0,0,0,0],"id":34,"left_children":[1,3,5,7,-1,-1,9,-1,-1,-1,11,-1,-1],"loss_changes":[5.490393E0,1.1299205E0,8.498679E-1,2.6951265E-1,0E0,0E0,1.3561919E0,0E0,0E0,0E0,8.125032E-1,0E0,0E0],"parents":[2147483647,0,0,1,1,2,2,3,3,6,6,10,10],"right_children":[2,4,6,8,-1,-1,10,-1,-1,-1,12,-1,-1],"split_conditions":[2.0794415E0,1.2053668E-1,1.609438E0,3.4339871E0,-1.5520708E-3,-1.617685E-2,2.0794415E0,4.665276E-2,1.9044993E-2,2.449441E-2,3.4011974E0,3.2670842E-3,-6.4930203E-4],"split_indices":[3,0,2,7,0,0,2,0,0,0,9,0,0],"split_type":[0,0,0,0,0,0,0,0,0,0,0,0,0],"sum_hessian":[5.35E2,6E0,5.29E2,5E0,1E0,2E0,5.27E2,1E0,4E0,1E0,5.26E2,5.2E1,4.74E2],"tree_param":{"num_deleted":"0","num_feature":"22","num_nodes":"13","size_leaf_vector":"1"}},{"base_weights":[3.1937445E-3,8.6565685E-1,-8.203303E-3,1.0269195E0,-1.5287899E-3,-1.2925549E-1,4.6755816E-3,4.595297E-2,1.8587913E-2,-1.624688E-2,-9.220374E-2,5.192474E-1,-7.3940767E-4,-1.8446915E-3,-7.899476E-3,7.4082813E-3,2.4126993E-2,-1.8073283E-2,9.2112045E-5],"categories":[],"categories_nodes":[],"categories_segments":[],"categories_sizes":[],"default_left":[0,0,0,0,0,0,0,0,0,0,0,0,0,0,0,0,0,0,0],"id":35,"left_children":[1,3,5,7,-1,9,11,-1,-1,-1,13,15,17,-1,-1,-1,-1,-1,-1],"loss_changes":[5.275731E0,1.0870438E0,8.2688344E-1,2.8473282E-1,0E0,7.2917783E-1,1.3378564E0,0E0,0E0,0E0,2.3607484E-1,1.8941522E-1,1.0930202E0,0E0,0E0,0E0,0E0,0E0,0E0],"parents":[2147483647,0,0,1,1,2,2,3,3,5,5,6,6,10,10,11,11,12,12],"right_children":[2,4,6,8,-1,10,12,-1,-1,-1,14,16,18,-1,-1,-1,-1,-1,-1],"split_conditions":[2.0794415E0,1.2053668E-1,3.994E-7,3.4339871E0,-1.5287899E-3,2.3978953E0,2.4849067E0,4.595297E-2,1.8587913E-2,-1.624688E-2,8.069392E1,-1.2053668E-1,2.7080503E0,-1.8446915E-3,-7.899476E-3,7.4082813E-3,2.4126993E-2,-1.8073283E-2,9.2112045E-5],"split_indices":[3,0,19,7,0,2,2,0,0,0,17,0,2,0,0,0,0,0,0],"split_type":[0,0,0,0,0,0,0,0,0,0,0,0,0,0,0,0,0,0,0],"sum_hessian":[5.35E2,6E0,5.29E2,5E0,1E0,5E1,4.79E2,1E0,4E0,3E0,4.7E1,4E0,4.75E2,4.1E1,6E0,3E0,1E0,2E0,4.73E2],"tree_param":{"num_deleted":"0","num_feature":"22","num_nodes":"19","size_leaf_vector":"1"}},{"base_weights":[3.1922886E-3,1.126153E0,-5.241173E-3,4.5263674E-2,1.4870335E-2,-6.222699E-2,2.2316528E-2,2.1043505E-1,-8.013586E-2,2.3453711E-1,9.8041305E-3,-5.3197453E-3,8.008305E-3,-5.944944E-4,-4.296705E-3,3.982568E-3,3.2526735E-2,4.545067E-4,-1.7927174E-2],"categories":[],"categories_nodes":[],"categories_segments":[],"categories_sizes":[],"default_left":[0,0,0,0,0,0,0,0,0,0,0,0,0,0,0,0,0,0,0],"id":36,"left_children":[1,3,5,-1,-1,7,9,11,13,15,17,-1,-1,-1,-1,-1,-1,-1,-1],"loss_changes":[5.0820613E0,2.1709728E-1,8.384109E-1,0E0,0E0,8.6651754E-1,9.5364046E-1,2.8836468E-1,6.212485E-1,1.5857729E0,1.1163116E0,0E0,0E0,0E0,0E0,0E0,0E0,0E0,0E0],"parents":[2147483647,0,0,1,1,2,2,5,5,6,6,7,7,8,8,9,9,10,10],"right_children":[2,4,6,-1,-1,8,10,12,14,16,18,-1,-1,-1,-1,-1,-1,-1,-1],"split_conditions":[1.895175E0,1.609438E0,-4.6472317E-1,4.5263674E-2,1.4870335E-2,2.944439E0,2.9957323E0,2.944439E0,8.115746E-1,8.1666664E1,7.832009E0,-5.3197453E-3,8.008305E-3,-5.944944E-4,-4.296705E-3,3.982568E-3,3.2526735E-2,4.545067E-4,-1.7927174E-2],"split_indices":[10,2,1,0,0,2,7,7,20,16,20,0,0,0,0,0,0,0,0],"split_type":[0,0,0,0,0,0,0,0,0,0,0,0,0,0,0,0,0,0,0],"sum_hessian":[5.35E2,3E0,5.32E2,1E0,2E0,1.73E2,3.59E2,1E1,1.63E2,1.9E1,3.4E2,1E0,9E0,8.4E1,7.9E1,1.8E1,1E0,3.38E2,2E0],"tree_param":{"num_deleted":"0","num_feature":"22","num_nodes":"19","size_leaf_vector":"1"}},{"base_weights":[3.2401164E-3,8.404051E-1,-7.822894E-3,9.942165E-1,-1.2369503E-3,-1.5537466E-2,-4.9098236E-3,4.4584718E-2,1.7957907E-2,2.375827E-2,-7.924614E-3,-1.5023765E-4,-1.5471126E-2],"categories":[],"categories_nodes":[],"categories_segments":[],"categories_sizes":[],"default_left":[0,0,0,0,0,0,0,0,0,0,0,0,0],"id":37,"left_children":[1,3,5,7,-1,-1,9,-1,-1,-1,11,-1,-1],"loss_changes":[4.970773E0,9.902339E-1,7.850029E-1,2.781191E-1,0E0,0E0,1.2747126E0,0E0,0E0,0E0,7.779237E-1,0E0,0E0],"parents":[2147483647,0,0,1,1,2,2,3,3,6,6,10,10],"right_children":[2,4,6,8,-1,-1,10,-1,-1,-1,12,-1,-1],"split_conditions":[2.0794415E0,1.2053668E-1,1.609438E0,3.4339871E0,-1.2369503E-3,-1.5537466E-2,2.0794415E0,4.4584718E-2,1.7957907E-2,2.375827E-2,7.832009E0,-1.5023765E-4,-1.5471126E-2],"split_indices":[3,0,2,7,0,0,2,0,0,0,20,0,0],"split_type":[0,0,0,0,0,0,0,0,0,0,0,0,0],"sum_hessian":[5.35E2,6E0,5.29E2,5E0,1E0,2E0,5.27E2,1E0,4E0,1E0,5.26E2,5.24E2,2E0],"tree_param":{"num_deleted":"0","num_feature":"22","num_nodes":"13","size_leaf_vector":"1"}},{"base_weights":[3.243482E-3,8.239509E-1,-7.6021696E-3,9.7481376E-1,-1.2183961E-3,-1.2500641E-1,4.8878687E-3,4.3915946E-2,1.7526915E-2,-1.5657363E-2,-8.9326635E-2,1.287563E-1,-1.6220836E-2,-3.0531671E-3,7.4342517E-3,5.331948E-3,-8.190566E-3,-2.914425E-3,4.2137568E-4],"categories":[],"categories_nodes":[],"categories_segments":[],"categories_sizes":[],"default_left":[0,0,0,0,0,0,0,0,0,0,0,0,0,0,0,0,0,0,0],"id":38,"left_children":[1,3,5,7,-1,9,11,-1,-1,-1,13,15,17,-1,-1,-1,-1,-1,-1],"loss_changes":[4.777257E0,9.526043E-1,7.777943E-1,2.9085684E-1,0E0,6.75616E-1,1.2571454E0,0E0,0E0,0E0,2.2662082E-1,1.4259187E0,1.0080607E0,0E0,0E0,0E0,0E0,0E0,0E0],"parents":[2147483647,0,0,1,1,2,2,3,3,5,5,6,6,10,10,11,11,12,12],"right_children":[2,4,6,8,-1,10,12,-1,-1,-1,14,16,18,-1,-1,-1,-1,-1,-1],"split_conditions":[2.0794415E0,1.2053668E-1,3.994E-7,3.4339871E0,-1.2183961E-3,2.3978953E0,7.333424E-1,4.3915946E-2,1.7526915E-2,-1.5657363E-2,8.165079E0,2.903445E1,-4.6472317E-1,-3.0531671E-3,7.4342517E-3,5.331948E-3,-8.190566E-3,-2.914425E-3,4.2137568E-4],"split_indices":[3,0,19,7,0,2,20,0,0,0,5,13,1,0,0,0,0,0,0],"split_type":[0,0,0,0,0,0,0,0,0,0,0,0,0,0,0,0,0,0,0],"sum_hessian":[5.35E2,6E0,5.29E2,5E0,1E0,5E1,4.79E2,1E0,4E0,3E0,4.7E1,6.9E1,4.1E2,4.6E1,1E0,6.2E1,7E0,1.11E2,2.99E2],"tree_param":{"num_deleted":"0","num_feature":"22","num_nodes":"19","size_leaf_vector":"1"}},{"base_weights":[3.227514E-3,8.078359E-1,-7.4054785E-3,9.5580983E-1,-1.2001202E-3,2.760149E-2,-4.7932226E-2,4.3257207E-2,1.710627E-2,1.602699E-2,3.442975E-1,-5.209212E-1,-3.796166E-2,8.4453094E-4,-6.9425143E-3,-1.0690198E-3,2.1940673E-2,-1.9968059E-2,8.6703006E-4,-1.7803279E-3,2.8378495E-3],"categories":[],"categories_nodes":[],"categories_segments":[],"categories_sizes":[],"default_left":[0,0,0,0,0,0,0,0,0,0,0,0,0,0,0,0,0,0,0,0,0],"id":39,"left_children":[1,3,5,7,-1,9,11,-1,-1,13,15,17,19,-1,-1,-1,-1,-1,-1,-1,-1],"loss_changes":[4.591674E0,9.1644335E-1,7.532438E-1,3.0244875E-1,0E0,1.0391773E0,1.1403528E0,0E0,0E0,8.3452094E-1,1.4966174E0,4.1698003E-1,6.9154E-1,0E0,0E0,0E0,0E0,0E0,0E0,0E0,0E0],"parents":[2147483647,0,0,1,1,2,2,3,3,5,5,6,6,9,9,10,10,11,11,12,12],"right_children":[2,4,6,8,-1,10,12,-1,-1,14,16,18,20,-1,-1,-1,-1,-1,-1,-1,-1],"split_conditions":[2.0794415E0,1.2053668E-1,4.65396E0,3.4339871E0,-1.2001202E-3,8.2903915E1,3.4448817E0,4.3257207E-2,1.710627E-2,2.9155195E1,7.0555595E1,-3.2162452E-16,9.944216E-1,8.4453094E-4,-6.9425143E-3,-1.0690198E-3,2.1940673E-2,-1.9968059E-2,8.6703006E-4,-1.7803279E-3,2.8378495E-3],"split_indices":[3,0,9,7,0,16,10,0,0,15,17,0,19,0,0,0,0,0,0,0,0],"split_type":[0,0,0,0,0,0,0,0,0,0,0,0,0,0,0,0,0,0,0,0,0],"sum_hessian":[5.35E2,6E0,5.29E2,5E0,1E0,2.84E2,2.45E2,1E0,4E0,2.75E2,9E0,4E0,2.41E2,2.63E2,1.2E1,5E0,4E0,3E0,1E0,2.08E2,3.3E1],"tree_param":{"num_deleted":"0","num_feature":"22","num_nodes":"21","size_leaf_vector":"1"}},{"base_weights":[3.2349692E-3,7.920527E-1,-7.1894815E-3,3.3481468E-2,2.7004322E-1,-4.3403846E-3,-5.0623405E-1,1.1589807E-2,-1.1821183E-3,-1.5563834E-2,2.1295714E-1,-2.4902916E-2,2.1223838E-3,-9.3420834E-4,2.8719653E-3,2.8046826E-2,2.3443159E-3],"categories":[],"categories_nodes":[],"categories_segments":[],"categories_sizes":[],"default_left":[0,0,0,0,0,0,0,0,0,0,0,0,0,0,0,0,0],"id":40,"left_children":[1,3,5,-1,7,9,11,-1,-1,13,15,-1,-1,-1,-1,-1,-1],"loss_changes":[4.413218E0,8.825221E-1,7.513706E-1,0E0,1.5915745E-1,1.2910156E0,6.19314E-1,0E0,0E0,8.7498003E-1,2.4574378E0,0E0,0E0,0E0,0E0,0E0,0E0],"parents":[2147483647,0,0,1,1,2,2,4,4,5,5,6,6,9,9,10,10],"right_children":[2,4,6,-1,8,10,12,-1,-1,14,16,-1,-1,-1,-1,-1,-1],"split_conditions":[2.0794415E0,2.0794415E0,7.832009E0,3.3481468E-2,1.2053668E-1,9.9270886E-1,1.2053668E-1,1.1589807E-2,-1.1821183E-3,9.944216E-1,3.6109178E0,-2.4902916E-2,2.1223838E-3,-9.3420834E-4,2.8719653E-3,2.8046826E-2,2.3443159E-3],"split_indices":[3,2,20,0,0,1,0,0,0,19,5,0,0,0,0,0,0],"split_type":[0,0,0,0,0,0,0,0,0,0,0,0,0,0,0,0,0],"sum_hessian":[5.35E2,6E0,5.29E2,3E0,3E0,5.27E2,2E0,2E0,1E0,5.02E2,2.5E1,1E0,1E0,4.41E2,6.1E1,3E0,2.2E1],"tree_param":{"num_deleted":"0","num_feature":"22","num_nodes":"17","size_leaf_vector":"1"}},{"base_weights":[3.2376165E-3,1.0285287E0,-4.4629495E-3,4.210613E-2,1.3070393E-2,7.364775E-3,-1.2412568E-1,-4.6566803E-2,3.276043E-2,-1.9637403E-1,-3.7056867E-2,-2.5824144E-2,-7.4925524E-4,4.249293E-3,1.9909062E-4,-8.145753E-3,-3.0100925E-3,-3.1821071E-3,3.1680595E-3],"categories":[],"categories_nodes":[],"categories_segments":[],"categories_sizes":[],"default_left":[0,0,0,0,0,0,0,0,0,0,0,0,0,0,0,0,0,0,0],"id":41,"left_children":[1,3,5,-1,-1,7,9,11,13,15,17,-1,-1,-1,-1,-1,-1,-1,-1],"loss_changes":[4.2364826E0,2.778015E-1,7.552892E-1,0E0,0E0,6.671646E-1,2.9467082E-1,2.7210944E0,9.405761E-1,1.6040671E-1,2.3764472E-1,0E0,0E0,0E0,0E0,0E0,0E0,0E0,0E0],"parents":[2147483647,0,0,1,1,2,2,5,5,6,6,7,7,8,8,9,9,10,10],"right_children":[2,4,6,-1,-1,8,10,12,14,16,18,-1,-1,-1,-1,-1,-1,-1,-1],"split_conditions":[1.895175E0,1.609438E0,6.8416157E0,4.210613E-2,1.3070393E-2,5.851548E1,7.338888E0,5.239227E-1,7.2958755E-1,6.643984E-1,2.6581915E1,-2.5824144E-2,-7.4925524E-4,4.249293E-3,1.9909062E-4,-8.145753E-3,-3.0100925E-3,-3.1821071E-3,3.1680595E-3],"split_indices":[10,2,9,0,0,17,8,20,20,20,13,0,0,0,0,0,0,0,0],"split_type":[0,0,0,0,0,0,0,0,0,0,0,0,0,0,0,0,0,0,0],"sum_hessian":[5.35E2,3E0,5.32E2,1E0,2E0,4.85E2,4.7E1,1.55E2,3.3E2,2.5E1,2.2E1,3E0,1.52E2,6.3E1,2.67E2,1.3E1,1.2E1,1.5E1,7E0],"tree_param":{"num_deleted":"0","num_feature":"22","num_nodes":"19","size_leaf_vector":"1"}},{"base_weights":[3.1813125E-3,7.64283E-1,-6.876976E-3,4.1474536E-2,4.308353E-1,-4.0690866E-3,-4.9877325E-1,1.5971329E-2,-1.1531475E-3,-1.4966115E-2,2.0690303E-1,-2.4532357E-2,2.0875616E-3,-9.0179185E-4,2.786344E-3,2.7380915E-2,2.2548125E-3],"categories":[],"categories_nodes":[],"categories_segments":[],"categories_sizes":[],"default_left":[0,0,0,0,0,0,0,0,0,0,0,0,0,0,0,0,0],"id":42,"left_children":[1,3,5,-1,7,9,11,-1,-1,13,15,-1,-1,-1,-1,-1,-1],"loss_changes":[4.1085396E0,8.473425E-1,7.3000145E-1,0E0,3.063705E-1,1.2169522E0,6.007745E-1,0E0,0E0,8.215549E-1,2.3489633E0,0E0,0E0,0E0,0E0,0E0,0E0],"parents":[2147483647,0,0,1,1,2,2,4,4,5,5,6,6,9,9,10,10],"right_children":[2,4,6,-1,8,10,12,-1,-1,14,16,-1,-1,-1,-1,-1,-1],"split_conditions":[2.0794415E0,3.4339871E0,7.832009E0,4.1474536E-2,1.2053668E-1,9.9270886E-1,1.2053668E-1,1.5971329E-2,-1.1531475E-3,9.944216E-1,3.6109178E0,-2.4532357E-2,2.0875616E-3,-9.0179185E-4,2.786344E-3,2.7380915E-2,2.2548125E-3],"split_indices":[3,7,20,0,0,1,0,0,0,19,5,0,0,0,0,0,0],"split_type":[0,0,0,0,0,0,0,0,0,0,0,0,0,0,0,0,0],"sum_hessian":[5.35E2,6E0,5.29E2,1E0,5E0,5.27E2,2E0,4E0,1E0,5.02E2,2.5E1,1E0,1E0,4.41E2,6.1E1,3E0,2.2E1],"tree_param":{"num_deleted":"0","num_feature":"22","num_nodes":"17","size_leaf_vector":"1"}},{"base_weights":[3.2078275E-3,7.493963E-1,-6.6535445E-3,4.0852416E-2,4.2037994E-1,-3.8873174E-3,-4.9129167E-1,1.5588017E-2,-1.1358504E-3,-1.4513386E-2,2.0183577E-1,-2.4164373E-2,2.0562483E-3,-8.747993E-4,2.7041018E-3,2.6764844E-2,2.190109E-3],"categories":[],"categories_nodes":[],"categories_segments":[],"categories_sizes":[],"default_left":[0,0,0,0,0,0,0,0,0,0,0,0,0,0,0,0,0],"id":43,"left_children":[1,3,5,-1,7,9,11,-1,-1,13,15,-1,-1,-1,-1,-1,-1],"loss_changes":[3.9491112E0,8.3786297E-1,7.0861834E-1,0E0,2.924751E-1,1.1571519E0,5.828867E-1,0E0,0E0,7.736105E-1,2.2472084E0,0E0,0E0,0E0,0E0,0E0,0E0],"parents":[2147483647,0,0,1,1,2,2,4,4,5,5,6,6,9,9,10,10],"right_children":[2,4,6,-1,8,10,12,-1,-1,14,16,-1,-1,-1,-1,-1,-1],"split_conditions":[2.0794415E0,3.4339871E0,7.832009E0,4.0852416E-2,1.2053668E-1,9.9270886E-1,1.2053668E-1,1.5588017E-2,-1.1358504E-3,9.944216E-1,3.6109178E0,-2.4164373E-2,2.0562483E-3,-8.747993E-4,2.7041018E-3,2.6764844E-2,2.190109E-3],"split_indices":[3,7,20,0,0,1,0,0,0,19,5,0,0,0,0,0,0],"split_type":[0,0,0,0,0,0,0,0,0,0,0,0,0,0,0,0,0],"sum_hessian":[5.35E2,6E0,5.29E2,1E0,5E0,5.27E2,2E0,4E0,1E0,5.02E2,2.5E1,1E0,1E0,4.41E2,6.1E1,3E0,2.2E1],"tree_param":{"num_deleted":"0","num_feature":"22","num_nodes":"17","size_leaf_vector":"1"}},{"base_weights":[3.2309606E-3,9.751055E-1,-4.0687188E-3,4.0239632E-2,1.2177798E-2,7.3104296E-3,-1.1919784E-1,1.621289E-4,1.9315724E-1,-1.8948312E-1,-3.4562383E-2,-5.0329504E-4,2.374173E-3,1.5138601E-3,2.6694382E-2,-7.869345E-3,-2.894308E-3,-3.0562696E-3,3.1315335E-3],"categories":[],"categories_nodes":[],"categories_segments":[],"categories_sizes":[],"default_left":[0,0,0,0,0,0,0,0,0,0,0,0,0,0,0,0,0,0,0],"id":44,"left_children":[1,3,5,-1,-1,7,9,11,13,15,17,-1,-1,-1,-1,-1,-1,-1,-1],"loss_changes":[3.8065512E0,2.8929114E-1,6.991394E-1,0E0,0E0,6.456143E-1,2.7898514E-1,6.2873787E-1,1.744468E0,1.5080374E-1,2.2575246E-1,0E0,0E0,0E0,0E0,0E0,0E0,0E0,0E0],"parents":[2147483647,0,0,1,1,2,2,5,5,6,6,7,7,8,8,9,9,10,10],"right_children":[2,4,6,-1,-1,8,10,12,14,16,18,-1,-1,-1,-1,-1,-1,-1,-1],"split_conditions":[1.895175E0,1.609438E0,6.8416157E0,4.0239632E-2,1.2177798E-2,8.365518E1,7.338888E0,9.832699E-1,9.7094184E-1,6.643984E-1,2.6581915E1,-5.0329504E-4,2.374173E-3,1.5138601E-3,2.6694382E-2,-7.869345E-3,-2.894308E-3,-3.0562696E-3,3.1315335E-3],"split_indices":[10,2,9,0,0,16,8,19,1,20,13,0,0,0,0,0,0,0,0],"split_type":[0,0,0,0,0,0,0,0,0,0,0,0,0,0,0,0,0,0,0],"sum_hessian":[5.35E2,3E0,5.32E2,1E0,2E0,4.85E2,4.7E1,4.68E2,1.7E1,2.5E1,2.2E1,3.86E2,8.2E1,1.5E1,2E0,1.3E1,1.2E1,1.5E1,7E0],"tree_param":{"num_deleted":"0","num_feature":"22","num_nodes":"19","size_leaf_vector":"1"}},{"base_weights":[3.2680014E-3,7.249808E-1,-6.27022E-3,3.963604E-2,4.0541044E-1,-3.5354192E-3,-4.855051E-1,1.5056546E-2,-1.1544252E-3,-1.3776846E-2,1.9473277E-1,-2.383752E-2,1.989792E-3,-8.293544E-4,2.5593876E-3,2.5948394E-2,2.0912169E-3],"categories":[],"categories_nodes":[],"categories_segments":[],"categories_sizes":[],"default_left":[0,0,0,0,0,0,0,0,0,0,0,0,0,0,0,0,0],"id":45,"left_children":[1,3,5,-1,7,9,11,-1,-1,13,15,-1,-1,-1,-1,-1,-1],"loss_changes":[3.6942928E0,7.981117E-1,6.9290787E-1,0E0,2.762578E-1,1.0748128E0,5.6438035E-1,0E0,0E0,6.935845E-1,2.1183467E0,0E0,0E0,0E0,0E0,0E0,0E0],"parents":[2147483647,0,0,1,1,2,2,4,4,5,5,6,6,9,9,10,10],"right_children":[2,4,6,-1,8,10,12,-1,-1,14,16,-1,-1,-1,-1,-1,-1],"split_conditions":[2.0794415E0,3.4339871E0,7.832009E0,3.963604E-2,1.2053668E-1,9.9270886E-1,1.2053668E-1,1.5056546E-2,-1.1544252E-3,9.944216E-1,3.6109178E0,-2.383752E-2,1.989792E-3,-8.293544E-4,2.5593876E-3,2.5948394E-2,2.0912169E-3],"split_indices":[3,7,20,0,0,1,0,0,0,19,5,0,0,0,0,0,0],"split_type":[0,0,0,0,0,0,0,0,0,0,0,0,0,0,0,0,0],"sum_hessian":[5.35E2,6E0,5.29E2,1E0,5E0,5.27E2,2E0,4E0,1E0,5.02E2,2.5E1,1E0,1E0,4.41E2,6.1E1,3E0,2.2E1],"tree_param":{"num_deleted":"0","num_feature":"22","num_nodes":"17","size_leaf_vector":"1"}},{"base_weights":[3.284626E-3,7.108796E-1,-6.067166E-3,3.9041497E-2,3.9556515E-1,-1.4472052E-2,-3.3492285E-3,1.4695188E-2,-1.1371089E-3,2.1630945E-2,-6.0919463E-3,-1.01473604E-4,-1.4346674E-2],"categories":[],"categories_nodes":[],"categories_segments":[],"categories_sizes":[],"default_left":[0,0,0,0,0,0,0,0,0,0,0,0,0],"id":46,"left_children":[1,3,5,-1,7,-1,9,-1,-1,-1,11,-1,-1],"loss_changes":[3.5511756E0,7.885785E-1,6.845476E-1,0E0,2.6375705E-1,0E0,1.053408E0,0E0,0E0,0E0,6.7253894E-1,0E0,0E0],"parents":[2147483647,0,0,1,1,2,2,4,4,6,6,10,10],"right_children":[2,4,6,-1,8,-1,10,-1,-1,-1,12,-1,-1],"split_conditions":[2.0794415E0,3.4339871E0,1.609438E0,3.9041497E-2,1.2053668E-1,-1.4472052E-2,2.0794415E0,1.4695188E-2,-1.1371089E-3,2.1630945E-2,7.832009E0,-1.01473604E-4,-1.4346674E-2],"split_indices":[3,7,2,0,0,0,2,0,0,0,20,0,0],"split_type":[0,0,0,0,0,0,0,0,0,0,0,0,0],"sum_hessian":[5.35E2,6E0,5.29E2,1E0,5E0,2E0,5.27E2,4E0,1E0,1E0,5.26E2,5.24E2,2E0],"tree_param":{"num_deleted":"0","num_feature":"22","num_nodes":"13","size_leaf_vector":"1"}},{"base_weights":[3.2706219E-3,9.244114E-1,-3.6483912E-3,3.8455874E-2,1.1339207E-2,6.0364977E-3,-1.336414E-1,-6.103349E-3,2.0959692E-1,-9.427078E-2,-2.3264758E-2,-6.0169096E-4,2.7430411E-3,2.5882127E-2,3.7851927E-3,4.6436945E-3,-4.183052E-3],"categories":[],"categories_nodes":[],"categories_segments":[],"categories_sizes":[],"default_left":[0,0,0,0,0,0,0,0,0,0,0,0,0,0,0,0,0],"id":47,"left_children":[1,3,5,-1,-1,7,9,11,13,15,-1,-1,-1,-1,-1,-1,-1],"loss_changes":[3.4195073E0,2.9678893E-1,6.718367E-1,0E0,0E0,1.2294619E0,8.618859E-1,6.414804E-1,1.4167951E0,4.265343E-1,0E0,0E0,0E0,0E0,0E0,0E0,0E0],"parents":[2147483647,0,0,1,1,2,2,5,5,6,6,7,7,8,8,9,9],"right_children":[2,4,6,-1,-1,8,10,12,14,16,-1,-1,-1,-1,-1,-1,-1],"split_conditions":[1.895175E0,1.609438E0,8.049097E1,3.8455874E-2,1.1339207E-2,9.9270886E-1,1E0,9.944216E-1,2.4009329E1,3.583519E0,-2.3264758E-2,-6.0169096E-4,2.7430411E-3,2.5882127E-2,3.7851927E-3,4.6436945E-3,-4.183052E-3],"split_indices":[10,2,17,0,0,1,1,19,12,2,0,0,0,0,0,0,0],"split_type":[0,0,0,0,0,0,0,0,0,0,0,0,0,0,0,0,0],"sum_hessian":[5.35E2,3E0,5.32E2,1E0,2E0,4.96E2,3.6E1,4.69E2,2.7E1,3.5E1,1E0,4.11E2,5.8E1,2E0,2.5E1,5E0,3E1],"tree_param":{"num_deleted":"0","num_feature":"22","num_nodes":"17","size_leaf_vector":"1"}},{"base_weights":[3.2822036E-3,6.873385E-1,-5.758695E-3,3.7879035E-2,3.810167E-1,-1.4214446E-2,-3.0883779E-3,1.4187333E-2,-1.1768301E-3,2.1249702E-2,-5.7823723E-3,2.9823733E-3,-5.2523176E-4],"categories":[],"categories_nodes":[],"categories_segments":[],"categories_sizes":[],"default_left":[0,0,0,0,0,0,0,0,0,0,0,0,0],"id":48,"left_children":[1,3,5,-1,7,-1,9,-1,-1,-1,11,-1,-1],"loss_changes":[3.3188412E0,7.524948E-1,6.609616E-1,0E0,2.5025982E-1,0E0,1.0160286E0,0E0,0E0,0E0,6.517668E-1,0E0,0E0],"parents":[2147483647,0,0,1,1,2,2,4,4,6,6,10,10],"right_children":[2,4,6,-1,8,-1,10,-1,-1,-1,12,-1,-1],"split_conditions":[2.0794415E0,3.4339871E0,1.609438E0,3.7879035E-2,1.2053668E-1,-1.4214446E-2,2.0794415E0,1.4187333E-2,-1.1768301E-3,2.1249702E-2,3.4011974E0,2.9823733E-3,-5.2523176E-4],"split_indices":[3,7,2,0,0,0,2,0,0,0,9,0,0],"split_type":[0,0,0,0,0,0,0,0,0,0,0,0,0],"sum_hessian":[5.35E2,6E0,5.29E2,1E0,5E0,2E0,5.27E2,4E0,1E0,1E0,5.26E2,5.2E1,4.74E2],"tree_param":{"num_deleted":"0","num_feature":"22","num_nodes":"13","size_leaf_vector":"1"}},{"base_weights":[3.2963906E-3,6.739883E-1,-5.5680233E-3,3.731085E-2,3.7175462E-1,-1.3930157E-2,-2.9508271E-3,1.3846838E-2,-1.1591776E-3,2.0930957E-2,-5.6042387E-3,-8.9599416E-5,-1.385444E-2],"categories":[],"categories_nodes":[],"categories_segments":[],"categories_sizes":[],"default_left":[0,0,0,0,0,0,0,0,0,0,0,0,0],"id":49,"left_children":[1,3,5,-1,7,-1,9,-1,-1,-1,11,-1,-1],"loss_changes":[3.1904285E0,7.4294233E-1,6.3499695E-1,0E0,2.3897082E-1,0E0,9.855209E-1,0E0,0E0,0E0,6.279497E-1,0E0,0E0],"parents":[2147483647,0,0,1,1,2,2,4,4,6,6,10,10],"right_children":[2,4,6,-1,8,-1,10,-1,-1,-1,12,-1,-1],"split_conditions":[2.0794415E0,3.4339871E0,1.609438E0,3.731085E-2,1.2053668E-1,-1.3930157E-2,2.0794415E0,1.3846838E-2,-1.1591776E-3,2.0930957E-2,7.832009E0,-8.9599416E-5,-1.385444E-2],"split_indices":[3,7,2,0,0,0,2,0,0,0,20,0,0],"split_type":[0,0,0,0,0,0,0,0,0,0,0,0,0],"sum_hessian":[5.35E2,6E0,5.29E2,1E0,5E0,2E0,5.27E2,4E0,1E0,1E0,5.26E2,5.24E2,2E0],"tree_param":{"num_deleted":"0","num_feature":"22","num_nodes":"13","size_leaf_vector":"1"}},{"base_weights":[3.2778278E-3,8.763133E-1,-3.280183E-3,3.675119E-2,1.055174E-2,7.5982455E-3,-1.13355935E-1,8.250474E-2,-9.402215E-3,-1.8185584E-1,-3.0992735E-2,3.671924E-3,-8.703886E-3,4.6159264E-5,-5.621309E-3,-7.5672846E-3,-2.7619668E-3,-2.5297708E-3,4.0251473E-3],"categories":[],"categories_nodes":[],"categories_segments":[],"categories_sizes":[],"default_left":[0,0,0,0,0,0,0,0,0,0,0,0,0,0,0,0,0,0,0],"id":50,"left_children":[1,3,5,-1,-1,7,9,11,13,15,17,-1,-1,-1,-1,-1,-1,-1,-1],"loss_changes":[3.0716763E0,3.008747E-1,6.391028E-1,0E0,0E0,6.1967E-1,2.6517367E-1,1.3733969E0,7.733252E-1,1.4109886E-1,2.1391425E-1,0E0,0E0,0E0,0E0,0E0,0E0,0E0,0E0],"parents":[2147483647,0,0,1,1,2,2,5,5,6,6,7,7,8,8,9,9,10,10],"right_children":[2,4,6,-1,-1,8,10,12,14,16,18,-1,-1,-1,-1,-1,-1,-1,-1],"split_conditions":[1.895175E0,1.609438E0,6.8416157E0,3.675119E-2,1.055174E-2,7.333424E-1,7.338888E0,2.8339066E1,7.996397E1,6.643984E-1,2.7814314E1,3.671924E-3,-8.703886E-3,4.6159264E-5,-5.621309E-3,-7.5672846E-3,-2.7619668E-3,-2.5297708E-3,4.0251473E-3],"split_indices":[10,2,9,0,0,20,8,15,17,20,13,0,0,0,0,0,0,0,0],"split_type":[0,0,0,0,0,0,0,0,0,0,0,0,0,0,0,0,0,0,0],"sum_hessian":[5.35E2,3E0,5.32E2,1E0,2E0,4.85E2,4.7E1,8.9E1,3.96E2,2.5E1,2.2E1,8.1E1,8E0,3.74E2,2.2E1,1.3E1,1.2E1,1.7E1,5E0],"tree_param":{"num_deleted":"0","num_feature":"22","num_nodes":"19","size_leaf_vector":"1"}},{"base_weights":[3.2314728E-3,6.5210855E-1,-5.344699E-3,3.619992E-2,3.5857198E-1,2.6595274E-2,-4.23266E-2,1.3365584E-2,-1.1424824E-3,4.4418383E-2,-1.4535956E-1,-4.9350673E-1,-3.282979E-2,9.711953E-3,8.140879E-4,-2.0446377E-2,-1.4981559E-3,-1.8914316E-2,8.156281E-4,-1.5227417E-3,2.350257E-3],"categories":[],"categories_nodes":[],"categories_segments":[],"categories_sizes":[],"default_left":[0,0,0,0,0,0,0,0,0,0,0,0,0,0,0,0,0,0,0,0,0],"id":51,"left_children":[1,3,5,-1,7,9,11,-1,-1,13,15,17,19,-1,-1,-1,-1,-1,-1,-1,-1],"loss_changes":[2.9862616E0,7.068E-1,6.2716216E-1,0E0,2.2389543E-1,8.799162E-1,1.0378518E0,0E0,0E0,1.241441E0,1.3473779E0,3.7373996E-1,4.8631045E-1,0E0,0E0,0E0,0E0,0E0,0E0,0E0,0E0],"parents":[2147483647,0,0,1,1,2,2,4,4,5,5,6,6,9,9,10,10,11,11,12,12],"right_children":[2,4,6,-1,8,10,12,-1,-1,14,16,18,20,-1,-1,-1,-1,-1,-1,-1,-1],"split_conditions":[2.0794415E0,3.4339871E0,4.65396E0,3.619992E-2,1.2053668E-1,2.8459091E1,3.4448817E0,1.3365584E-2,-1.1424824E-3,2.944439E0,3.8066626E0,-3.2162452E-16,9.944216E-1,9.711953E-3,8.140879E-4,-2.0446377E-2,-1.4981559E-3,-1.8914316E-2,8.156281E-4,-1.5227417E-3,2.350257E-3],"split_indices":[3,7,9,0,0,15,10,0,0,2,3,0,19,0,0,0,0,0,0,0,0],"split_type":[0,0,0,0,0,0,0,0,0,0,0,0,0,0,0,0,0,0,0,0,0],"sum_hessian":[5.35E2,6E0,5.29E2,1E0,5E0,2.84E2,2.45E2,4E0,1E0,2.58E2,2.6E1,4E0,2.41E2,1.4E1,2.44E2,3E0,2.3E1,3E0,1E0,2.08E2,3.3E1],"tree_param":{"num_deleted":"0","num_feature":"22","num_nodes":"21","size_leaf_vector":"1"}},{"base_weights":[3.1713455E-3,6.394629E-1,-5.2384892E-3,3.565692E-2,3.4985203E-1,-2.6943388E-3,-4.5126274E-1,1.3044811E-2,-1.1253451E-3,-1.241392E-2,1.854458E-1,-2.2627981E-2,2.3211585E-3,-7.577879E-4,2.3809064E-3,2.4523573E-2,2.0240624E-3],"categories":[],"categories_nodes":[],"categories_segments":[],"categories_sizes":[],"default_left":[0,0,0,0,0,0,0,0,0,0,0,0,0,0,0,0,0],"id":52,"left_children":[1,3,5,-1,7,9,11,-1,-1,13,15,-1,-1,-1,-1,-1,-1],"loss_changes":[2.8715432E0,6.973579E-1,6.002031E-1,0E0,2.1380836E-1,9.6782583E-1,5.388932E-1,0E0,0E0,5.9501344E-1,1.8834667E0,0E0,0E0,0E0,0E0,0E0,0E0],"parents":[2147483647,0,0,1,1,2,2,4,4,5,5,6,6,9,9,10,10],"right_children":[2,4,6,-1,8,10,12,-1,-1,14,16,-1,-1,-1,-1,-1,-1],"split_conditions":[2.0794415E0,3.4339871E0,7.832009E0,3.565692E-2,1.2053668E-1,9.9270886E-1,1.2053668E-1,1.3044811E-2,-1.1253451E-3,9.944216E-1,3.6109178E0,-2.2627981E-2,2.3211585E-3,-7.577879E-4,2.3809064E-3,2.4523573E-2,2.0240624E-3],"split_indices":[3,7,20,0,0,1,0,0,0,19,5,0,0,0,0,0,0],"split_type":[0,0,0,0,0,0,0,0,0,0,0,0,0,0,0,0,0],"sum_hessian":[5.35E2,6E0,5.29E2,1E0,5E0,5.27E2,2E0,4E0,1E0,5.02E2,2.5E1,1E0,1E0,4.41E2,6.1E1,3E0,2.2E1],"tree_param":{"num_deleted":"0","num_feature":"22","num_nodes":"17","size_leaf_vector":"1"}},{"base_weights":[3.1796393E-3,6.270756E-1,-5.066496E-3,3.5122067E-2,3.4134305E-1,2.5798954E-2,-4.0804654E-2,1.2731735E-2,-1.1084649E-3,4.326099E-2,-1.4266278E-1,-4.8171502E-1,-3.152632E-2,9.410673E-3,7.958278E-4,-1.9990146E-2,-1.4831778E-3,-1.8471694E-2,8.147605E-4,-1.4550525E-3,2.2124965E-3],"categories":[],"categories_nodes":[],"categories_segments":[],"categories_sizes":[],"default_left":[0,0,0,0,0,0,0,0,0,0,0,0,0,0,0,0,0,0,0,0,0],"id":53,"left_children":[1,3,5,-1,7,9,11,-1,-1,13,15,17,19,-1,-1,-1,-1,-1,-1,-1,-1],"loss_changes":[2.760753E0,6.87767E-1,5.8568215E-1,0E0,2.0417929E-1,8.4455204E-1,9.911779E-1,0E0,0E0,1.1637007E0,1.2851661E0,3.576882E-1,4.3605733E-1,0E0,0E0,0E0,0E0,0E0,0E0,0E0,0E0],"parents":[2147483647,0,0,1,1,2,2,4,4,5,5,6,6,9,9,10,10,11,11,12,12],"right_children":[2,4,6,-1,8,10,12,-1,-1,14,16,18,20,-1,-1,-1,-1,-1,-1,-1,-1],"split_conditions":[2.0794415E0,3.4339871E0,4.65396E0,3.5122067E-2,1.2053668E-1,2.8459091E1,3.4448817E0,1.2731735E-2,-1.1084649E-3,2.944439E0,3.8066626E0,-3.2162452E-16,9.944216E-1,9.410673E-3,7.958278E-4,-1.9990146E-2,-1.4831778E-3,-1.8471694E-2,8.147605E-4,-1.4550525E-3,2.2124965E-3],"split_indices":[3,7,9,0,0,15,10,0,0,2,3,0,19,0,0,0,0,0,0,0,0],"split_type":[0,0,0,0,0,0,0,0,0,0,0,0,0,0,0,0,0,0,0,0,0],"sum_hessian":[5.35E2,6E0,5.29E2,1E0,5E0,2.84E2,2.45E2,4E0,1E0,2.58E2,2.6E1,4E0,2.41E2,1.4E1,2.44E2,3E0,2.3E1,3E0,1E0,2.08E2,3.3E1],"tree_param":{"num_deleted":"0","num_feature":"22","num_nodes":"21","size_leaf_vector":"1"}},{"base_weights":[3.1189108E-3,8.155339E-1,-2.9838632E-3,3.4595236E-2,9.557863E-3,-5.111974E-2,2.02901E-2,1.8476272E-1,-6.662942E-2,2.1583048E-1,8.7619545E-3,-5.644212E-3,7.226012E-3,-2.444533E-4,-3.8379778E-3,3.7780835E-3,2.8857345E-2,-7.7934004E-3,6.0592196E-4],"categories":[],"categories_nodes":[],"categories_segments":[],"categories_sizes":[],"default_left":[0,0,0,0,0,0,0,0,0,0,0,0,0,0,0,0,0,0,0],"id":54,"left_children":[1,3,5,-1,-1,7,9,11,13,15,17,-1,-1,-1,-1,-1,-1,-1,-1],"loss_changes":[2.6599133E0,3.0375028E-1,5.9816384E-1,0E0,0E0,6.4888287E-1,8.0962735E-1,2.754532E-1,5.869088E-1,1.2202299E0,1.0524228E0,0E0,0E0,0E0,0E0,0E0,0E0,0E0,0E0],"parents":[2147483647,0,0,1,1,2,2,5,5,6,6,7,7,8,8,9,9,10,10],"right_children":[2,4,6,-1,-1,8,10,12,14,16,18,-1,-1,-1,-1,-1,-1,-1,-1],"split_conditions":[1.895175E0,1.609438E0,-4.6472317E-1,3.4595236E-2,9.557863E-3,2.944439E0,2.9957323E0,2.944439E0,8.115746E-1,8.1666664E1,3.3322046E0,-5.644212E-3,7.226012E-3,-2.444533E-4,-3.8379778E-3,3.7780835E-3,2.8857345E-2,-7.7934004E-3,6.0592196E-4],"split_indices":[10,2,1,0,0,2,7,7,20,16,7,0,0,0,0,0,0,0,0],"split_type":[0,0,0,0,0,0,0,0,0,0,0,0,0,0,0,0,0,0,0],"sum_hessian":[5.35E2,3E0,5.32E2,1E0,2E0,1.73E2,3.59E2,1E1,1.63E2,1.9E1,3.4E2,1E0,9E0,8.4E1,7.9E1,1.8E1,1E0,1.3E1,3.27E2],"tree_param":{"num_deleted":"0","num_feature":"22","num_nodes":"19","size_leaf_vector":"1"}},{"base_weights":[3.1505313E-3,6.070086E-1,-4.8308964E-3,3.4076307E-2,3.29551E-1,-2.3282524E-3,-4.4368592E-1,1.2304207E-2,-1.1009268E-3,-1.1732506E-2,1.7969742E-1,-2.2183599E-2,2.2177326E-3,-7.165267E-4,2.2526016E-3,2.3743842E-2,1.9647225E-3],"categories":[],"categories_nodes":[],"categories_segments":[],"categories_sizes":[],"default_left":[0,0,0,0,0,0,0,0,0,0,0,0,0,0,0,0,0],"id":55,"left_children":[1,3,5,-1,7,9,11,-1,-1,13,15,-1,-1,-1,-1,-1,-1],"loss_changes":[2.5862644E0,6.5284014E-1,5.810648E-1,0E0,1.9214529E-1,9.059469E-1,5.139404E-1,0E0,0E0,5.324598E-1,1.7647223E0,0E0,0E0,0E0,0E0,0E0,0E0],"parents":[2147483647,0,0,1,1,2,2,4,4,5,5,6,6,9,9,10,10],"right_children":[2,4,6,-1,8,10,12,-1,-1,14,16,-1,-1,-1,-1,-1,-1],"split_conditions":[2.0794415E0,3.4339871E0,7.832009E0,3.4076307E-2,1.2053668E-1,9.9270886E-1,1.2053668E-1,1.2304207E-2,-1.1009268E-3,9.944216E-1,3.6109178E0,-2.2183599E-2,2.2177326E-3,-7.165267E-4,2.2526016E-3,2.3743842E-2,1.9647225E-3],"split_indices":[3,7,20,0,0,1,0,0,0,19,5,0,0,0,0,0,0],"split_type":[0,0,0,0,0,0,0,0,0,0,0,0,0,0,0,0,0],"sum_hessian":[5.35E2,6E0,5.29E2,1E0,5E0,5.27E2,2E0,4E0,1E0,5.02E2,2.5E1,1E0,1E0,4.41E2,6.1E1,3E0,2.2E1],"tree_param":{"num_deleted":"0","num_feature":"22","num_nodes":"17","size_leaf_vector":"1"}},{"base_weights":[3.154072E-3,5.952668E-1,-4.6722363E-3,3.3565164E-2,3.2153168E-1,-2.2068054E-3,-4.370306E-1,1.2008905E-2,-1.0844128E-3,-1.1377477E-2,1.752953E-1,-2.1850845E-2,2.1844665E-3,-6.0566417E-5,-3.5895826E-3,2.3209607E-2,1.9083434E-3],"categories":[],"categories_nodes":[],"categories_segments":[],"categories_sizes":[],"default_left":[0,0,0,0,0,0,0,0,0,0,0,0,0,0,0,0,0],"id":56,"left_children":[1,3,5,-1,7,9,11,-1,-1,13,15,-1,-1,-1,-1,-1,-1],"loss_changes":[2.4866357E0,6.4349794E-1,5.639888E-1,0E0,1.8350536E-1,8.614799E-1,4.9863797E-1,0E0,0E0,5.094507E-1,1.6882875E0,0E0,0E0,0E0,0E0,0E0,0E0],"parents":[2147483647,0,0,1,1,2,2,4,4,5,5,6,6,9,9,10,10],"right_children":[2,4,6,-1,8,10,12,-1,-1,14,16,-1,-1,-1,-1,-1,-1],"split_conditions":[2.0794415E0,3.4339871E0,7.832009E0,3.3565164E-2,1.2053668E-1,9.9270886E-1,1.2053668E-1,1.2008905E-2,-1.0844128E-3,2.8941559E1,3.6109178E0,-2.1850845E-2,2.1844665E-3,-6.0566417E-5,-3.5895826E-3,2.3209607E-2,1.9083434E-3],"split_indices":[3,7,20,0,0,1,0,0,0,12,5,0,0,0,0,0,0],"split_type":[0,0,0,0,0,0,0,0,0,0,0,0,0,0,0,0,0],"sum_hessian":[5.35E2,6E0,5.29E2,1E0,5E0,5.27E2,2E0,4E0,1E0,5.02E2,2.5E1,1E0,1E0,4.63E2,3.9E1,3E0,2.2E1],"tree_param":{"num_deleted":"0","num_feature":"22","num_nodes":"17","size_leaf_vector":"1"}},{"base_weights":[3.1458142E-3,5.837645E-1,-4.5286696E-3,3.3061687E-2,3.137065E-1,4.296148E-3,-1.2222952E-1,1.1720692E-2,-1.0681466E-3,-5.9160977E-3,1.883441E-1,-8.5767224E-2,-2.1523083E-2,-6.6082394E-3,-2.2982258E-5,2.4203952E-2,3.0956895E-3,4.4901576E-3,-3.8570822E-3],"categories":[],"categories_nodes":[],"categories_segments":[],"categories_sizes":[],"default_left":[0,0,0,0,0,0,0,0,0,0,0,0,0,0,0,0,0,0,0],"id":57,"left_children":[1,3,5,-1,7,9,11,-1,-1,13,15,17,-1,-1,-1,-1,-1,-1,-1],"loss_changes":[2.3910322E0,6.3405967E-1,5.5103004E-1,0E0,1.7525715E-1,9.296085E-1,7.414637E-1,0E0,0E0,5.175844E-1,1.2860146E0,3.8202643E-1,0E0,0E0,0E0,0E0,0E0,0E0,0E0],"parents":[2147483647,0,0,1,1,2,2,4,4,5,5,6,6,9,9,10,10,11,11],"right_children":[2,4,6,-1,8,10,12,-1,-1,14,16,18,-1,-1,-1,-1,-1,-1,-1],"split_conditions":[2.0794415E0,3.4339871E0,8.049097E1,3.3061687E-2,1.2053668E-1,9.9270886E-1,1E0,1.1720692E-2,-1.0681466E-3,4.04574E-1,2.4009329E1,3.583519E0,-2.1523083E-2,-6.6082394E-3,-2.2982258E-5,2.4203952E-2,3.0956895E-3,4.4901576E-3,-3.8570822E-3],"split_indices":[3,7,17,0,0,1,1,0,0,20,12,2,0,0,0,0,0,0,0],"split_type":[0,0,0,0,0,0,0,0,0,0,0,0,0,0,0,0,0,0,0],"sum_hessian":[5.35E2,6E0,5.29E2,1E0,5E0,4.93E2,3.6E1,4E0,1E0,4.68E2,2.5E1,3.5E1,1E0,1E1,4.58E2,2E0,2.3E1,5E0,3E1],"tree_param":{"num_deleted":"0","num_feature":"22","num_nodes":"19","size_leaf_vector":"1"}},{"base_weights":[3.1325829E-3,5.368732E-1,-4.945031E-3,3.034193E-1,3.256576E-2,-1.2808334E-2,-2.533374E-3,1.0970383E-2,-1.0521244E-3,1.9147392E-2,-4.9649826E-3,-7.663641E-5,-1.2729982E-2],"categories":[],"categories_nodes":[],"categories_segments":[],"categories_sizes":[],"default_left":[0,0,0,0,0,0,0,0,0,0,0,0,0],"id":58,"left_children":[1,3,5,7,-1,-1,9,-1,-1,-1,11,-1,-1],"loss_changes":[2.313539E0,6.953106E-1,5.372912E-1,1.603458E-1,0E0,0E0,8.243012E-1,0E0,0E0,0E0,5.306278E-1,0E0,0E0],"parents":[2147483647,0,0,1,1,2,2,3,3,6,6,10,10],"right_children":[2,4,6,8,-1,-1,10,-1,-1,-1,12,-1,-1],"split_conditions":[2.6389532E0,2.7842857E1,1.609438E0,1.2053668E-1,3.256576E-2,-1.2808334E-2,2.0794415E0,1.0970383E-2,-1.0521244E-3,1.9147392E-2,7.832009E0,-7.663641E-5,-1.2729982E-2],"split_indices":[10,12,2,0,0,0,2,0,0,0,20,0,0],"split_type":[0,0,0,0,0,0,0,0,0,0,0,0,0],"sum_hessian":[5.35E2,7E0,5.28E2,6E0,1E0,2E0,5.26E2,5E0,1E0,1E0,5.25E2,5.23E2,2E0],"tree_param":{"num_deleted":"0","num_feature":"22","num_nodes":"13","size_leaf_vector":"1"}},{"base_weights":[3.1058004E-3,5.633038E-1,-4.2989017E-3,3.2077275E-2,3.0077368E-1,9.1076516E-2,-1.4865007E-2,1.124239E-2,-1.0363425E-3,5.7605363E-2,6.297273E-1,-1.9227141E-1,-3.3991167E-3,-3.1925846E-4,4.4415435E-3,2.7358271E-2,9.794557E-4,-2.4058408E-4,-1.0244247E-2,1.1438512E-3,-1.1397463E-3],"categories":[],"categories_nodes":[],"categories_segments":[],"categories_sizes":[],"default_left":[0,0,0,0,0,0,0,0,0,0,0,0,0,0,0,0,0,0,0,0,0],"id":59,"left_children":[1,3,5,-1,7,9,11,-1,-1,13,15,17,19,-1,-1,-1,-1,-1,-1,-1,-1],"loss_changes":[2.225803E0,6.081691E-1,5.354596E-1,0E0,1.617719E-1,9.192753E-1,9.716569E-1,0E0,0E0,3.163833E-1,4.7574043E-1,7.9450154E-1,6.4789003E-1,0E0,0E0,0E0,0E0,0E0,0E0,0E0,0E0],"parents":[2147483647,0,0,1,1,2,2,4,4,5,5,6,6,9,9,10,10,11,11,12,12],"right_children":[2,4,6,-1,8,10,12,-1,-1,14,16,18,20,-1,-1,-1,-1,-1,-1,-1,-1],"split_conditions":[2.0794415E0,3.4339871E0,3.4011974E0,3.2077275E-2,1.2053668E-1,9.9270886E-1,3.7376697E0,1.124239E-2,-1.0363425E-3,3.1780539E0,-3.2162452E-16,2.4380928E1,4.65396E0,-3.1925846E-4,4.4415435E-3,2.7358271E-2,9.794557E-4,-2.4058408E-4,-1.0244247E-2,1.1438512E-3,-1.1397463E-3],"split_indices":[3,7,9,0,0,1,9,0,0,8,0,14,9,0,0,0,0,0,0,0,0],"split_type":[0,0,0,0,0,0,0,0,0,0,0,0,0,0,0,0,0,0,0,0,0],"sum_hessian":[5.35E2,6E0,5.29E2,1E0,5E0,5.2E1,4.77E2,4E0,1E0,5E1,2E0,2.8E1,4.49E2,2.9E1,2.1E1,1E0,1E0,1.3E1,1.5E1,2.04E2,2.45E2],"tree_param":{"num_deleted":"0","num_feature":"22","num_nodes":"21","size_leaf_vector":"1"}},{"base_weights":[3.1325181E-3,5.1806134E-1,-4.6606064E-3,2.911547E-1,3.1596113E-2,5.2173496E-3,-1.03754655E-1,1.053068E-2,-1.0207973E-3,-1.4883856E-3,1.78159E-1,-1.7051324E-1,-2.377736E-2,-1.2552208E-2,3.648736E-5,1.6185438E-3,2.3436386E-2,-7.1420334E-3,-2.5393735E-3,-2.2684045E-3,4.0708166E-3],"categories":[],"categories_nodes":[],"categories_segments":[],"categories_sizes":[],"default_left":[0,0,0,0,0,0,0,0,0,0,0,0,0,0,0,0,0,0,0,0,0],"id":60,"left_children":[1,3,5,7,-1,9,11,-1,-1,13,15,17,19,-1,-1,-1,-1,-1,-1,-1,-1],"loss_changes":[2.1533315E0,6.6477346E-1,5.1835126E-1,1.4821976E-1,0E0,5.5924094E-1,2.5222588E-1,0E0,0E0,5.24848E-1,1.3061215E0,1.3066775E-1,2.0038682E-1,0E0,0E0,0E0,0E0,0E0,0E0,0E0,0E0],"parents":[2147483647,0,0,1,1,2,2,3,3,5,5,6,6,9,9,10,10,11,11,12,12],"right_children":[2,4,6,8,-1,10,12,-1,-1,14,16,18,20,-1,-1,-1,-1,-1,-1,-1,-1],"split_conditions":[2.6389532E0,2.7842857E1,6.8416157E0,1.2053668E-1,3.1596113E-2,8.365518E1,7.338888E0,1.053068E-2,-1.0207973E-3,1.609438E0,9.7094184E-1,6.643984E-1,2.7814314E1,-1.2552208E-2,3.648736E-5,1.6185438E-3,2.3436386E-2,-7.1420334E-3,-2.5393735E-3,-2.2684045E-3,4.0708166E-3],"split_indices":[10,12,9,0,0,16,8,0,0,2,1,20,13,0,0,0,0,0,0,0,0],"split_type":[0,0,0,0,0,0,0,0,0,0,0,0,0,0,0,0,0,0,0,0,0],"sum_hessian":[5.35E2,7E0,5.28E2,6E0,1E0,4.81E2,4.7E1,5E0,1E0,4.64E2,1.7E1,2.5E1,2.2E1,2E0,4.62E2,1.5E1,2E0,1.3E1,1.2E1,1.7E1,5E0],"tree_param":{"num_deleted":"0","num_feature":"22","num_nodes":"21","size_leaf_vector":"1"}},{"base_weights":[3.1239272E-3,5.4355896E-1,-4.0197875E-3,3.112217E-2,2.8835016E-1,-1.6916312E-1,1.7825511E-3,1.07828E-2,-1.0054853E-3,2.6253602E-3,-2.0671701E-1,-4.679611E-3,1.6130883E-1,-7.6061287E-3,-3.3089826E-3,-2.9669215E-3,2.4242327E-4,1.5490181E-3,2.2967657E-2],"categories":[],"categories_nodes":[],"categories_segments":[],"categories_sizes":[],"default_left":[0,0,0,0,0,0,0,0,0,0,0,0,0,0,0,0,0,0,0],"id":61,"left_children":[1,3,5,-1,7,9,11,-1,-1,-1,13,15,17,-1,-1,-1,-1,-1,-1],"loss_changes":[2.0715275E0,5.83102E-1,5.081569E-1,0E0,1.4930943E-1,1.915949E-1,5.2959865E-1,0E0,0E0,0E0,4.4264257E-2,5.947133E-1,1.2859559E0,0E0,0E0,0E0,0E0,0E0,0E0],"parents":[2147483647,0,0,1,1,2,2,4,4,5,5,6,6,10,10,11,11,12,12],"right_children":[2,4,6,-1,8,10,12,-1,-1,-1,14,16,18,-1,-1,-1,-1,-1,-1],"split_conditions":[2.0794415E0,3.4339871E0,1.7E1,3.112217E-2,1.2053668E-1,3.1354942E0,8.365518E1,1.07828E-2,-1.0054853E-3,2.6253602E-3,7.464135E1,3.38879E-5,9.7094184E-1,-7.6061287E-3,-3.3089826E-3,-2.9669215E-3,2.4242327E-4,1.5490181E-3,2.2967657E-2],"split_indices":[3,7,14,0,0,2,16,0,0,0,18,19,1,0,0,0,0,0,0],"split_type":[0,0,0,0,0,0,0,0,0,0,0,0,0,0,0,0,0,0,0],"sum_hessian":[5.35E2,6E0,5.29E2,1E0,5E0,1.7E1,5.12E2,4E0,1E0,2E0,1.5E1,4.93E2,1.9E1,9E0,6E0,5.8E1,4.35E2,1.7E1,2E0],"tree_param":{"num_deleted":"0","num_feature":"22","num_nodes":"19","size_leaf_vector":"1"}},{"base_weights":[3.1317053E-3,4.9978897E-1,-4.3850997E-3,2.792318E-1,3.0655337E-2,-2.0507064E-3,-4.1299853E-1,1.0103247E-2,-9.90403E-4,-1.1403173E-2,1.7156546E-1,-2.0859806E-2,2.2748725E-3,-1.0164156E-2,-2.0250624E-4,1.9941676E-2,1.7069406E-3],"categories":[],"categories_nodes":[],"categories_segments":[],"categories_sizes":[],"default_left":[0,0,0,0,0,0,0,0,0,0,0,0,0,0,0,0,0],"id":62,"left_children":[1,3,5,7,-1,9,11,-1,-1,13,15,-1,-1,-1,-1,-1,-1],"loss_changes":[2.0032275E0,6.358135E-1,5.0374734E-1,1.3689107E-1,0E0,8.576671E-1,4.667557E-1,0E0,0E0,7.609314E-1,1.4890032E0,0E0,0E0,0E0,0E0,0E0,0E0],"parents":[2147483647,0,0,1,1,2,2,3,3,5,5,6,6,9,9,10,10],"right_children":[2,4,6,8,-1,10,12,-1,-1,14,16,-1,-1,-1,-1,-1,-1],"split_conditions":[2.6389532E0,2.7842857E1,7.832009E0,1.2053668E-1,3.0655337E-2,9.9270886E-1,1.2053668E-1,1.0103247E-2,-9.90403E-4,2.7080503E0,3.6109178E0,-2.0859806E-2,2.2748725E-3,-1.0164156E-2,-2.0250624E-4,1.9941676E-2,1.7069406E-3],"split_indices":[10,12,20,0,0,1,0,0,0,2,5,0,0,0,0,0,0],"split_type":[0,0,0,0,0,0,0,0,0,0,0,0,0,0,0,0,0],"sum_hessian":[5.35E2,7E0,5.28E2,6E0,1E0,5.26E2,2E0,5E0,1E0,5E2,2.6E1,1E0,1E0,6E0,4.94E2,4E0,2.2E1],"tree_param":{"num_deleted":"0","num_feature":"22","num_nodes":"17","size_leaf_vector":"1"}},{"base_weights":[3.098323E-3,4.8976633E-1,-4.2673526E-3,2.721567E-1,3.0195508E-2,4.069562E-3,-1.15235776E-1,9.850666E-3,-9.755469E-4,-6.3483254E-3,1.8410972E-1,-8.038694E-2,-2.0546908E-2,-9.902792E-3,-4.256072E-5,2.2906851E-2,3.2163325E-3,4.426023E-3,-3.6572267E-3],"categories":[],"categories_nodes":[],"categories_segments":[],"categories_sizes":[],"default_left":[0,0,0,0,0,0,0,0,0,0,0,0,0,0,0,0,0,0,0],"id":63,"left_children":[1,3,5,7,-1,9,11,-1,-1,13,15,17,-1,-1,-1,-1,-1,-1,-1],"loss_changes":[1.9234564E0,6.256689E-1,4.89865E-1,1.3053423E-1,0E0,9.258583E-1,6.794683E-1,0E0,0E0,7.448372E-1,1.1212325E0,3.5866874E-1,0E0,0E0,0E0,0E0,0E0,0E0,0E0],"parents":[2147483647,0,0,1,1,2,2,3,3,5,5,6,6,9,9,10,10,11,11],"right_children":[2,4,6,8,-1,10,12,-1,-1,14,16,18,-1,-1,-1,-1,-1,-1,-1],"split_conditions":[2.6389532E0,2.7842857E1,8.049097E1,1.2053668E-1,3.0195508E-2,9.9270886E-1,1E0,9.850666E-3,-9.755469E-4,2.7080503E0,2.4737661E1,3.583519E0,-2.0546908E-2,-9.902792E-3,-4.256072E-5,2.2906851E-2,3.2163325E-3,4.426023E-3,-3.6572267E-3],"split_indices":[10,12,17,0,0,1,1,0,0,2,13,2,0,0,0,0,0,0,0],"split_type":[0,0,0,0,0,0,0,0,0,0,0,0,0,0,0,0,0,0,0],"sum_hessian":[5.35E2,7E0,5.28E2,6E0,1E0,4.92E2,3.6E1,5E0,1E0,4.66E2,2.6E1,3.5E1,1E0,6E0,4.6E2,2E0,2.4E1,5E0,3E1],"tree_param":{"num_deleted":"0","num_feature":"22","num_nodes":"19","size_leaf_vector":"1"}},{"base_weights":[3.071549E-3,6.801202E-1,-2.0152545E-3,2.9742574E-2,7.3764264E-3,3.7112296E-2,-2.6777908E-2,-2.7259535E-1,5.2566662E-2,-1.2070621E-1,6.712223E-3,-1.7673397E-2,-1.5835732E-3,1.1806306E-2,1.0274228E-3,4.6274653E-3,-4.410655E-3,-4.2491086E-4,5.9077586E-3],"categories":[],"categories_nodes":[],"categories_segments":[],"categories_sizes":[],"default_left":[0,0,0,0,0,0,0,0,0,0,0,0,0,0,0,0,0,0,0],"id":64,"left_children":[1,3,5,-1,-1,7,9,11,13,15,17,-1,-1,-1,-1,-1,-1,-1,-1],"loss_changes":[1.847362E0,2.96942E-1,5.1741856E-1,0E0,0E0,1.0051007E0,1.0294447E0,6.646399E-1,1.2233164E0,6.4494073E-1,9.6374035E-1,0E0,0E0,0E0,0E0,0E0,0E0,0E0,0E0],"parents":[2147483647,0,0,1,1,2,2,5,5,6,6,7,7,8,8,9,9,10,10],"right_children":[2,4,6,-1,-1,8,10,12,14,16,18,-1,-1,-1,-1,-1,-1,-1,-1],"split_conditions":[1.895175E0,1.609438E0,4.304065E0,2.9742574E-2,7.3764264E-3,3.38879E-5,4.6151204E0,6.0864025E1,1.1870045E-3,3.871201E0,1.458847E0,-1.7673397E-2,-1.5835732E-3,1.1806306E-2,1.0274228E-3,4.6274653E-3,-4.410655E-3,-4.2491086E-4,5.9077586E-3],"split_indices":[10,2,2,0,0,19,4,17,19,4,20,0,0,0,0,0,0,0,0],"split_type":[0,0,0,0,0,0,0,0,0,0,0,0,0,0,0,0,0,0,0],"sum_hessian":[5.35E2,3E0,5.32E2,1E0,2E0,2.06E2,3.26E2,9E0,1.97E2,8.5E1,2.41E2,3E0,6E0,9E0,1.88E2,7E0,7.8E1,2.18E2,2.3E1],"tree_param":{"num_deleted":"0","num_feature":"22","num_nodes":"19","size_leaf_vector":"1"}},{"base_weights":[3.047306E-3,4.7375792E-1,-4.0769516E-3,2.6242393E-1,2.9296437E-2,-1.809128E-3,-4.0109897E-1,9.528279E-3,-1.0303257E-3,-1.0680171E-2,1.62865E-1,-2.0172546E-2,2.1230925E-3,-9.514276E-3,-1.8974348E-4,1.915681E-2,1.5711561E-3],"categories":[],"categories_nodes":[],"categories_segments":[],"categories_sizes":[],"default_left":[0,0,0,0,0,0,0,0,0,0,0,0,0,0,0,0,0],"id":65,"left_children":[1,3,5,7,-1,9,11,-1,-1,13,15,-1,-1,-1,-1,-1,-1],"loss_changes":[1.7993879E0,5.937834E-1,4.7557315E-1,1.2554881E-1,0E0,7.715974E-1,4.3166804E-1,0E0,0E0,6.667101E-1,1.3857062E0,0E0,0E0,0E0,0E0,0E0,0E0],"parents":[2147483647,0,0,1,1,2,2,3,3,5,5,6,6,9,9,10,10],"right_children":[2,4,6,8,-1,10,12,-1,-1,14,16,-1,-1,-1,-1,-1,-1],"split_conditions":[2.6389532E0,2.7842857E1,7.832009E0,1.2053668E-1,2.9296437E-2,9.9270886E-1,1.2053668E-1,9.528279E-3,-1.0303257E-3,2.7080503E0,3.6109178E0,-2.0172546E-2,2.1230925E-3,-9.514276E-3,-1.8974348E-4,1.915681E-2,1.5711561E-3],"split_indices":[10,12,20,0,0,1,0,0,0,2,5,0,0,0,0,0,0],"split_type":[0,0,0,0,0,0,0,0,0,0,0,0,0,0,0,0,0],"sum_hessian":[5.35E2,7E0,5.28E2,6E0,1E0,5.26E2,2E0,5E0,1E0,5E2,2.6E1,1E0,1E0,6E0,4.94E2,4E0,2.2E1],"tree_param":{"num_deleted":"0","num_feature":"22","num_nodes":"17","size_leaf_vector":"1"}},{"base_weights":[3.0132916E-3,4.642695E-1,-3.9679236E-3,2.557652E-1,2.8856993E-2,-1.6356462E-1,1.6506477E-3,9.290072E-3,-1.0148707E-3,8.536669E-2,-2.0001645E-1,-4.5614983E-3,1.5469752E-1,3.053865E-3,7.8763603E-4,-7.3747393E-3,-3.1800724E-3,-2.7871365E-3,2.2293447E-4,-6.9773715E-4,1.465526E-2],"categories":[],"categories_nodes":[],"categories_segments":[],"categories_sizes":[],"default_left":[0,0,0,0,0,0,0,0,0,0,0,0,0,0,0,0,0,0,0,0,0],"id":66,"left_children":[1,3,5,7,-1,9,11,-1,-1,13,15,17,19,-1,-1,-1,-1,-1,-1,-1,-1],"loss_changes":[1.7278314E0,5.8404386E-1,4.746272E-1,1.1974755E-1,0E0,1.8040678E-1,4.874894E-1,0E0,0E0,2.4083443E-4,4.2847812E-2,5.230077E-1,1.1994319E0,0E0,0E0,0E0,0E0,0E0,0E0,0E0,0E0],"parents":[2147483647,0,0,1,1,2,2,3,3,5,5,6,6,9,9,10,10,11,11,12,12],"right_children":[2,4,6,8,-1,10,12,-1,-1,14,16,18,20,-1,-1,-1,-1,-1,-1,-1,-1],"split_conditions":[2.6389532E0,2.7842857E1,1.7E1,1.2053668E-1,2.8856993E-2,3.1354942E0,8.365518E1,9.290072E-3,-1.0148707E-3,-5.6806475E-1,7.464135E1,3.38879E-5,7.0555595E1,3.053865E-3,7.8763603E-4,-7.3747393E-3,-3.1800724E-3,-2.7871365E-3,2.2293447E-4,-6.9773715E-4,1.465526E-2],"split_indices":[10,12,14,0,0,2,16,0,0,0,18,19,17,0,0,0,0,0,0,0,0],"split_type":[0,0,0,0,0,0,0,0,0,0,0,0,0,0,0,0,0,0,0,0,0],"sum_hessian":[5.35E2,7E0,5.28E2,6E0,1E0,1.7E1,5.11E2,5E0,1E0,2E0,1.5E1,4.92E2,1.9E1,1E0,1E0,9E0,6E0,5.8E1,4.34E2,1.3E1,6E0],"tree_param":{"num_deleted":"0","num_feature":"22","num_nodes":"21","size_leaf_vector":"1"}},{"base_weights":[3.0008997E-3,4.8703578E-1,-3.3976762E-3,2.8424136E-2,2.5238466E-1,-1.1649148E-3,-3.952311E-1,9.485707E-3,-9.996477E-4,-8.929496E-3,1.4909467E-1,-1.9873302E-2,2.087902E-3,-6.0997024E-4,2.1751735E-3,2.039843E-2,1.508701E-3],"categories":[],"categories_nodes":[],"categories_segments":[],"categories_sizes":[],"default_left":[0,0,0,0,0,0,0,0,0,0,0,0,0,0,0,0,0],"id":67,"left_children":[1,3,5,-1,7,9,11,-1,-1,13,15,-1,-1,-1,-1,-1,-1],"loss_changes":[1.6617186E0,5.171647E-1,4.6322098E-1,0E0,1.19913906E-1,6.173504E-1,4.1872707E-1,0E0,0E0,4.6855703E-1,1.3295246E0,0E0,0E0,0E0,0E0,0E0,0E0],"parents":[2147483647,0,0,1,1,2,2,4,4,5,5,6,6,9,9,10,10],"right_children":[2,4,6,-1,8,10,12,-1,-1,14,16,-1,-1,-1,-1,-1,-1],"split_conditions":[2.0794415E0,3.4339871E0,7.832009E0,2.8424136E-2,1.2053668E-1,9.9270886E-1,1.2053668E-1,9.485707E-3,-9.996477E-4,9.944216E-1,3.6109178E0,-1.9873302E-2,2.087902E-3,-6.0997024E-4,2.1751735E-3,2.039843E-2,1.508701E-3],"split_indices":[3,7,20,0,0,1,0,0,0,19,5,0,0,0,0,0,0],"split_type":[0,0,0,0,0,0,0,0,0,0,0,0,0,0,0,0,0],"sum_hessian":[5.35E2,6E0,5.29E2,1E0,5E0,5.27E2,2E0,4E0,1E0,5.02E2,2.5E1,1E0,1E0,4.41E2,6.1E1,3E0,2.2E1],"tree_param":{"num_deleted":"0","num_feature":"22","num_nodes":"17","size_leaf_vector":"1"}},{"base_weights":[2.9903455E-3,4.4815025E-1,-3.7474043E-3,2.4552621E-1,2.7997777E-2,-1.1771633E-2,-1.5279193E-3,8.921635E-3,-9.84653E-4,1.7717704E-2,-3.776414E-3,1.2751587E-4,-3.2993134E-3],"categories":[],"categories_nodes":[],"categories_segments":[],"categories_sizes":[],"default_left":[0,0,0,0,0,0,0,0,0,0,0,0,0],"id":68,"left_children":[1,3,5,7,-1,-1,9,-1,-1,-1,11,-1,-1],"loss_changes":[1.6093448E0,5.5721843E-1,4.5570606E-1,1.1080983E-1,0E0,0E0,7.0386463E-1,0E0,0E0,0E0,4.4886512E-1,0E0,0E0],"parents":[2147483647,0,0,1,1,2,2,3,3,6,6,10,10],"right_children":[2,4,6,8,-1,-1,10,-1,-1,-1,12,-1,-1],"split_conditions":[2.6389532E0,2.7842857E1,1.609438E0,1.2053668E-1,2.7997777E-2,-1.1771633E-2,2.0794415E0,8.921635E-3,-9.84653E-4,1.7717704E-2,8.049097E1,1.2751587E-4,-3.2993134E-3],"split_indices":[10,12,2,0,0,0,2,0,0,0,17,0,0],"split_type":[0,0,0,0,0,0,0,0,0,0,0,0,0],"sum_hessian":[5.35E2,7E0,5.28E2,6E0,1E0,2E0,5.26E2,5E0,1E0,1E0,5.25E2,4.89E2,3.6E1],"tree_param":{"num_deleted":"0","num_feature":"22","num_nodes":"13","size_leaf_vector":"1"}},{"base_weights":[2.9728536E-3,4.6999684E-1,-3.200997E-3,2.757781E-2,2.4190952E-1,-1.0071822E-3,-3.8824537E-1,9.096696E-3,-9.698832E-4,-8.565437E-3,1.4525472E-1,-1.9525712E-2,2.0546708E-3,8.670895E-6,-3.3318936E-3,1.9804671E-2,1.4817392E-3],"categories":[],"categories_nodes":[],"categories_segments":[],"categories_sizes":[],"default_left":[0,0,0,0,0,0,0,0,0,0,0,0,0,0,0,0,0],"id":69,"left_children":[1,3,5,-1,7,9,11,-1,-1,13,15,-1,-1,-1,-1,-1,-1],"loss_changes":[1.5469726E0,4.9492145E-1,4.4730842E-1,0E0,1.1069062E-1,5.8494014E-1,4.0440798E-1,0E0,0E0,4.56536E-1,1.2507583E0,0E0,0E0,0E0,0E0,0E0,0E0],"parents":[2147483647,0,0,1,1,2,2,4,4,5,5,6,6,9,9,10,10],"right_children":[2,4,6,-1,8,10,12,-1,-1,14,16,-1,-1,-1,-1,-1,-1],"split_conditions":[2.0794415E0,3.4339871E0,7.832009E0,2.757781E-2,1.2053668E-1,9.9270886E-1,1.2053668E-1,9.096696E-3,-9.698832E-4,2.8941559E1,3.6109178E0,-1.9525712E-2,2.0546708E-3,8.670895E-6,-3.3318936E-3,1.9804671E-2,1.4817392E-3],"split_indices":[3,7,20,0,0,1,0,0,0,12,5,0,0,0,0,0,0],"split_type":[0,0,0,0,0,0,0,0,0,0,0,0,0,0,0,0,0],"sum_hessian":[5.35E2,6E0,5.29E2,1E0,5E0,5.27E2,2E0,4E0,1E0,5.02E2,2.5E1,1E0,1E0,4.63E2,3.9E1,3E0,2.2E1],"tree_param":{"num_deleted":"0","num_feature":"22","num_nodes":"17","size_leaf_vector":"1"}},{"base_weights":[2.9511983E-3,4.3245816E-1,-3.54976E-3,2.3553178E-1,2.7164143E-2,-1.5764087E-1,1.8744392E-3,8.562057E-3,-9.5533486E-4,8.440204E-2,-1.9317137E-1,-4.104278E-3,1.491561E-1,3.0151636E-3,7.829282E-4,-6.566406E-3,-1.8397444E-3,-2.6652697E-3,2.219509E-4,-6.651019E-4,1.4115011E-2],"categories":[],"categories_nodes":[],"categories_segments":[],"categories_sizes":[],"default_left":[0,0,0,0,0,0,0,0,0,0,0,0,0,0,0,0,0,0,0,0,0],"id":70,"left_children":[1,3,5,7,-1,9,11,-1,-1,13,15,17,19,-1,-1,-1,-1,-1,-1,-1,-1],"loss_changes":[1.498158E0,5.3192306E-1,4.4244477E-1,1.02427095E-1,0E0,1.7110232E-1,4.5145646E-1,0E0,0E0,1.9375049E-4,4.081118E-2,4.8119E-1,1.1115246E0,0E0,0E0,0E0,0E0,0E0,0E0,0E0,0E0],"parents":[2147483647,0,0,1,1,2,2,3,3,5,5,6,6,9,9,10,10,11,11,12,12],"right_children":[2,4,6,8,-1,10,12,-1,-1,14,16,18,20,-1,-1,-1,-1,-1,-1,-1,-1],"split_conditions":[2.6389532E0,2.7842857E1,1.7E1,1.2053668E-1,2.7164143E-2,3.1354942E0,8.365518E1,8.562057E-3,-9.5533486E-4,-5.6806475E-1,5.1532917E0,3.38879E-5,7.0555595E1,3.0151636E-3,7.829282E-4,-6.566406E-3,-1.8397444E-3,-2.6652697E-3,2.219509E-4,-6.651019E-4,1.4115011E-2],"split_indices":[10,12,14,0,0,2,16,0,0,0,2,19,17,0,0,0,0,0,0,0,0],"split_type":[0,0,0,0,0,0,0,0,0,0,0,0,0,0,0,0,0,0,0,0,0],"sum_hessian":[5.35E2,7E0,5.28E2,6E0,1E0,1.7E1,5.11E2,5E0,1E0,2E0,1.5E1,4.92E2,1.9E1,1E0,1E0,1.2E1,3E0,5.8E1,4.34E2,1.3E1,6E0],"tree_param":{"num_deleted":"0","num_feature":"22","num_nodes":"21","size_leaf_vector":"1"}},{"base_weights":[2.9394699E-3,4.5355228E-1,-3.0175662E-3,2.675668E-2,2.3184788E-1,-8.5530523E-4,-3.8256964E-1,2.9076418E-1,-9.4100495E-4,-8.168292E-3,1.4065577E-1,-1.9236155E-2,2.0205213E-3,9.623405E-3,2.5605047E-3,-5.748719E-4,2.1102238E-3,1.9249873E-2,1.4222611E-3],"categories":[],"categories_nodes":[],"categories_segments":[],"categories_sizes":[],"default_left":[0,0,0,0,0,0,0,0,0,0,0,0,0,0,0,0,0,0,0],"id":71,"left_children":[1,3,5,-1,7,9,11,13,-1,15,17,-1,-1,-1,-1,-1,-1,-1,-1],"loss_changes":[1.4401625E0,4.7348607E-1,4.3463886E-1,0E0,1.02166176E-1,5.475596E-1,3.9228186E-1,3.449887E-3,0E0,4.355059E-1,1.1842322E0,0E0,0E0,0E0,0E0,0E0,0E0,0E0,0E0],"parents":[2147483647,0,0,1,1,2,2,4,4,5,5,6,6,7,7,9,9,10,10],"right_children":[2,4,6,-1,8,10,12,14,-1,16,18,-1,-1,-1,-1,-1,-1,-1,-1],"split_conditions":[2.0794415E0,3.4339871E0,7.832009E0,2.675668E-2,1.2053668E-1,9.9270886E-1,1.2053668E-1,4.0253515E0,-9.4100495E-4,9.944216E-1,3.6109178E0,-1.9236155E-2,2.0205213E-3,9.623405E-3,2.5605047E-3,-5.748719E-4,2.1102238E-3,1.9249873E-2,1.4222611E-3],"split_indices":[3,7,20,0,0,1,0,2,0,19,5,0,0,0,0,0,0,0,0],"split_type":[0,0,0,0,0,0,0,0,0,0,0,0,0,0,0,0,0,0,0],"sum_hessian":[5.35E2,6E0,5.29E2,1E0,5E0,5.27E2,2E0,4E0,1E0,5.02E2,2.5E1,1E0,1E0,3E0,1E0,4.41E2,6.1E1,3E0,