{"learner":{"attributes":{"scikit_learn":"{\"_estimator_type\": \"regressor\"}"},"feature_names":[],"feature_types":[],"gradient_booster":{"model":{"cats":{"enc":[],"feature_segments":[],"sorted_idx":[]},"gbtree_model_param":{"num_parallel_tree":"1","num_trees":"600"},"iteration_indptr":[0,1,2,3,4,5,6,7,8,9,10,11,12,13,14,15,16,17,18,19,20,21,22,23,24,25,26,27,28,29,30,31,32,33,34,35,36,37,38,39,40,41,42,43,44,45,46,47,48,49,50,51,52,53,54,55,56,57,58,59,60,61,62,63,64,65,66,67,68,69,70,71,72,73,74,75,76,77,78,79,80,81,82,83,84,85,86,87,88,89,90,91,92,93,94,95,96,97,98,99,100,101,102,103,104,105,106,107,108,109,110,111,112,113,114,115,116,117,118,119,120,121,122,123,124,125,126,127,128,129,130,131,132,133,134,135,136,137,138,139,140,141,142,143,144,145,146,147,148,149,150,151,152,153,154,155,156,157,158,159,160,161,162,163,164,165,166,167,168,169,170,171,172,173,174,175,176,177,178,179,180,181,182,183,184,185,186,187,188,189,190,191,192,193,194,195,196,197,198,199,200,201,202,203,204,205,206,207,208,209,210,211,212,213,214,215,216,217,218,219,220,221,222,223,224,225,226,227,228,229,230,231,232,233,234,235,236,237,238,239,240,241,242,243,244,245,246,247,248,249,250,251,252,253,254,255,256,257,258,259,260,261,262,263,264,265,266,267,268,269,270,271,272,273,274,275,276,277,278,279,280,281,282,283,284,285,286,287,288,289,290,291,292,293,294,295,296,297,298,299,300,301,302,303,304,305,306,307,308,309,310,311,312,313,314,315,316,317,318,319,320,321,322,323,324,325,326,327,328,329,330,331,332,333,334,335,336,337,338,339,340,341,342,343,344,345,346,347,348,349,350,351,352,353,354,355,356,357,358,359,360,361,362,363,364,365,366,367,368,369,370,371,372,373,374,375,376,377,378,379,380,381,382,383,384,385,386,387,388,389,390,391,392,393,394,395,396,397,398,399,400,401,402,403,404,405,406,407,408,409,410,411,412,413,414,415,416,417,418,419,420,421,422,423,424,425,426,427,428,429,430,431,432,433,434,435,436,437,438,439,440,441,442,443,444,445,446,447,448,449,450,451,452,453,454,455,456,457,458,459,460,461,462,463,464,465,466,467,468,469,470,471,472,473,474,475,476,477,478,479,480,481,482,483,484,485,486,487,488,489,490,491,492,493,494,495,496,497,498,499,500,501,502,503,504,505,506,507,508,509,510,511,512,513,514,515,516,517,518,519,520,521,522,523,524,525,526,527,528,529,530,531,532,533,534,535,536,537,538,539,540,541,542,543,544,545,546,547,548,549,550,551,552,553,554,555,556,557,558,559,560,561,562,563,564,565,566,567,568,569,570,571,572,573,574,575,576,577,578,579,580,581,582,583,584,585,586,587,588,589,590,591,592,593,594,595,596,597,598,599,600],"tree_info":[0,0,0,0,0,0,0,0,0,0,0,0,0,0,0,0,0,0,0,0,0,0,0,0,0,0,0,0,0,0,0,0,0,0,0,0,0,0,0,0,0,0,0,0,0,0,0,0,0,0,0,0,0,0,0,0,0,0,0,0,0,0,0,0,0,0,0,0,0,0,0,0,0,0,0,0,0,0,0,0,0,0,0,0,0,0,0,0,0,0,0,0,0,0,0,0,0,0,0,0,0,0,0,0,0,0,0,0,0,0,0,0,0,0,0,0,0,0,0,0,0,0,0,0,0,0,0,0,0,0,0,0,0,0,0,0,0,0,0,0,0,0,0,0,0,0,0,0,0,0,0,0,0,0,0,0,0,0,0,0,0,0,0,0,0,0,0,0,0,0,0,0,0,0,0,0,0,0,0,0,0,0,0,0,0,0,0,0,0,0,0,0,0,0,0,0,0,0,0,0,0,0,0,0,0,0,0,0,0,0,0,0,0,0,0,0,0,0,0,0,0,0,0,0,0,0,0,0,0,0,0,0,0,0,0,0,0,0,0,0,0,0,0,0,0,0,0,0,0,0,0,0,0,0,0,0,0,0,0,0,0,0,0,0,0,0,0,0,0,0,0,0,0,0,0,0,0,0,0,0,0,0,0,0,0,0,0,0,0,0,0,0,0,0,0,0,0,0,0,0,0,0,0,0,0,0,0,0,0,0,0,0,0,0,0,0,0,0,0,0,0,0,0,0,0,0,0,0,0,0,0,0,0,0,0,0,0,0,0,0,0,0,0,0,0,0,0,0,0,0,0,0,0,0,0,0,0,0,0,0,0,0,0,0,0,0,0,0,0,0,0,0,0,0,0,0,0,0,0,0,0,0,0,0,0,0,0,0,0,0,0,0,0,0,0,0,0,0,0,0,0,0,0,0,0,0,0,0,0,0,0,0,0,0,0,0,0,0,0,0,0,0,0,0,0,0,0,0,0,0,0,0,0,0,0,0,0,0,0,0,0,0,0,0,0,0,0,0,0,0,0,0,0,0,0,0,0,0,0,0,0,0,0,0,0,0,0,0,0,0,0,0,0,0,0,0,0,0,0,0,0,0,0,0,0,0,0,0,0,0,0,0,0,0,0,0,0,0,0,0,0,0,0,0,0,0,0,0,0,0,0,0,0,0,0,0,0,0,0,0,0,0,0,0,0,0,0,0,0,0,0,0,0,0,0,0,0,0,0,0,0,0,0,0,0,0,0,0,0,0,0,0,0,0,0,0,0,0,0,0,0,0,0,0,0,0,0,0,0,0,0,0,0,0,0,0,0,0,0,0,0,0,0,0,0,0,0,0,0,0,0,0,0,0,0,0,0,0,0,0],"trees":[{"base_weights":[-2.4869217E-2,9.6154355E-2,-5.5210836E-2,1.3863675E-2,-5.509542E-1,-1.5885157E-3,9.793966E-3,5.4459E-3,-1.7066283E-2],"categories":[],"categories_nodes":[],"categories_segments":[],"categories_sizes":[],"default_left":[0,0,0,0,0,0,0,0,0],"id":0,"left_children":[1,-1,3,5,7,-1,-1,-1,-1],"loss_changes":[4.2122616E1,0E0,1.4561011E1,7.828742E0,7.8589725E-1,0E0,0E0,0E0,0E0],"parents":[2147483647,0,0,2,2,3,3,4,4],"right_children":[2,-1,4,6,8,-1,-1,-1,-1],"split_conditions":[2.0794415E0,9.6154355E-2,6.598509E0,9.880115E-1,1.3974206E1,-1.5885157E-3,9.793966E-3,5.4459E-3,-1.7066283E-2],"split_indices":[2,0,8,19,12,0,0,0,0],"split_type":[0,0,0,0,0,0,0,0,0],"sum_hessian":[4.27E2,3E0,4.24E2,3.73E2,5.1E1,3.08E2,6.5E1,1E0,5E1],"tree_param":{"num_deleted":"0","num_feature":"22","num_nodes":"9","size_leaf_vector":"1"}},{"base_weights":[2.0721523E-2,1.05753124E-1,-3.8869254E-2,5.0420925E-2,-4.2799434E-1,8.0141023E-4,2.7264483E-2,-8.475872E-3,-1.6874561E-2],"categories":[],"categories_nodes":[],"categories_segments":[],"categories_sizes":[],"default_left":[0,0,0,0,0,0,0,0,0],"id":1,"left_children":[1,-1,3,5,7,-1,-1,-1,-1],"loss_changes":[8.74275E1,0E0,1.433654E1,6.8133864E0,1.3474922E0,0E0,0E0,0E0,0E0],"parents":[2147483647,0,0,2,2,3,3,4,4],"right_children":[2,-1,4,6,8,-1,-1,-1,-1],"split_conditions":[2.0794415E0,1.05753124E-1,6.0844994E0,3.0333334E1,6.8416157E0,8.0141023E-4,2.7264483E-2,-8.475872E-3,-1.6874561E-2],"split_indices":[2,0,9,14,9,0,0,0,0],"split_type":[0,0,0,0,0,0,0,0,0],"sum_hessian":[4.17E2,6E0,4.11E2,3.35E2,7.6E1,3.27E2,8E0,3.8E1,3.8E1],"tree_param":{"num_deleted":"0","num_feature":"22","num_nodes":"9","size_leaf_vector":"1"}},{"base_weights":[4.039997E-2,1.0303376E-1,-1.7364139E-2,6.411219E-2,-3.7841886E-1,1.2047297E-3,2.31116E-2,-7.884228E-3,-1.46134235E-2],"categories":[],"categories_nodes":[],"categories_segments":[],"categories_sizes":[],"default_left":[0,0,0,0,0,0,0,0,0],"id":2,"left_children":[1,-1,3,5,7,-1,-1,-1,-1],"loss_changes":[8.201053E1,0E0,1.2144235E1,5.6705885E0,8.270292E-1,0E0,0E0,0E0,0E0],"parents":[2147483647,0,0,2,2,3,3,4,4],"right_children":[2,-1,4,6,8,-1,-1,-1,-1],"split_conditions":[2.0794415E0,1.0303376E-1,6.0844994E0,3.0333334E1,6.8167357E0,1.2047297E-3,2.31116E-2,-7.884228E-3,-1.46134235E-2],"split_indices":[2,0,9,14,8,0,0,0,0],"split_type":[0,0,0,0,0,0,0,0,0],"sum_hessian":[4.17E2,6E0,4.11E2,3.36E2,7.5E1,3.26E2,1E1,3.8E1,3.7E1],"tree_param":{"num_deleted":"0","num_feature":"22","num_nodes":"9","size_leaf_vector":"1"}},{"base_weights":[-2.6652901E-3,1.00384325E-1,-5.807664E-2,1.09718405E-1,-2.457167E-1,-3.6460857E-3,5.969204E-3,-9.325108E-3,6.0612895E-3],"categories":[],"categories_nodes":[],"categories_segments":[],"categories_sizes":[],"default_left":[0,0,0,0,0,0,0,0,0],"id":3,"left_children":[1,-1,3,5,7,-1,-1,-1,-1],"loss_changes":[7.980046E1,0E0,1.3345146E1,4.647687E0,5.8944435E0,0E0,0E0,0E0,0E0],"parents":[2147483647,0,0,2,2,3,3,4,4],"right_children":[2,-1,4,6,8,-1,-1,-1,-1],"split_conditions":[2.0794415E0,1.00384325E-1,4.644391E0,5.3848988E1,9.999947E-1,-3.6460857E-3,5.969204E-3,-9.325108E-3,6.0612895E-3],"split_indices":[2,0,8,16,19,0,0,0,0],"split_type":[0,0,0,0,0,0,0,0,0],"sum_hessian":[4.28E2,6E0,4.22E2,2.23E2,1.99E2,6.2E1,1.61E2,1.74E2,2.5E1],"tree_param":{"num_deleted":"0","num_feature":"22","num_nodes":"9","size_leaf_vector":"1"}},{"base_weights":[1.5787847E-2,9.780301E-2,-3.6455777E-2,1.348215E-1,-2.3286538E-1,-4.172289E-3,7.0482832E-3,-9.986294E-3,2.647459E-3],"categories":[],"categories_nodes":[],"categories_segments":[],"categories_sizes":[],"default_left":[0,0,0,0,0,0,0,0,0],"id":4,"left_children":[1,-1,3,5,7,-1,-1,-1,-1],"loss_changes":[7.486598E1,0E0,1.4665014E1,6.422233E0,6.5487137E0,0E0,0E0,0E0,0E0],"parents":[2147483647,0,0,2,2,3,3,4,4],"right_children":[2,-1,4,6,8,-1,-1,-1,-1],"split_conditions":[2.0794415E0,9.780301E-2,4.65396E0,5.4096558E1,1.0994818E0,-4.172289E-3,7.0482832E-3,-9.986294E-3,2.647459E-3],"split_indices":[2,0,8,16,20,0,0,0,0],"split_type":[0,0,0,0,0,0,0,0,0],"sum_hessian":[4.4E2,6E0,4.34E2,2.32E2,2.02E2,6.2E1,1.7E2,1.54E2,4.8E1],"tree_param":{"num_deleted":"0","num_feature":"22","num_nodes":"9","size_leaf_vector":"1"}},{"base_weights":[-1.4947249E-2,8.307629E-2,-4.6623416E-2,4.083994E-2,-4.222595E-1,-5.8585033E-3,3.4262585E-3,-8.82038E-3,-1.6213575E-2],"categories":[],"categories_nodes":[],"categories_segments":[],"categories_sizes":[],"default_left":[0,0,0,0,0,0,0,0,0],"id":5,"left_children":[1,-1,3,5,7,-1,-1,-1,-1],"loss_changes":[3.919791E1,0E0,1.4440324E1,6.206992E0,1.099205E0,0E0,0E0,0E0,0E0],"parents":[2147483647,0,0,2,2,3,3,4,4],"right_children":[2,-1,4,6,8,-1,-1,-1,-1],"split_conditions":[2.0794415E0,8.307629E-2,6.0844994E0,5.3523746E1,6.8416157E0,-5.8585033E-3,3.4262585E-3,-8.82038E-3,-1.6213575E-2],"split_indices":[2,0,9,17,9,0,0,0,0],"split_type":[0,0,0,0,0,0,0,0,0],"sum_hessian":[4.42E2,4E0,4.38E2,3.56E2,8.2E1,8.4E1,2.72E2,4.1E1,4.1E1],"tree_param":{"num_deleted":"0","num_feature":"22","num_nodes":"9","size_leaf_vector":"1"}},{"base_weights":[1.7677994E-2,1.926093E0,-3.689024E-2,6.307779E-1,9.348835E-2,4.6079796E-2,-4.1304514E-1,2.973436E-3,3.0142402E-2,9.737725E-6,1.2808565E-2,-1.4382333E-2,-3.335882E-3],"categories":[],"categories_nodes":[],"categories_segments":[],"categories_sizes":[],"default_left":[0,0,0,0,0,0,0,0,0,0,0,0,0],"id":6,"left_children":[1,3,5,7,-1,9,11,-1,-1,-1,-1,-1,-1],"loss_changes":[4.495489E1,1.6534302E1,1.3127058E1,1.2921941E0,0E0,6.01214E0,1.469162E0,0E0,0E0,0E0,0E0,0E0,0E0],"parents":[2147483647,0,0,1,1,2,2,3,3,5,5,6,6],"right_children":[2,4,6,8,-1,10,12,-1,-1,-1,-1,-1,-1],"split_conditions":[2.7080503E0,3.3672957E0,6.0844994E0,3.3672957E0,9.348835E-2,9.7094184E-1,9.7094184E-1,2.973436E-3,3.0142402E-2,9.737725E-6,1.2808565E-2,-1.4382333E-2,-3.335882E-3],"split_indices":[3,6,9,9,0,1,0,0,0,0,0,0,0],"split_type":[0,0,0,0,0,0,0,0,0,0,0,0,0],"sum_hessian":[4.3E2,1.1E1,4.19E2,6E0,5E0,3.44E2,7.5E1,3E0,3E0,3.08E2,3.6E1,6.1E1,1.4E1],"tree_param":{"num_deleted":"0","num_feature":"22","num_nodes":"13","size_leaf_vector":"1"}},{"base_weights":[3.433851E-3,8.52875E-2,-3.6380004E-2,4.120429E-2,-3.9625996E-1,5.4544106E-4,2.487217E-2,-1.3530186E-2,-2.887749E-3],"categories":[],"categories_nodes":[],"categories_segments":[],"categories_sizes":[],"default_left":[0,0,0,0,0,0,0,0,0],"id":7,"left_children":[1,-1,3,5,7,-1,-1,-1,-1],"loss_changes":[4.90544E1,0E0,1.1966529E1,6.3880014E0,1.2048101E0,0E0,0E0,0E0,0E0],"parents":[2147483647,0,0,2,2,3,3,4,4],"right_children":[2,-1,4,6,8,-1,-1,-1,-1],"split_conditions":[2.0794415E0,8.52875E-2,6.079933E0,3.0333334E1,9.9270886E-1,5.4544106E-4,2.487217E-2,-1.3530186E-2,-2.887749E-3],"split_indices":[2,0,8,14,0,0,0,0,0],"split_type":[0,0,0,0,0,0,0,0,0],"sum_hessian":[4.32E2,5E0,4.27E2,3.52E2,7.5E1,3.43E2,9E0,6.3E1,1.2E1],"tree_param":{"num_deleted":"0","num_feature":"22","num_nodes":"9","size_leaf_vector":"1"}},{"base_weights":[-4.2953403E-3,9.056381E-2,-3.9033618E-2,1.0891846E-1,-2.2000027E-1,-3.908895E-3,5.176666E-3,-1.0572751E-2,7.019695E-4],"categories":[],"categories_nodes":[],"categories_segments":[],"categories_sizes":[],"default_left":[0,0,0,0,0,0,0,0,0],"id":8,"left_children":[1,-1,3,5,7,-1,-1,-1,-1],"loss_changes":[4.6220257E1,0E0,1.1670823E1,3.675989E0,6.325736E0,0E0,0E0,0E0,0E0],"parents":[2147483647,0,0,2,2,3,3,4,4],"right_children":[2,-1,4,6,8,-1,-1,-1,-1],"split_conditions":[2.0794415E0,9.056381E-2,4.65396E0,5.1818172E1,3.6596698E-1,-3.908895E-3,5.176666E-3,-1.0572751E-2,7.019695E-4],"split_indices":[2,0,7,17,19,0,0,0,0],"split_type":[0,0,0,0,0,0,0,0,0],"sum_hessian":[4.38E2,4E0,4.34E2,2.39E2,1.95E2,5E1,1.89E2,1.26E2,6.9E1],"tree_param":{"num_deleted":"0","num_feature":"22","num_nodes":"9","size_leaf_vector":"1"}},{"base_weights":[-3.15302E-3,1.891577E0,-2.964539E-2,-9.7515555E-3,7.199739E-2,1.296762E-1,-2.3264463E-1,2.4553076E-3,1.5662014E-2,-1.0498551E-2,2.257281E-4],"categories":[],"categories_nodes":[],"categories_segments":[],"categories_sizes":[],"default_left":[0,0,0,0,0,0,0,0,0,0,0],"id":9,"left_children":[1,3,5,-1,-1,7,9,-1,-1,-1,-1],"loss_changes":[2.1841093E1,7.540848E0,1.3904954E1,0E0,0E0,4.4806213E0,5.327426E0,0E0,0E0,0E0,0E0],"parents":[2147483647,0,0,1,1,2,2,5,5,6,6],"right_children":[2,4,6,-1,-1,8,10,-1,-1,-1,-1],"split_conditions":[3.1746143E-1,9.350162E-1,4.691348E0,-9.7515555E-3,7.199739E-2,4.89784E0,6.376479E-1,2.4553076E-3,1.5662014E-2,-1.0498551E-2,2.257281E-4],"split_indices":[20,1,8,0,0,3,19,0,0,0,0],"split_type":[0,0,0,0,0,0,0,0,0,0,0],"sum_hessian":[4.33E2,5E0,4.28E2,1E0,4E0,2.4E2,1.88E2,2.15E2,2.5E1,1.26E2,6.2E1],"tree_param":{"num_deleted":"0","num_feature":"22","num_nodes":"11","size_leaf_vector":"1"}},{"base_weights":[-1.3745719E-2,1.638876E0,-6.367673E-2,5.306075E-1,8.530263E-2,-4.4340208E-1,5.160393E-3,2.5347387E-2,1.5221704E-4,-3.627897E-2,-1.1234537E-2,-6.8356367E-3,2.204467E-3],"categories":[],"categories_nodes":[],"categories_segments":[],"categories_sizes":[],"default_left":[0,0,0,0,0,0,0,0,0,0,0,0,0],"id":10,"left_children":[1,3,5,7,-1,9,11,-1,-1,-1,-1,-1,-1],"loss_changes":[3.6576904E1,1.5845726E1,1.1242146E1,1.3171375E0,0E0,3.0308628E0,5.8275476E0,0E0,0E0,0E0,0E0,0E0,0E0],"parents":[2147483647,0,0,1,1,2,2,3,3,5,5,6,6],"right_children":[2,4,6,8,-1,10,12,-1,-1,-1,-1,-1,-1],"split_conditions":[2.7080503E0,3.4011974E0,2.535654E-4,3.218876E0,8.530263E-2,4.3913054E0,5.2670456E1,2.5347387E-2,1.5221704E-4,-3.627897E-2,-1.1234537E-2,-6.8356367E-3,2.204467E-3],"split_indices":[3,6,19,6,0,10,16,0,0,0,0,0,0],"split_type":[0,0,0,0,0,0,0,0,0,0,0,0,0],"sum_hessian":[4.41E2,1.2E1,4.29E2,7E0,5E0,6.5E1,3.64E2,4E0,3E0,4E0,6.1E1,8.2E1,2.82E2],"tree_param":{"num_deleted":"0","num_feature":"22","num_nodes":"13","size_leaf_vector":"1"}},{"base_weights":[-2.2256747E-2,7.345053E-2,-5.8803387E-2,-5.515367E-3,-4.285768E-1,-1.9119632E-3,7.656041E-3,-1.3941308E-2,3.3650664E-3],"categories":[],"categories_nodes":[],"categories_segments":[],"categories_sizes":[],"default_left":[0,0,0,0,0,0,0,0,0],"id":11,"left_children":[1,-1,3,5,7,-1,-1,-1,-1],"loss_changes":[3.716386E1,0E0,7.9779553E0,5.4044824E0,1.0486155E0,0E0,0E0,0E0,0E0],"parents":[2147483647,0,0,2,2,3,3,4,4],"right_children":[2,-1,4,6,8,-1,-1,-1,-1],"split_conditions":[2.0794415E0,7.345053E-2,6.5750756E0,9.880115E-1,7.9676266E0,-1.9119632E-3,7.656041E-3,-1.3941308E-2,3.3650664E-3],"split_indices":[2,0,9,19,4,0,0,0,0],"split_type":[0,0,0,0,0,0,0,0,0],"sum_hessian":[4.09E2,5E0,4.04E2,3.54E2,5E1,2.9E2,6.4E1,4.7E1,3E0],"tree_param":{"num_deleted":"0","num_feature":"22","num_nodes":"9","size_leaf_vector":"1"}},{"base_weights":[2.2480391E-2,7.885232E-2,-8.2305055E-3,-7.5897425E-2,4.7860909E-1,-2.699849E-4,-9.767766E-3,4.809827E-2,8.040979E-3],"categories":[],"categories_nodes":[],"categories_segments":[],"categories_sizes":[],"default_left":[0,0,0,0,0,0,0,0,0],"id":12,"left_children":[1,-1,3,5,7,-1,-1,-1,-1],"loss_changes":[3.4354694E1,0E0,1.4037073E1,6.2443905E0,1.1885342E1,0E0,0E0,0E0,0E0],"parents":[2147483647,0,0,2,2,3,3,4,4],"right_children":[2,-1,4,6,8,-1,-1,-1,-1],"split_conditions":[1.1036309E-1,7.885232E-2,9.350162E-1,6.0684257E0,3.6109178E0,-2.699849E-4,-9.767766E-3,4.809827E-2,8.040979E-3],"split_indices":[20,0,1,9,3,0,0,0,0],"split_type":[0,0,0,0,0,0,0,0,0],"sum_hessian":[4.28E2,4E0,4.24E2,3.73E2,5.1E1,2.95E2,7.8E1,7E0,4.4E1],"tree_param":{"num_deleted":"0","num_feature":"22","num_nodes":"9","size_leaf_vector":"1"}},{"base_weights":[-3.4281924E-2,7.45006E-2,-5.8582794E-2,7.5179115E-2,-2.2223404E-1,3.3471396E-4,1.2836874E-2,-8.569129E-3,3.509579E-3],"categories":[],"categories_nodes":[],"categories_segments":[],"categories_sizes":[],"default_left":[0,0,0,0,0,0,0,0,0],"id":13,"left_children":[1,-1,3,5,7,-1,-1,-1,-1],"loss_changes":[2.5596664E1,0E0,9.057403E0,5.143836E0,4.03386E0,0E0,0E0,0E0,0E0],"parents":[2147483647,0,0,2,2,3,3,4,4],"right_children":[2,-1,4,6,8,-1,-1,-1,-1],"split_conditions":[2.0794415E0,7.45006E-2,4.65396E0,9.7094184E-1,1.2460824E0,3.3471396E-4,1.2836874E-2,-8.569129E-3,3.509579E-3],"split_indices":[2,0,8,1,20,0,0,0,0],"split_type":[0,0,0,0,0,0,0,0,0],"sum_hessian":[4.15E2,3E0,4.12E2,2.27E2,1.85E2,1.93E2,3.4E1,1.56E2,2.9E1],"tree_param":{"num_deleted":"0","num_feature":"22","num_nodes":"9","size_leaf_vector":"1"}},{"base_weights":[-2.3877611E-3,1.7078701E0,-4.4402972E-2,5.7336473E-1,7.105938E-2,1.043936E-2,-4.547954E-1,4.455552E-3,1.92734E-2,1.0652252E-2,-9.761526E-4,-1.791429E-2,-7.7827065E-3],"categories":[],"categories_nodes":[],"categories_segments":[],"categories_sizes":[],"default_left":[0,0,0,0,0,0,0,0,0,0,0,0,0],"id":14,"left_children":[1,3,5,7,-1,9,11,-1,-1,-1,-1,-1,-1],"loss_changes":[2.9968283E1,6.138441E0,9.165048E0,5.1330805E-2,0E0,5.3437576E0,1.1800013E0,0E0,0E0,0E0,0E0,0E0,0E0],"parents":[2147483647,0,0,1,1,2,2,3,3,5,5,6,6],"right_children":[2,4,6,8,-1,10,12,-1,-1,-1,-1,-1,-1],"split_conditions":[2.7080503E0,2.2125E1,6.598509E0,2.3978953E0,7.105938E-2,3.4011974E0,6.7804723E0,4.455552E-3,1.92734E-2,1.0652252E-2,-9.761526E-4,-1.791429E-2,-7.7827065E-3],"split_indices":[2,14,8,3,0,8,10,0,0,0,0,0,0],"split_type":[0,0,0,0,0,0,0,0,0,0,0,0,0],"sum_hessian":[4.15E2,9E0,4.06E2,4E0,5E0,3.59E2,4.7E1,1E0,3E0,3.9E1,3.2E2,2.6E1,2.1E1],"tree_param":{"num_deleted":"0","num_feature":"22","num_nodes":"13","size_leaf_vector":"1"}},{"base_weights":[1.5279069E-2,7.346642E-2,-1.3120201E-2,4.289157E-1,-7.3894665E-2,6.359929E-3,3.654468E-2,-4.2158294E-2,-1.7848862E-3],"categories":[],"categories_nodes":[],"categories_segments":[],"categories_sizes":[],"default_left":[0,0,0,0,0,0,0,0,0],"id":15,"left_children":[1,-1,3,5,7,-1,-1,-1,-1],"loss_changes":[2.9957848E1,0E0,1.1556563E1,8.644178E0,7.162594E0,0E0,0E0,0E0,0E0],"parents":[2147483647,0,0,2,2,3,3,4,4],"right_children":[2,-1,4,6,8,-1,-1,-1,-1],"split_conditions":[1.1036309E-1,7.346642E-2,3.462449E0,3.8066626E0,3.4339871E0,6.359929E-3,3.654468E-2,-4.2158294E-2,-1.7848862E-3],"split_indices":[20,0,10,7,4,0,0,0,0],"split_type":[0,0,0,0,0,0,0,0,0],"sum_hessian":[4.32E2,4E0,4.28E2,5.1E1,3.77E2,4.1E1,1E1,3E0,3.74E2],"tree_param":{"num_deleted":"0","num_feature":"22","num_nodes":"9","size_leaf_vector":"1"}},{"base_weights":[1.496886E-2,1.8879746E0,-2.742315E-2,5.882641E-1,7.319358E-2,-4.408287E-1,2.520587E-2,4.2933193E-3,2.0668352E-2,-3.9354544E-2,-1.0421442E-2,-2.7568669E-3,4.2847944E-3],"categories":[],"categories_nodes":[],"categories_segments":[],"categories_sizes":[],"default_left":[0,0,0,0,0,0,0,0,0,0,0,0,0],"id":16,"left_children":[1,3,5,7,-1,9,11,-1,-1,-1,-1,-1,-1],"loss_changes":[3.228837E1,5.019516E0,8.670449E0,8.067846E-2,0E0,3.2069206E0,4.8889594E0,0E0,0E0,0E0,0E0,0E0,0E0],"parents":[2147483647,0,0,1,1,2,2,3,3,5,5,6,6],"right_children":[2,4,6,8,-1,10,12,-1,-1,-1,-1,-1,-1],"split_conditions":[2.7080503E0,-3.546049E-1,3.38879E-5,-8.2298386E-1,7.319358E-2,3.912023E0,1.2053668E-1,4.2933193E-3,2.0668352E-2,-3.9354544E-2,-1.0421442E-2,-2.7568669E-3,4.2847944E-3],"split_indices":[2,1,19,0,0,2,1,0,0,0,0,0,0],"split_type":[0,0,0,0,0,0,0,0,0,0,0,0,0],"sum_hessian":[4.05E2,8E0,3.97E2,3E0,5E0,4.4E1,3.53E2,1E0,2E0,3E0,4.1E1,1.77E2,1.76E2],"tree_param":{"num_deleted":"0","num_feature":"22","num_nodes":"13","size_leaf_vector":"1"}},{"base_weights":[3.1146996E-2,2.176721E0,-2.5103713E-4,1.7180074E-2,7.148993E-2,5.277059E-2,-4.0232646E-1,-1.0653853E-3,6.137006E-3,-1.4140497E-2,-5.4070926E-3],"categories":[],"categories_nodes":[],"categories_segments":[],"categories_sizes":[],"default_left":[0,0,0,0,0,0,0,0,0,0,0],"id":17,"left_children":[1,3,5,-1,-1,7,9,-1,-1,-1,-1],"loss_changes":[2.8025139E1,6.2060165E-1,8.783214E0,0E0,0E0,4.8852644E0,6.5085745E-1,0E0,0E0,0E0,0E0],"parents":[2147483647,0,0,1,1,2,2,5,5,6,6],"right_children":[2,4,6,-1,-1,8,10,-1,-1,-1,-1],"split_conditions":[2.3978953E0,-4.6472317E-1,6.5750756E0,1.7180074E-2,7.148993E-2,5.6806475E-1,7.288076E0,-1.0653853E-3,6.137006E-3,-1.4140497E-2,-5.4070926E-3],"split_indices":[2,1,9,0,0,1,11,0,0,0,0],"split_type":[0,0,0,0,0,0,0,0,0,0,0],"sum_hessian":[4.15E2,5E0,4.1E2,1E0,4E0,3.63E2,4.7E1,2.3E2,1.33E2,3.5E1,1.2E1],"tree_param":{"num_deleted":"0","num_feature":"22","num_nodes":"11","size_leaf_vector":"1"}},{"base_weights":[2.3145547E-2,7.488771E-2,-1.1336621E-2,3.740194E-2,-3.834725E-1,-1.59552E-3,5.1999725E-3,8.082955E-3,-1.20688705E-2],"categories":[],"categories_nodes":[],"categories_segments":[],"categories_sizes":[],"default_left":[0,0,0,0,0,0,0,0,0],"id":18,"left_children":[1,-1,3,5,7,-1,-1,-1,-1],"loss_changes":[3.7209614E1,0E0,7.831548E0,4.7129335E0,7.2287846E-1,0E0,0E0,0E0,0E0],"parents":[2147483647,0,0,2,2,3,3,4,4],"right_children":[2,-1,4,6,8,-1,-1,-1,-1],"split_conditions":[2.0794415E0,7.488771E-2,6.5750756E0,2.625E1,3.816006E-1,-1.59552E-3,5.1999725E-3,8.082955E-3,-1.20688705E-2],"split_indices":[2,0,9,14,20,0,0,0,0],"split_type":[0,0,0,0,0,0,0,0,0],"sum_hessian":[4.35E2,5E0,4.3E2,3.81E2,4.9E1,2.29E2,1.52E2,1E0,4.8E1],"tree_param":{"num_deleted":"0","num_feature":"22","num_nodes":"9","size_leaf_vector":"1"}},{"base_weights":[1.8943083E-2,7.301551E-2,-1.5683139E-2,-7.408686E-2,3.094326E-1,1.9321017E-3,-6.7287637E-3,-7.2080446E-3,1.2841644E-2],"categories":[],"categories_nodes":[],"categories_segments":[],"categories_sizes":[],"default_left":[0,0,0,0,0,0,0,0,0],"id":19,"left_children":[1,-1,3,5,7,-1,-1,-1,-1],"loss_changes":[3.5492676E1,0E0,7.978884E0,7.4199443E0,4.276077E0,0E0,0E0,0E0,0E0],"parents":[2147483647,0,0,2,2,3,3,4,4],"right_children":[2,-1,4,6,8,-1,-1,-1,-1],"split_conditions":[2.0794415E0,7.301551E-2,9.880115E-1,4.5849676E0,2.5122515E1,1.9321017E-3,-6.7287637E-3,-7.2080446E-3,1.2841644E-2],"split_indices":[2,0,19,7,15,0,0,0,0],"split_type":[0,0,0,0,0,0,0,0,0],"sum_hessian":[4.23E2,5E0,4.18E2,3.55E2,6.3E1,1.85E2,1.7E2,1.1E1,5.2E1],"tree_param":{"num_deleted":"0","num_feature":"22","num_nodes":"9","size_leaf_vector":"1"}},{"base_weights":[-3.2570316E-3,8.050904E-1,-7.265238E-2,6.480905E-2,4.375344E-1,-1.3050972E-1,2.4113572E-1,8.731317E-3,3.731149E-2,-1.8227511E-4,-7.5809634E-3,3.5029757E-4,1.5055251E-2],"categories":[],"categories_nodes":[],"categories_segments":[],"categories_sizes":[],"default_left":[0,0,0,0,0,0,0,0,0,0,0,0,0],"id":20,"left_children":[1,3,5,-1,7,9,11,-1,-1,-1,-1,-1,-1],"loss_changes":[2.4123482E1,1.5990746E1,7.220829E0,0E0,2.9447675E0,5.0919576E0,3.7030659E0,0E0,0E0,0E0,0E0,0E0,0E0],"parents":[2147483647,0,0,1,1,2,2,4,4,5,5,6,6],"right_children":[2,4,6,-1,8,10,12,-1,-1,-1,-1,-1,-1],"split_conditions":[3.3010504E0,1.355692E-3,9.880115E-1,6.480905E-2,4.2904596E0,4.624973E0,2.692035E1,8.731317E-3,3.731149E-2,-1.8227511E-4,-7.5809634E-3,3.5029757E-4,1.5055251E-2],"split_indices":[10,19,19,0,8,8,15,0,0,0,0,0,0],"split_type":[0,0,0,0,0,0,0,0,0,0,0,0,0],"sum_hessian":[4.28E2,3.3E1,3.95E2,6E0,2.7E1,3.34E2,6.1E1,2.4E1,3E0,1.66E2,1.68E2,3.3E1,2.8E1],"tree_param":{"num_deleted":"0","num_feature":"22","num_nodes":"13","size_leaf_vector":"1"}},{"base_weights":[3.5023638E-3,2.1768417E0,-3.1968214E-2,1.9446205E-2,6.970739E-2,1.0691912E-1,-1.571941E-1,4.212753E-3,-1.322636E-2,-6.1089233E-3,5.778103E-3],"categories":[],"categories_nodes":[],"categories_segments":[],"categories_sizes":[],"default_left":[0,0,0,0,0,0,0,0,0,0,0],"id":21,"left_children":[1,3,5,-1,-1,7,9,-1,-1,-1,-1],"loss_changes":[3.3603565E1,6.3999176E-2,7.4780984E0,0E0,0E0,3.8062294E0,3.710238E0,0E0,0E0,0E0,0E0],"parents":[2147483647,0,0,1,1,2,2,5,5,6,6],"right_children":[2,4,6,-1,-1,8,10,-1,-1,-1,-1],"split_conditions":[2.0794415E0,9.7094184E-1,4.5108595E0,1.9446205E-2,6.970739E-2,2.9642857E1,9.999409E-1,4.212753E-3,-1.322636E-2,-6.1089233E-3,5.778103E-3],"split_indices":[2,1,7,0,0,12,19,0,0,0,0],"split_type":[0,0,0,0,0,0,0,0,0,0,0],"sum_hessian":[4.34E2,6E0,4.28E2,1E0,5E0,2.03E2,2.25E2,1.92E2,1.1E1,1.99E2,2.6E1],"tree_param":{"num_deleted":"0","num_feature":"22","num_nodes":"11","size_leaf_vector":"1"}},{"base_weights":[1.46054225E-2,2.1465728E0,-1.6179217E-2,1.9154511E-2,6.961482E-2,8.474071E-2,-1.3666682E-1,4.7258134E-3,-2.742861E-3,-1.7276129E-2,-2.7891188E-3],"categories":[],"categories_nodes":[],"categories_segments":[],"categories_sizes":[],"default_left":[0,0,0,0,0,0,0,0,0,0,0],"id":22,"left_children":[1,3,5,-1,-1,7,9,-1,-1,-1,-1],"loss_changes":[2.7665737E1,9.2134476E-2,5.069975E0,0E0,0E0,2.9251637E0,3.5928557E0,0E0,0E0,0E0,0E0],"parents":[2147483647,0,0,1,1,2,2,5,5,6,6],"right_children":[2,4,6,-1,-1,8,10,-1,-1,-1,-1],"split_conditions":[2.0794415E0,-2.3931566E-1,4.65396E0,1.9154511E-2,6.961482E-2,7.1056366E1,5.239227E-1,4.7258134E-3,-2.742861E-3,-1.7276129E-2,-2.7891188E-3],"split_indices":[2,0,8,0,0,18,20,0,0,0,0],"split_type":[0,0,0,0,0,0,0,0,0,0,0],"sum_hessian":[4.2E2,5E0,4.15E2,1E0,4E0,2.26E2,1.89E2,1.6E2,6.6E1,1.6E1,1.73E2],"tree_param":{"num_deleted":"0","num_feature":"22","num_nodes":"11","size_leaf_vector":"1"}},{"base_weights":[2.443946E-3,5.7531003E-2,-2.4101045E-2,-6.272669E-2,3.5696408E-1,8.744075E-3,-3.1071655E-3,-7.2548212E-3,1.6158229E-2],"categories":[],"categories_nodes":[],"categories_segments":[],"categories_sizes":[],"default_left":[0,0,0,0,0,0,0,0,0],"id":23,"left_children":[1,-1,3,5,7,-1,-1,-1,-1],"loss_changes":[2.231434E1,0E0,6.395669E0,5.730306E0,4.480915E0,0E0,0E0,0E0,0E0],"parents":[2147483647,0,0,2,2,3,3,4,4],"right_children":[2,-1,4,6,8,-1,-1,-1,-1],"split_conditions":[2.0794415E0,5.7531003E-2,9.7094184E-1,3.4011974E0,3.8066626E0,8.744075E-3,-3.1071655E-3,-7.2548212E-3,1.6158229E-2],"split_indices":[2,0,1,8,8,0,0,0,0],"split_type":[0,0,0,0,0,0,0,0,0],"sum_hessian":[4.37E2,5E0,4.32E2,3.93E2,3.9E1,4E1,3.53E2,9E0,3E1],"tree_param":{"num_deleted":"0","num_feature":"22","num_nodes":"9","size_leaf_vector":"1"}},{"base_weights":[-4.4757035E-3,6.656332E-2,-3.0138034E-2,9.742139E-2,-1.806221E-1,-4.4081183E-3,4.8279073E-3,-2.4710594E-2,-4.2671817E-3],"categories":[],"categories_nodes":[],"categories_segments":[],"categories_sizes":[],"default_left":[0,0,0,0,0,0,0,0,0],"id":24,"left_children":[1,-1,3,5,7,-1,-1,-1,-1],"loss_changes":[2.4999405E1,0E0,8.329318E0,3.670597E0,4.7946672E0,0E0,0E0,0E0,0E0],"parents":[2147483647,0,0,2,2,3,3,4,4],"right_children":[2,-1,4,6,8,-1,-1,-1,-1],"split_conditions":[2.0794415E0,6.656332E-2,4.65396E0,5.2670456E1,4.727388E0,-4.4081183E-3,4.8279073E-3,-2.4710594E-2,-4.2671817E-3],"split_indices":[2,0,9,16,9,0,0,0,0],"split_type":[0,0,0,0,0,0,0,0,0],"sum_hessian":[4.36E2,4E0,4.32E2,2.34E2,1.98E2,4.8E1,1.86E2,1E1,1.88E2],"tree_param":{"num_deleted":"0","num_feature":"22","num_nodes":"9","size_leaf_vector":"1"}},{"base_weights":[3.8822526E-3,5.4428644E-2,-2.127126E-2,8.620664E-2,-1.4637665E-1,1.9616124E-3,2.24712E-2,-2.5669565E-2,-3.2542632E-3],"categories":[],"categories_nodes":[],"categories_segments":[],"categories_sizes":[],"default_left":[0,0,0,0,0,0,0,0,0],"id":25,"left_children":[1,-1,3,5,7,-1,-1,-1,-1],"loss_changes":[1.9938728E1,0E0,5.821319E0,3.1663995E0,5.283664E0,0E0,0E0,0E0,0E0],"parents":[2147483647,0,0,2,2,3,3,4,4],"right_children":[2,-1,4,6,8,-1,-1,-1,-1],"split_conditions":[2.0794415E0,5.4428644E-2,4.6634393E0,3.0333334E1,4.727388E0,1.9616124E-3,2.24712E-2,-2.5669565E-2,-3.2542632E-3],"split_indices":[2,0,8,14,8,0,0,0,0],"split_type":[0,0,0,0,0,0,0,0,0],"sum_hessian":[4.36E2,5E0,4.31E2,2.32E2,1.99E2,2.26E2,6E0,9E0,1.9E2],"tree_param":{"num_deleted":"0","num_feature":"22","num_nodes":"9","size_leaf_vector":"1"}},{"base_weights":[1.2956736E-2,1.9187917E0,-1.9298822E-2,1.6189346E-2,6.176126E-2,-3.1875783E-1,3.535837E-2,-3.8406648E-2,-8.012824E-3,6.0323474E-4,2.3458237E-2],"categories":[],"categories_nodes":[],"categories_segments":[],"categories_sizes":[],"default_left":[0,0,0,0,0,0,0,0,0,0,0],"id":26,"left_children":[1,3,5,-1,-1,7,9,-1,-1,-1,-1],"loss_changes":[2.5856012E1,2.3979187E-1,6.787452E0,0E0,0E0,2.8371181E0,3.9806914E0,0E0,0E0,0E0,0E0],"parents":[2147483647,0,0,1,1,2,2,5,5,6,6],"right_children":[2,4,6,-1,-1,8,10,-1,-1,-1,-1],"split_conditions":[2.0794415E0,-2.3931566E-1,1.355692E-3,1.6189346E-2,6.176126E-2,4.4308167E0,1E0,-3.8406648E-2,-8.012824E-3,6.0323474E-4,2.3458237E-2],"split_indices":[2,0,19,0,0,5,1,0,0,0,0],"split_type":[0,0,0,0,0,0,0,0,0,0,0],"sum_hessian":[4.19E2,6E0,4.13E2,1E0,5E0,6.3E1,3.5E2,2E0,6.1E1,3.44E2,6E0],"tree_param":{"num_deleted":"0","num_feature":"22","num_nodes":"11","size_leaf_vector":"1"}},{"base_weights":[8.522055E-3,1.1323535E0,-2.5474066E-2,4.2334667E-1,1.8889705E0,-3.4264803E-1,1.24882115E-2,2.1283224E-2,-1.2032313E-3,1.5946506E-2,6.162433E-2,-3.36874E-2,-7.24803E-3,-5.6033065E-3,2.2708066E-3],"categories":[],"categories_nodes":[],"categories_segments":[],"categories_sizes":[],"default_left":[0,0,0,0,0,0,0,0,0,0,0,0,0,0,0],"id":27,"left_children":[1,3,5,7,9,11,13,-1,-1,-1,-1,-1,-1,-1,-1],"loss_changes":[1.6915857E1,6.174116E0,5.181757E0,1.0891868E0,2.5338364E-1,3.355503E0,4.863066E0,0E0,0E0,0E0,0E0,0E0,0E0,0E0,0E0],"parents":[2147483647,0,0,1,1,2,2,3,3,4,4,5,5,6,6],"right_children":[2,4,6,8,10,12,14,-1,-1,-1,-1,-1,-1,-1,-1],"split_conditions":[2.7080503E0,3.4011974E0,3.38879E-5,3.218876E0,9.7094184E-1,4.624973E0,5.3944443E1,2.1283224E-2,-1.2032313E-3,1.5946506E-2,6.162433E-2,-3.36874E-2,-7.24803E-3,-5.6033065E-3,2.2708066E-3],"split_indices":[3,6,19,6,1,3,16,0,0,0,0,0,0,0,0],"split_type":[0,0,0,0,0,0,0,0,0,0,0,0,0,0,0],"sum_hessian":[4.41E2,1.2E1,4.29E2,7E0,5E0,4.5E1,3.84E2,4E0,3E0,1E0,4E0,4E0,4.1E1,9.2E1,2.92E2],"tree_param":{"num_deleted":"0","num_feature":"22","num_nodes":"15","size_leaf_vector":"1"}},{"base_weights":[2.0399716E-2,1.8345473E0,-1.0547809E-2,1.5707308E-2,5.8973383E-2,-4.8987776E-2,3.5736644E-1,1.0012104E-2,-2.4666754E-3,6.511651E-3,2.9033462E-2],"categories":[],"categories_nodes":[],"categories_segments":[],"categories_sizes":[],"default_left":[0,0,0,0,0,0,0,0,0,0,0],"id":28,"left_children":[1,3,5,-1,-1,7,9,-1,-1,-1,-1],"loss_changes":[2.3431139E1,1.7505455E-1,5.83012E0,0E0,0E0,4.771908E0,3.13022E0,0E0,0E0,0E0,0E0],"parents":[2147483647,0,0,1,1,2,2,5,5,6,6],"right_children":[2,4,6,-1,-1,8,10,-1,-1,-1,-1],"split_conditions":[2.0794415E0,-2.3931566E-1,9.7094184E-1,1.5707308E-2,5.8973383E-2,3.3322046E0,4.4886365E0,1.0012104E-2,-2.4666754E-3,6.511651E-3,2.9033462E-2],"split_indices":[2,0,1,0,0,8,5,0,0,0,0],"split_type":[0,0,0,0,0,0,0,0,0,0,0],"sum_hessian":[4.16E2,6E0,4.1E2,1E0,5E0,3.72E2,3.8E1,2.9E1,3.43E2,3.2E1,6E0],"tree_param":{"num_deleted":"0","num_feature":"22","num_nodes":"11","size_leaf_vector":"1"}},{"base_weights":[-6.859399E-3,1.7901796E0,-3.644155E-2,1.54717E-2,5.749905E-2,4.214587E-3,-3.3466917E-1,-5.340785E-3,1.9483968E-3,-1.3457116E-2,-2.4143981E-3],"categories":[],"categories_nodes":[],"categories_segments":[],"categories_sizes":[],"default_left":[0,0,0,0,0,0,0,0,0,0,0],"id":29,"left_children":[1,3,5,-1,-1,7,9,-1,-1,-1,-1],"loss_changes":[2.2977316E1,1.3967896E-1,5.1544437E0,0E0,0E0,4.1620026E0,1.4404764E0,0E0,0E0,0E0,0E0],"parents":[2147483647,0,0,1,1,2,2,5,5,6,6],"right_children":[2,4,6,-1,-1,8,10,-1,-1,-1,-1],"split_conditions":[2.0794415E0,-2.3931566E-1,6.6567264E0,1.54717E-2,5.749905E-2,5.3523746E1,7.4324837E0,-5.340785E-3,1.9483968E-3,-1.3457116E-2,-2.4143981E-3],"split_indices":[2,0,8,0,0,17,6,0,0,0,0],"split_type":[0,0,0,0,0,0,0,0,0,0,0],"sum_hessian":[4.3E2,6E0,4.24E2,1E0,5E0,3.74E2,5E1,9.3E1,2.81E2,3.4E1,1.6E1],"tree_param":{"num_deleted":"0","num_feature":"22","num_nodes":"11","size_leaf_vector":"1"}},{"base_weights":[1.1023352E-2,1.7468985E0,-1.7392885E-2,1.5239624E-2,5.6061573E-2,3.5186523E-1,-5.7422467E-2,4.2926194E-3,2.781694E-2,-4.10088E-2,-1.4120738E-3],"categories":[],"categories_nodes":[],"categories_segments":[],"categories_sizes":[],"default_left":[0,0,0,0,0,0,0,0,0,0,0],"id":30,"left_children":[1,3,5,-1,-1,7,9,-1,-1,-1,-1],"loss_changes":[2.143832E1,1.0718727E-1,6.346579E0,0E0,0E0,4.9125214E0,5.1826377E0,0E0,0E0,0E0,0E0],"parents":[2147483647,0,0,1,1,2,2,5,5,6,6],"right_children":[2,4,6,-1,-1,8,10,-1,-1,-1,-1],"split_conditions":[2.0794415E0,9.7094184E-1,3.462449E0,1.5239624E-2,5.6061573E-2,7.485108E-1,3.5467823E0,4.2926194E-3,2.781694E-2,-4.10088E-2,-1.4120738E-3],"split_indices":[2,1,10,0,0,1,10,0,0,0,0],"split_type":[0,0,0,0,0,0,0,0,0,0,0],"sum_hessian":[4.33E2,6E0,4.27E2,1E0,5E0,4.1E1,3.86E2,3.1E1,1E1,2E0,3.84E2],"tree_param":{"num_deleted":"0","num_feature":"22","num_nodes":"11","size_leaf_vector":"1"}},{"base_weights":[1.5518926E-2,1.6236526E0,-1.4435931E-2,2.0572139E-2,5.4660037E-2,-5.762297E-2,2.0849203E-1,1.4126111E-3,-5.345853E-3,8.122203E-3,-1.9646421E-2],"categories":[],"categories_nodes":[],"categories_segments":[],"categories_sizes":[],"default_left":[0,0,0,0,0,0,0,0,0,0,0],"id":31,"left_children":[1,3,5,-1,-1,7,9,-1,-1,-1,-1],"loss_changes":[2.1074348E1,2.3885727E-1,4.1518817E0,0E0,0E0,4.5660553E0,3.9393318E0,0E0,0E0,0E0,0E0],"parents":[2147483647,0,0,1,1,2,2,5,5,6,6],"right_children":[2,4,6,-1,-1,8,10,-1,-1,-1,-1],"split_conditions":[2.3978953E0,-2.3931566E-1,9.880115E-1,2.0572139E-2,5.4660037E-2,4.5849676E0,7.996397E1,1.4126111E-3,-5.345853E-3,8.122203E-3,-1.9646421E-2],"split_indices":[2,0,19,0,0,7,17,0,0,0,0],"split_type":[0,0,0,0,0,0,0,0,0,0,0],"sum_hessian":[4.36E2,7E0,4.29E2,2E0,5E0,3.6E2,6.9E1,1.93E2,1.67E2,6.5E1,4E0],"tree_param":{"num_deleted":"0","num_feature":"22","num_nodes":"11","size_leaf_vector":"1"}},{"base_weights":[3.6521277E-3,1.682602E0,-2.0171398E-2,1.4702446E-2,5.4692693E-2,2.8444934E-1,-5.4498225E-2,2.6539105E-3,2.7670668E-2,-3.2536797E-2,-1.1374837E-3],"categories":[],"categories_nodes":[],"categories_segments":[],"categories_sizes":[],"default_left":[0,0,0,0,0,0,0,0,0,0,0],"id":32,"left_children":[1,3,5,-1,-1,7,9,-1,-1,-1,-1],"loss_changes":[1.7153301E1,1.11745834E-1,4.4386706E0,0E0,0E0,5.294286E0,6.4665794E0,0E0,0E0,0E0,0E0],"parents":[2147483647,0,0,1,1,2,2,5,5,6,6],"right_children":[2,4,6,-1,-1,8,10,-1,-1,-1,-1],"split_conditions":[2.0794415E0,-2.3931566E-1,3.462449E0,1.4702446E-2,5.4692693E-2,6.6312265E-1,3.6150138E0,2.6539105E-3,2.7670668E-2,-3.2536797E-2,-1.1374837E-3],"split_indices":[2,0,10,0,0,1,10,0,0,0,0],"split_type":[0,0,0,0,0,0,0,0,0,0,0],"sum_hessian":[4.27E2,5E0,4.22E2,1E0,4E0,4.2E1,3.8E2,3.3E1,9E0,5E0,3.75E2],"tree_param":{"num_deleted":"0","num_feature":"22","num_nodes":"11","size_leaf_vector":"1"}},{"base_weights":[-7.3054396E-3,-5.1070787E-2,6.2911606E-1,2.840746E-1,-8.736085E-2,3.906842E-2,3.8633114E-1,1.1961117E-5,1.3104234E-2,-9.9789305E-3,-1.4325106E-3,1.1204404E-3,2.1957569E-2],"categories":[],"categories_nodes":[],"categories_segments":[],"categories_sizes":[],"default_left":[0,0,0,0,0,0,0,0,0,0,0,0,0],"id":33,"left_children":[1,3,5,7,9,-1,11,-1,-1,-1,-1,-1,-1],"loss_changes":[1.2120423E1,4.9749336E0,4.0730467E0,1.7328951E0,3.5593374E0,0E0,2.6259596E0,0E0,0E0,0E0,0E0,0E0,0E0],"parents":[2147483647,0,0,1,1,2,2,3,3,4,4,6,6],"right_children":[2,4,6,8,10,-1,12,-1,-1,-1,-1,-1,-1],"split_conditions":[9.9270886E-1,3.4011974E0,3.4011974E0,5.889379E1,3.38879E-5,3.906842E-2,4.454347E0,1.1961117E-5,1.3104234E-2,-9.9789305E-3,-1.4325106E-3,1.1204404E-3,2.1957569E-2],"split_indices":[1,8,3,17,19,0,4,0,0,0,0,0,0],"split_type":[0,0,0,0,0,0,0,0,0,0,0,0,0],"sum_hessian":[4.33E2,4.06E2,2.7E1,3.9E1,3.67E2,6E0,2.1E1,1.4E1,2.5E1,5E1,3.17E2,1.1E1,1E1],"tree_param":{"num_deleted":"0","num_feature":"22","num_nodes":"13","size_leaf_vector":"1"}},{"base_weights":[3.640172E-2,1.6274818E0,1.2856551E-2,1.4631593E-2,5.273671E-2,-1.724687E-1,8.293618E-2,7.2651887E-3,-6.464822E-3,1.22545445E-2,8.69735E-4],"categories":[],"categories_nodes":[],"categories_segments":[],"categories_sizes":[],"default_left":[0,0,0,0,0,0,0,0,0,0,0],"id":34,"left_children":[1,3,5,-1,-1,7,9,-1,-1,-1,-1],"loss_changes":[1.5413521E1,3.4451485E-2,5.3002267E0,0E0,0E0,2.0502803E0,5.1864285E0,0E0,0E0,0E0,0E0],"parents":[2147483647,0,0,1,1,2,2,5,5,6,6],"right_children":[2,4,6,-1,-1,8,10,-1,-1,-1,-1],"split_conditions":[2.0794415E0,-2.3931566E-1,-5.6806475E-1,1.4631593E-2,5.273671E-2,1.7E1,3.871201E0,7.2651887E-3,-6.464822E-3,1.22545445E-2,8.69735E-4],"split_indices":[2,0,1,0,0,12,2,0,0,0,0],"split_type":[0,0,0,0,0,0,0,0,0,0,0],"sum_hessian":[4.11E2,5E0,4.06E2,1E0,4E0,1.11E2,2.95E2,1E1,1.01E2,4.1E1,2.54E2],"tree_param":{"num_deleted":"0","num_feature":"22","num_nodes":"11","size_leaf_vector":"1"}},{"base_weights":[9.204187E-3,1.2345426E0,-2.2017866E-2,5.632614E-1,5.1002003E-2,-6.3954785E-2,2.4950564E-1,5.4667876E-3,2.1246672E-2,-2.2515152E-3,1.5902536E-2,-3.1737328E-2,8.730079E-3],"categories":[],"categories_nodes":[],"categories_segments":[],"categories_sizes":[],"default_left":[0,0,0,0,0,0,0,0,0,0,0,0,0],"id":35,"left_children":[1,3,5,7,-1,9,11,-1,-1,-1,-1,-1,-1],"loss_changes":[1.6937033E1,2.4798908E0,4.9350805E0,2.0235455E-1,0E0,2.5115185E0,3.4545774E0,0E0,0E0,0E0,0E0,0E0,0E0],"parents":[2147483647,0,0,1,1,2,2,3,3,5,5,6,6],"right_children":[2,4,6,8,-1,10,12,-1,-1,-1,-1,-1,-1],"split_conditions":[2.7080503E0,9.7094184E-1,9.350162E-1,2.8903718E0,5.1002003E-2,3.0744047E1,2.4707468E1,5.4667876E-3,2.1246672E-2,-2.2515152E-3,1.5902536E-2,-3.1737328E-2,8.730079E-3],"split_indices":[2,1,1,4,0,14,15,0,0,0,0,0,0],"split_type":[0,0,0,0,0,0,0,0,0,0,0,0,0],"sum_hessian":[4.41E2,1E1,4.31E2,5E0,5E0,3.74E2,5.7E1,2E0,3E0,3.68E2,6E0,1E0,5.6E1],"tree_param":{"num_deleted":"0","num_feature":"22","num_nodes":"13","size_leaf_vector":"1"}},{"base_weights":[-1.2008449E-2,7.784027E-1,-3.0799171E-2,2.1750213E-1,3.8874082E-2,-7.512189E-2,1.9974078E-1,1.2288314E-2,-1.1145594E-2,5.0556066E-4,-5.741293E-3,-8.128166E-3,8.283947E-3],"categories":[],"categories_nodes":[],"categories_segments":[],"categories_sizes":[],"default_left":[0,0,0,0,0,0,0,0,0,0,0,0,0],"id":36,"left_children":[1,3,5,7,-1,9,11,-1,-1,-1,-1,-1,-1],"loss_changes":[6.3956523E0,2.6202602E0,4.30663E0,8.3111465E-1,0E0,3.777637E0,2.5197947E0,0E0,0E0,0E0,0E0,0E0,0E0],"parents":[2147483647,0,0,1,1,2,2,3,3,5,5,6,6],"right_children":[2,4,6,8,-1,10,12,-1,-1,-1,-1,-1,-1],"split_conditions":[2.7725887E0,9.350162E-1,9.880115E-1,-1.8369701E-16,3.8874082E-2,4.691348E0,2.4707468E1,1.2288314E-2,-1.1145594E-2,5.0556066E-4,-5.741293E-3,-8.128166E-3,8.283947E-3],"split_indices":[2,1,19,1,0,7,15,0,0,0,0,0,0],"split_type":[0,0,0,0,0,0,0,0,0,0,0,0,0],"sum_hessian":[4.28E2,9E0,4.19E2,5E0,4E0,3.52E2,6.7E1,4E0,1E0,1.97E2,1.55E2,9E0,5.8E1],"tree_param":{"num_deleted":"0","num_feature":"22","num_nodes":"13","size_leaf_vector":"1"}},{"base_weights":[9.811775E-3,4.46853E-2,-1.4640348E-2,-3.066292E-1,2.9712E-2,-7.4306875E-3,-5.322462E-2,2.5577433E-3,-3.3227631E-3],"categories":[],"categories_nodes":[],"categories_segments":[],"categories_sizes":[],"default_left":[0,0,0,0,0,0,0,0,0],"id":37,"left_children":[1,-1,3,5,7,-1,-1,-1,-1],"loss_changes":[1.5579967E1,0E0,5.500077E0,4.4042997E0,2.8886046E0,0E0,0E0,0E0,0E0],"parents":[2147483647,0,0,2,2,3,3,4,4],"right_children":[2,-1,4,6,8,-1,-1,-1,-1],"split_conditions":[2.0794415E0,4.46853E-2,3.38879E-5,2.84507E-5,7.1056366E1,-7.4306875E-3,-5.322462E-2,2.5577433E-3,-3.3227631E-3],"split_indices":[2,0,19,19,18,0,0,0,0],"split_type":[0,0,0,0,0,0,0,0,0],"sum_hessian":[4.29E2,6E0,4.23E2,5.5E1,3.68E2,5.4E1,1E0,2.64E2,1.04E2],"tree_param":{"num_deleted":"0","num_feature":"22","num_nodes":"9","size_leaf_vector":"1"}},{"base_weights":[8.440789E-3,1.007088E0,-1.7859593E-2,3.7413442E-1,5.0754156E-2,-2.0935093E-1,3.532203E-2,1.671702E-2,-1.086695E-2,-4.8933364E-3,-4.5340348E-2,4.817021E-3,-1.8347594E-3],"categories":[],"categories_nodes":[],"categories_segments":[],"categories_sizes":[],"default_left":[0,0,0,0,0,0,0,0,0,0,0,0,0],"id":38,"left_children":[1,3,5,7,-1,9,11,-1,-1,-1,-1,-1,-1],"loss_changes":[1.1259321E1,4.1343737E0,4.264231E0,1.1456463E0,0E0,5.232031E0,3.9732914E0,0E0,0E0,0E0,0E0,0E0,0E0],"parents":[2147483647,0,0,1,1,2,2,3,3,5,5,6,6],"right_children":[2,4,6,8,-1,10,12,-1,-1,-1,-1,-1,-1],"split_conditions":[2.7725887E0,2.8242857E1,5.3523746E1,3.3672957E0,5.0754156E-2,5.3441704E1,4.4308167E0,1.671702E-2,-1.086695E-2,-4.8933364E-3,-4.5340348E-2,4.817021E-3,-1.8347594E-3],"split_indices":[2,13,17,3,0,17,7,0,0,0,0,0,0],"split_type":[0,0,0,0,0,0,0,0,0,0,0,0,0],"sum_hessian":[4.27E2,1E1,4.17E2,6E0,4E0,9E1,3.27E2,5E0,1E0,8.8E1,2E0,1.42E2,1.85E2],"tree_param":{"num_deleted":"0","num_feature":"22","num_nodes":"13","size_leaf_vector":"1"}},{"base_weights":[-1.0484304E-2,4.4905905E-2,-2.9253019E-2,-7.0942946E-2,3.194897E-1,6.4898524E-3,-3.352695E-3,-5.8126715E-3,1.505918E-2],"categories":[],"categories_nodes":[],"categories_segments":[],"categories_sizes":[],"default_left":[0,0,0,0,0,0,0,0,0],"id":39,"left_children":[1,-1,3,5,7,-1,-1,-1,-1],"loss_changes":[1.1501635E1,0E0,5.852827E0,4.2332954E0,4.124578E0,0E0,0E0,0E0,0E0],"parents":[2147483647,0,0,2,2,3,3,4,4],"right_children":[2,-1,4,6,8,-1,-1,-1,-1],"split_conditions":[3.1746143E-1,4.4905905E-2,9.7094184E-1,3.583519E0,2.614124E1,6.4898524E-3,-3.352695E-3,-5.8126715E-3,1.505918E-2],"split_indices":[20,0,1,9,15,0,0,0,0],"split_type":[0,0,0,0,0,0,0,0,0],"sum_hessian":[4.04E2,4E0,4E2,3.58E2,4.2E1,4.4E1,3.14E2,1.1E1,3.1E1],"tree_param":{"num_deleted":"0","num_feature":"22","num_nodes":"9","size_leaf_vector":"1"}},{"base_weights":[1.7505564E-2,4.44402E-2,-3.3982678E-3,-2.2040492E-1,3.8296226E-2,-2.0487225E-2,-4.4206837E-3,2.494426E-2,8.056703E-4],"categories":[],"categories_nodes":[],"categories_segments":[],"categories_sizes":[],"default_left":[0,0,0,0,0,0,0,0,0],"id":40,"left_children":[1,-1,3,5,7,-1,-1,-1,-1],"loss_changes":[1.3040526E1,0E0,3.8176413E0,2.196767E0,3.1900094E0,0E0,0E0,0E0,0E0],"parents":[2147483647,0,0,2,2,3,3,4,4],"right_children":[2,-1,4,6,8,-1,-1,-1,-1],"split_conditions":[2.0794415E0,4.44402E-2,5.331549E-4,4.727388E0,4.510528E-1,-2.0487225E-2,-4.4206837E-3,2.494426E-2,8.056703E-4],"split_indices":[2,0,19,9,20,0,0,0,0],"split_type":[0,0,0,0,0,0,0,0,0],"sum_hessian":[4.25E2,5E0,4.2E2,6.7E1,3.53E2,8E0,5.9E1,4E0,3.49E2],"tree_param":{"num_deleted":"0","num_feature":"22","num_nodes":"9","size_leaf_vector":"1"}},{"base_weights":[-8.699612E-4,1.3451111E0,-2.3037015E-2,4.9298603E-2,2.1319728E-2,-5.6452293E-2,2.1773899E-1,-2.0711059E-3,1.5837641E-2,2.6684366E-2,3.323527E-3],"categories":[],"categories_nodes":[],"categories_segments":[],"categories_sizes":[],"default_left":[0,0,0,0,0,0,0,0,0,0,0],"id":41,"left_children":[1,3,5,-1,-1,7,9,-1,-1,-1,-1],"loss_changes":[1.28904915E1,1.5643501E-1,3.4316707E0,0E0,0E0,2.786876E0,3.6374395E0,0E0,0E0,0E0,0E0],"parents":[2147483647,0,0,1,1,2,2,5,5,6,6],"right_children":[2,4,6,-1,-1,8,10,-1,-1,-1,-1],"split_conditions":[2.0794415E0,1.609438E0,9.350162E-1,4.9298603E-2,2.1319728E-2,3.0744047E1,3.6109178E0,-2.0711059E-3,1.5837641E-2,2.6684366E-2,3.323527E-3],"split_indices":[2,3,1,0,0,14,3,0,0,0,0],"split_type":[0,0,0,0,0,0,0,0,0,0,0],"sum_hessian":[4.3E2,6E0,4.24E2,3E0,3E0,3.73E2,5.1E1,3.66E2,7E0,6E0,4.5E1],"tree_param":{"num_deleted":"0","num_feature":"22","num_nodes":"11","size_leaf_vector":"1"}},{"base_weights":[9.866733E-3,1.3148462E0,-1.1751997E-2,4.5156177E-2,1.6778933E-2,8.251429E-2,-1.18275434E-1,4.8338417E-3,-3.532983E-3,-2.6716106E-2,-2.6895935E-3],"categories":[],"categories_nodes":[],"categories_segments":[],"categories_sizes":[],"default_left":[0,0,0,0,0,0,0,0,0,0,0],"id":42,"left_children":[1,3,5,-1,-1,7,9,-1,-1,-1,-1],"loss_changes":[1.21184E1,1.6492462E-1,4.2573433E0,0E0,0E0,3.5615547E0,4.318838E0,0E0,0E0,0E0,0E0],"parents":[2147483647,0,0,1,1,2,2,5,5,6,6],"right_children":[2,4,6,-1,-1,8,10,-1,-1,-1,-1],"split_conditions":[2.0794415E0,3.2580965E0,4.65396E0,4.5156177E-2,1.6778933E-2,7.1056366E1,3.912023E0,4.8338417E-3,-3.532983E-3,-2.6716106E-2,-2.6895935E-3],"split_indices":[2,4,7,0,0,18,2,0,0,0,0],"split_type":[0,0,0,0,0,0,0,0,0,0,0],"sum_hessian":[4.28E2,6E0,4.22E2,4E0,2E0,2.24E2,1.98E2,1.61E2,6.3E1,6E0,1.92E2],"tree_param":{"num_deleted":"0","num_feature":"22","num_nodes":"11","size_leaf_vector":"1"}},{"base_weights":[1.7854976E-2,1.2842487E0,-3.3445738E-3,4.717337E-2,2.0249682E-2,-1.6303866E-1,4.3982517E-2,-1.9593986E-3,-1.5933882E-2,-2.8314665E-3,4.3373457E-3],"categories":[],"categories_nodes":[],"categories_segments":[],"categories_sizes":[],"default_left":[0,0,0,0,0,0,0,0,0,0,0],"id":43,"left_children":[1,3,5,-1,-1,7,9,-1,-1,-1,-1],"loss_changes":[1.1414259E1,1.6772366E-1,3.1739128E0,0E0,0E0,3.418603E0,4.523367E0,0E0,0E0,0E0,0E0],"parents":[2147483647,0,0,1,1,2,2,5,5,6,6],"right_children":[2,4,6,-1,-1,8,10,-1,-1,-1,-1],"split_conditions":[2.0794415E0,1.609438E0,5.4304222E1,4.717337E-2,2.0249682E-2,6.6312265E-1,-1.8369701E-16,-1.9593986E-3,-1.5933882E-2,-2.8314665E-3,4.3373457E-3],"split_indices":[2,3,16,0,0,1,1,0,0,0,0],"split_type":[0,0,0,0,0,0,0,0,0,0,0],"sum_hessian":[4.24E2,6E0,4.18E2,3E0,3E0,9.5E1,3.23E2,7.6E1,1.9E1,1.36E2,1.87E2],"tree_param":{"num_deleted":"0","num_feature":"22","num_nodes":"11","size_leaf_vector":"1"}},{"base_weights":[1.2455216E-2,1.2553531E0,-9.546654E-3,4.611197E-2,1.9794066E-2,2.919759E-2,-2.2280107E-1,-4.2703324E-3,2.5008149E-3,-7.6600346E-3,5.7792026E-3],"categories":[],"categories_nodes":[],"categories_segments":[],"categories_sizes":[],"default_left":[0,0,0,0,0,0,0,0,0,0,0],"id":44,"left_children":[1,3,5,-1,-1,7,9,-1,-1,-1,-1],"loss_changes":[1.1005108E1,1.602602E-1,3.2784083E0,0E0,0E0,3.133714E0,8.7364674E-1,0E0,0E0,0E0,0E0],"parents":[2147483647,0,0,1,1,2,2,5,5,6,6],"right_children":[2,4,6,-1,-1,8,10,-1,-1,-1,-1],"split_conditions":[2.0794415E0,2.7080503E0,6.381816E0,4.611197E-2,1.9794066E-2,5.3944443E1,7.842279E0,-4.2703324E-3,2.5008149E-3,-7.6600346E-3,5.7792026E-3],"split_indices":[2,4,9,0,0,16,5,0,0,0,0],"split_type":[0,0,0,0,0,0,0,0,0,0,0],"sum_hessian":[4.01E2,6E0,3.95E2,3E0,3E0,3.35E2,6E1,8E1,2.55E2,5.6E1,4E0],"tree_param":{"num_deleted":"0","num_feature":"22","num_nodes":"11","size_leaf_vector":"1"}},{"base_weights":[-8.330192E-3,4.215303E-2,-2.5097001E-2,1.11804735E-2,-3.0073783E-1,-5.5156226E-5,2.0764548E-2,-1.0376764E-2,4.97396E-3],"categories":[],"categories_nodes":[],"categories_segments":[],"categories_sizes":[],"default_left":[0,0,0,0,0,0,0,0,0],"id":45,"left_children":[1,-1,3,5,7,-1,-1,-1,-1],"loss_changes":[1.0107225E1,0E0,4.213175E0,3.3081312E0,1.0895891E0,0E0,0E0,0E0,0E0],"parents":[2147483647,0,0,2,2,3,3,4,4],"right_children":[2,-1,4,6,8,-1,-1,-1,-1],"split_conditions":[2.0794415E0,4.215303E-2,6.658011E0,3.0144842E1,7.9676266E0,-5.5156226E-5,2.0764548E-2,-1.0376764E-2,4.97396E-3],"split_indices":[2,0,9,14,4,0,0,0,0],"split_type":[0,0,0,0,0,0,0,0,0],"sum_hessian":[4.24E2,4E0,4.2E2,3.72E2,4.8E1,3.66E2,6E0,4.4E1,4E0],"tree_param":{"num_deleted":"0","num_feature":"22","num_nodes":"9","size_leaf_vector":"1"}},{"base_weights":[-7.187538E-3,1.2108793E0,-2.113971E-2,4.5744542E-2,1.4799421E-2,-1.03189945E-1,7.892728E-2,-2.6630096E-3,-3.6390442E-2,-4.2444523E-3,4.526432E-3],"categories":[],"categories_nodes":[],"categories_segments":[],"categories_sizes":[],"default_left":[0,0,0,0,0,0,0,0,0,0,0],"id":46,"left_children":[1,3,5,-1,-1,7,9,-1,-1,-1,-1],"loss_changes":[7.5032554E0,3.741436E-1,3.5879314E0,0E0,0E0,3.7339945E0,3.145622E0,0E0,0E0,0E0,0E0],"parents":[2147483647,0,0,1,1,2,2,5,5,6,6],"right_children":[2,4,6,-1,-1,8,10,-1,-1,-1,-1],"split_conditions":[1.1036309E-1,1.609438E0,2.574375E1,4.5744542E-2,1.4799421E-2,2.855974E1,5.472259E1,-2.6630096E-3,-3.6390442E-2,-4.2444523E-3,4.526432E-3],"split_indices":[20,3,15,0,0,14,16,0,0,0,0],"split_type":[0,0,0,0,0,0,0,0,0,0,0],"sum_hessian":[4.39E2,4E0,4.35E2,2E0,2E0,2.39E2,1.96E2,2.37E2,2E0,4.8E1,1.48E2],"tree_param":{"num_deleted":"0","num_feature":"22","num_nodes":"11","size_leaf_vector":"1"}},{"base_weights":[-4.108467E-3,1.2285326E0,-2.1061994E-2,9.222661E-3,4.0538106E-2,-1.7281887E-1,2.4618087E-2,-1.6893375E-3,-2.0180326E-2,-7.529619E-4,7.3421746E-3],"categories":[],"categories_nodes":[],"categories_segments":[],"categories_sizes":[],"default_left":[0,0,0,0,0,0,0,0,0,0,0],"id":47,"left_children":[1,3,5,-1,-1,7,9,-1,-1,-1,-1],"loss_changes":[9.241722E0,2.6291943E-1,3.026723E0,0E0,0E0,5.844092E0,3.6832323E0,0E0,0E0,0E0,0E0],"parents":[2147483647,0,0,1,1,2,2,5,5,6,6],"right_children":[2,4,6,-1,-1,8,10,-1,-1,-1,-1],"split_conditions":[2.0794415E0,-2.3931566E-1,5.4304222E1,9.222661E-3,4.0538106E-2,6.6312265E-1,8.85456E-1,-1.6893375E-3,-2.0180326E-2,-7.529619E-4,7.3421746E-3],"split_indices":[2,0,16,0,0,1,1,0,0,0,0],"split_type":[0,0,0,0,0,0,0,0,0,0,0],"sum_hessian":[4.4E2,5E0,4.35E2,1E0,4E0,1E2,3.35E2,8.2E1,1.8E1,2.74E2,6.1E1],"tree_param":{"num_deleted":"0","num_feature":"22","num_nodes":"11","size_leaf_vector":"1"}},{"base_weights":[-3.9636195E-3,7.0247984E-1,-2.2907313E-2,8.455157E-1,-1.0918192E-2,-6.8555735E-2,2.2043519E-1,4.7678407E-3,2.99189E-2,9.074951E-4,-4.225052E-3,-1.6410131E-3,1.0317997E-2],"categories":[],"categories_nodes":[],"categories_segments":[],"categories_sizes":[],"default_left":[0,0,0,0,0,0,0,0,0,0,0,0,0],"id":48,"left_children":[1,3,5,7,-1,9,11,-1,-1,-1,-1,-1,-1],"loss_changes":[5.636804E0,1.9856167E0,4.5694747E0,8.836112E-1,0E0,2.475254E0,2.2274296E0,0E0,0E0,0E0,0E0,0E0,0E0],"parents":[2147483647,0,0,1,1,2,2,3,3,5,5,6,6],"right_children":[2,4,6,8,-1,10,12,-1,-1,-1,-1,-1,-1],"split_conditions":[2.7080503E0,4.624973E0,9.799689E-1,2.9957323E0,-1.0918192E-2,4.304065E0,4.6472317E-1,4.7678407E-3,2.99189E-2,9.074951E-4,-4.225052E-3,-1.6410131E-3,1.0317997E-2],"split_indices":[2,5,19,7,0,2,1,0,0,0,0,0,0],"split_type":[0,0,0,0,0,0,0,0,0,0,0,0,0],"sum_hessian":[4.19E2,1E1,4.09E2,9E0,1E0,3.45E2,6.4E1,2E0,7E0,1.46E2,1.99E2,2E1,4.4E1],"tree_param":{"num_deleted":"0","num_feature":"22","num_nodes":"13","size_leaf_vector":"1"}},{"base_weights":[-3.1470363E-3,1.1164669E0,-2.1451125E-2,4.1820608E-2,1.6793901E-2,-1.3105093E-1,6.332827E-2,4.9729063E-3,-5.5973595E-3,1.0316676E-2,3.3038793E-4],"categories":[],"categories_nodes":[],"categories_segments":[],"categories_sizes":[],"default_left":[0,0,0,0,0,0,0,0,0,0,0],"id":49,"left_children":[1,3,5,-1,-1,7,9,-1,-1,-1,-1],"loss_changes":[8.918134E0,3.011713E-1,3.9851916E0,0E0,0E0,3.1129568E0,3.5482016E0,0E0,0E0,0E0,0E0],"parents":[2147483647,0,0,1,1,2,2,5,5,6,6],"right_children":[2,4,6,-1,-1,8,10,-1,-1,-1,-1],"split_conditions":[2.0794415E0,1.609438E0,6.2458336E1,4.1820608E-2,1.6793901E-2,3.6888795E0,3.871201E0,4.9729063E-3,-5.5973595E-3,1.0316676E-2,3.3038793E-4],"split_indices":[2,3,16,0,0,9,2,0,0,0,0],"split_type":[0,0,0,0,0,0,0,0,0,0,0],"sum_hessian":[4.33E2,6E0,4.27E2,3E0,3E0,1.86E2,2.41E2,2.9E1,1.57E2,3.7E1,2.04E2],"tree_param":{"num_deleted":"0","num_feature":"22","num_nodes":"11","size_leaf_vector":"1"}},{"base_weights":[5.461354E-4,2.5196576E-2,-1.1360684E-2,1.7804336E-2,-2.507741E-1,1.6517131E-4,1.5643086E-2,-1.095978E-2,-3.9469046E-4],"categories":[],"categories_nodes":[],"categories_segments":[],"categories_sizes":[],"default_left":[0,0,0,0,0,0,0,0,0],"id":50,"left_children":[1,-1,3,5,7,-1,-1,-1,-1],"loss_changes":[4.2869167E0,0E0,2.958061E0,2.338453E0,1.2472942E0,0E0,0E0,0E0,0E0],"parents":[2147483647,0,0,2,2,3,3,4,4],"right_children":[2,-1,4,6,8,-1,-1,-1,-1],"split_conditions":[2.0794415E0,2.5196576E-2,6.658011E0,3.0333334E1,7.2290797E0,1.6517131E-4,1.5643086E-2,-1.095978E-2,-3.9469046E-4],"split_indices":[2,0,9,14,11,0,0,0,0],"split_type":[0,0,0,0,0,0,0,0,0],"sum_hessian":[4.27E2,5E0,4.22E2,3.77E2,4.5E1,3.69E2,8E0,3E1,1.5E1],"tree_param":{"num_deleted":"0","num_feature":"22","num_nodes":"9","size_leaf_vector":"1"}},{"base_weights":[7.7686915E-3,8.113392E-1,-1.677165E-2,2.7544507E-1,1.2313278E0,-1.6839285E-1,2.9646982E-2,1.3198222E-2,-1.0672936E-2,1.0845777E-2,3.948121E-2,-1.5672704E-3,-1.6649196E-2,-2.8114882E-3,3.965076E-3],"categories":[],"categories_nodes":[],"categories_segments":[],"categories_sizes":[],"default_left":[0,0,0,0,0,0,0,0,0,0,0,0,0,0,0],"id":51,"left_children":[1,3,5,7,9,11,13,-1,-1,-1,-1,-1,-1,-1,-1],"loss_changes":[8.650922E0,2.5867386E0,3.0032015E0,8.8333404E-1,3.999996E-2,4.461157E0,4.148111E0,0E0,0E0,0E0,0E0,0E0,0E0,0E0,0E0],"parents":[2147483647,0,0,1,1,2,2,3,3,4,4,5,5,6,6],"right_children":[2,4,6,8,10,12,14,-1,-1,-1,-1,-1,-1,-1,-1],"split_conditions":[2.7080503E0,9.7094184E-1,5.472259E1,3.2580965E0,3.3672957E0,6.6312265E-1,-1.8369701E-16,1.3198222E-2,-1.0672936E-2,1.0845777E-2,3.948121E-2,-1.5672704E-3,-1.6649196E-2,-2.8114882E-3,3.965076E-3],"split_indices":[2,1,16,3,7,1,1,0,0,0,0,0,0,0,0],"split_type":[0,0,0,0,0,0,0,0,0,0,0,0,0,0,0],"sum_hessian":[4.37E2,1.2E1,4.25E2,6E0,6E0,9.9E1,3.26E2,5E0,1E0,1E0,5E0,7.7E1,2.2E1,1.48E2,1.78E2],"tree_param":{"num_deleted":"0","num_feature":"22","num_nodes":"15","size_leaf_vector":"1"}},{"base_weights":[9.824108E-3,6.3289785E-1,-9.4390325E-3,7.44044E-1,-1.0512842E-2,-1.6946943E-1,4.2261817E-2,6.823789E-3,2.6728965E-2,-1.96629E-3,-1.9697756E-2,-2.6797194E-3,4.5314566E-3],"categories":[],"categories_nodes":[],"categories_segments":[],"categories_sizes":[],"default_left":[0,0,0,0,0,0,0,0,0,0,0,0,0],"id":52,"left_children":[1,3,5,7,-1,9,11,-1,-1,-1,-1,-1,-1],"loss_changes":[5.202995E0,1.6815414E0,3.4903932E0,7.0811033E-1,0E0,5.1713305E0,4.57991E0,0E0,0E0,0E0,0E0,0E0,0E0],"parents":[2147483647,0,0,1,1,2,2,3,3,5,5,6,6],"right_children":[2,4,6,8,-1,10,12,-1,-1,-1,-1,-1,-1],"split_conditions":[2.7725887E0,3.4011974E0,5.4304222E1,2.9957323E0,-1.0512842E-2,6.6312265E-1,-1.6081226E-16,6.823789E-3,2.6728965E-2,-1.96629E-3,-1.9697756E-2,-2.6797194E-3,4.5314566E-3],"split_indices":[2,3,16,7,0,1,1,0,0,0,0,0,0],"split_type":[0,0,0,0,0,0,0,0,0,0,0,0,0],"sum_hessian":[4.32E2,1.2E1,4.2E2,1.1E1,1E0,1.02E2,3.18E2,3E0,8E0,8.5E1,1.7E1,1.44E2,1.74E2],"tree_param":{"num_deleted":"0","num_feature":"22","num_nodes":"13","size_leaf_vector":"1"}},{"base_weights":[-1.2867251E-2,2.013824E-1,-5.8351267E-2,6.880673E-2,5.3901476E-1,-1.421318E-1,4.0179003E-2,1.5433511E-2,-8.870437E-4,2.0324819E-2,-1.1885249E-3,-2.5412927E-3,-1.8088294E-2,-3.4427887E-3,4.568713E-3],"categories":[],"categories_nodes":[],"categories_segments":[],"categories_sizes":[],"default_left":[0,0,0,0,0,0,0,0,0,0,0,0,0,0,0],"id":53,"left_children":[1,3,5,7,9,11,13,-1,-1,-1,-1,-1,-1,-1,-1],"loss_changes":[4.1728377E0,3.3200502E0,2.9196973E0,2.4264188E0,1.7095399E0,5.0029244E0,2.8488507E0,0E0,0E0,0E0,0E0,0E0,0E0,0E0,0E0],"parents":[2147483647,0,0,1,1,2,2,3,3,4,4,5,5,6,6],"right_children":[2,4,6,8,10,12,14,-1,-1,-1,-1,-1,-1,-1,-1],"split_conditions":[3.7841897E0,7.020744E1,2.5766161E1,9.960421E-2,3.8467748E0,6.6312265E-1,6.1886364E1,1.5433511E-2,-8.870437E-4,2.0324819E-2,-1.1885249E-3,-2.5412927E-3,-1.8088294E-2,-3.4427887E-3,4.568713E-3],"split_indices":[5,16,15,19,11,1,17,0,0,0,0,0,0,0,0],"split_type":[0,0,0,0,0,0,0,0,0,0,0,0,0,0,0],"sum_hessian":[4.26E2,7.4E1,3.52E2,5.4E1,2E1,1.9E2,1.62E2,9E0,4.5E1,1.6E1,4E0,1.7E2,2E1,6.8E1,9.4E1],"tree_param":{"num_deleted":"0","num_feature":"22","num_nodes":"15","size_leaf_vector":"1"}},{"base_weights":[2.062609E-3,8.753496E-1,-1.0156003E-2,3.4886193E-2,-8.434026E-3,2.561218E-1,-3.8195167E-2,4.7761453E-3,1.9080112E-2,-9.001232E-3,-2.945761E-4],"categories":[],"categories_nodes":[],"categories_segments":[],"categories_sizes":[],"default_left":[0,0,0,0,0,0,0,0,0,0,0],"id":54,"left_children":[1,3,5,-1,-1,7,9,-1,-1,-1,-1],"loss_changes":[4.639824E0,2.322022E0,3.2127857E0,0E0,0E0,1.408242E0,2.887374E0,0E0,0E0,0E0,0E0],"parents":[2147483647,0,0,1,1,2,2,5,5,6,6],"right_children":[2,4,6,-1,-1,8,10,-1,-1,-1,-1],"split_conditions":[2.0794415E0,1.2053668E-1,3.4011974E0,3.4886193E-2,-8.434026E-3,7.126779E1,3.871201E0,4.7761453E-3,1.9080112E-2,-9.001232E-3,-2.945761E-4],"split_indices":[3,0,8,0,0,16,7,0,0,0,0],"split_type":[0,0,0,0,0,0,0,0,0,0,0],"sum_hessian":[4.33E2,5E0,4.28E2,4E0,1E0,4E1,3.88E2,3.3E1,7E0,3.7E1,3.51E2],"tree_param":{"num_deleted":"0","num_feature":"22","num_nodes":"11","size_leaf_vector":"1"}},{"base_weights":[1.8686224E-2,7.8925574E-1,2.5094478E-4,9.532404E-1,-1.0299088E-2,-1.5339047E-1,4.8895244E-2,3.0306153E-2,7.462835E-3,-2.2348245E-3,-1.9150611E-2,-2.3475564E-3,4.2782347E-3],"categories":[],"categories_nodes":[],"categories_segments":[],"categories_sizes":[],"default_left":[0,0,0,0,0,0,0,0,0,0,0,0,0],"id":55,"left_children":[1,3,5,7,-1,9,11,-1,-1,-1,-1,-1,-1],"loss_changes":[6.079826E0,2.1844726E0,3.1390133E0,1.09874725E-1,0E0,3.8168895E0,3.8121352E0,0E0,0E0,0E0,0E0,0E0,0E0],"parents":[2147483647,0,0,1,1,2,2,3,3,5,5,6,6],"right_children":[2,4,6,8,-1,10,12,-1,-1,-1,-1,-1,-1],"split_conditions":[2.7080503E0,3.912023E0,5.472259E1,3.8066626E0,-1.0299088E-2,2.8352228E1,-1.8369701E-16,3.0306153E-2,7.462835E-3,-2.2348245E-3,-1.9150611E-2,-2.3475564E-3,4.2782347E-3],"split_indices":[2,4,16,4,0,13,1,0,0,0,0,0,0],"split_type":[0,0,0,0,0,0,0,0,0,0,0,0,0],"sum_hessian":[4.27E2,9E0,4.18E2,8E0,1E0,1E2,3.18E2,7E0,1E0,8.7E1,1.3E1,1.35E2,1.83E2],"tree_param":{"num_deleted":"0","num_feature":"22","num_nodes":"13","size_leaf_vector":"1"}},{"base_weights":[1.0431151E-2,7.4588794E-1,-1.1713994E-2,2.574773E-1,1.1913857E0,1.876421E-2,-2.935324E-1,-5.8575645E-3,1.4328586E-2,9.894053E-3,3.8932264E-2,-3.6286323E-3,1.9070657E-3,-1.1691596E-2,-3.9271615E-3],"categories":[],"categories_nodes":[],"categories_segments":[],"categories_sizes":[],"default_left":[0,0,0,0,0,0,0,0,0,0,0,0,0,0,0],"id":56,"left_children":[1,3,5,7,9,11,13,-1,-1,-1,-1,-1,-1,-1,-1],"loss_changes":[6.6863246E0,2.304275E0,3.432646E0,7.9091036E-1,1.2181282E-1,2.267565E0,5.5904794E-1,0E0,0E0,0E0,0E0,0E0,0E0,0E0,0E0],"parents":[2147483647,0,0,1,1,2,2,3,3,4,4,5,5,6,6],"right_children":[2,4,6,8,10,12,14,-1,-1,-1,-1,-1,-1,-1,-1],"split_conditions":[2.7725887E0,9.7094184E-1,6.8416157E0,5.6525284E1,3.3672957E0,5.472259E1,7.3466554E0,-5.8575645E-3,1.4328586E-2,9.894053E-3,3.8932264E-2,-3.6286323E-3,1.9070657E-3,-1.1691596E-2,-3.9271615E-3],"split_indices":[2,1,9,16,7,16,7,0,0,0,0,0,0,0,0],"split_type":[0,0,0,0,0,0,0,0,0,0,0,0,0,0,0],"sum_hessian":[4.09E2,1.1E1,3.98E2,6E0,5E0,3.6E2,3.8E1,2E0,4E0,1E0,4E0,8.7E1,2.73E2,2.3E1,1.5E1],"tree_param":{"num_deleted":"0","num_feature":"22","num_nodes":"15","size_leaf_vector":"1"}},{"base_weights":[2.3408385E-2,9.507148E-1,8.043872E-3,3.6177743E-2,1.3734786E-2,5.929912E-2,-1.2537481E-1,1.11251495E-4,8.502717E-3,-2.094632E-2,-2.1501249E-3],"categories":[],"categories_nodes":[],"categories_segments":[],"categories_sizes":[],"default_left":[0,0,0,0,0,0,0,0,0,0,0],"id":57,"left_children":[1,3,5,-1,-1,7,9,-1,-1,-1,-1],"loss_changes":[6.1188254E0,3.2842684E-1,2.9069195E0,0E0,0E0,3.8239427E0,3.5800593E0,0E0,0E0,0E0,0E0],"parents":[2147483647,0,0,1,1,2,2,5,5,6,6],"right_children":[2,4,6,-1,-1,8,10,-1,-1,-1,-1],"split_conditions":[2.0794415E0,1.609438E0,7.1056366E1,3.6177743E-2,1.3734786E-2,8.2298386E-1,7.1333336E1,1.11251495E-4,8.502717E-3,-2.094632E-2,-2.1501249E-3],"split_indices":[2,3,18,0,0,1,18,0,0,0,0],"split_type":[0,0,0,0,0,0,0,0,0,0,0],"sum_hessian":[4.29E2,6E0,4.23E2,3E0,3E0,3.06E2,1.17E2,2.46E2,6E1,9E0,1.08E2],"tree_param":{"num_deleted":"0","num_feature":"22","num_nodes":"11","size_leaf_vector":"1"}},{"base_weights":[5.578673E-3,5.93826E-1,-1.9126965E-2,2.3190837E-1,1.0777214E0,6.3655297E-3,-2.8880093E-1,9.689832E-3,-1.0184281E-2,9.539619E-3,3.4540374E-2,-4.0885205E-3,1.4577443E-3,-1.1142558E-2,-1.3534434E-3],"categories":[],"categories_nodes":[],"categories_segments":[],"categories_sizes":[],"default_left":[0,0,0,0,0,0,0,0,0,0,0,0,0,0,0],"id":58,"left_children":[1,3,5,7,9,11,13,-1,-1,-1,-1,-1,-1,-1,-1],"loss_changes":[6.1297617E0,2.727282E0,2.7860763E0,6.821454E-1,2.5431633E-2,2.2413452E0,6.87891E-1,0E0,0E0,0E0,0E0,0E0,0E0,0E0,0E0],"parents":[2147483647,0,0,1,1,2,2,3,3,4,4,5,5,6,6],"right_children":[2,4,6,8,10,12,14,-1,-1,-1,-1,-1,-1,-1,-1],"split_conditions":[2.944439E0,2.6581915E1,6.8167357E0,3.6635616E0,3.3672957E0,5.3523746E1,7.4324837E0,9.689832E-3,-1.0184281E-2,9.539619E-3,3.4540374E-2,-4.0885205E-3,1.4577443E-3,-1.1142558E-2,-1.3534434E-3],"split_indices":[2,13,8,3,7,17,6,0,0,0,0,0,0,0,0],"split_type":[0,0,0,0,0,0,0,0,0,0,0,0,0,0,0],"sum_hessian":[4.2E2,1.6E1,4.04E2,1E1,6E0,3.7E2,3.4E1,9E0,1E0,1E0,5E0,8.4E1,2.86E2,2.5E1,9E0],"tree_param":{"num_deleted":"0","num_feature":"22","num_nodes":"15","size_leaf_vector":"1"}},{"base_weights":[-2.8748513E-4,-3.4978513E-2,2.945925E-1,1.7308314E-1,-6.118465E-2,6.9130897E-3,7.0303625E-1,-4.4269683E-3,8.533132E-3,-1.7309792E-2,-1.3736571E-3,2.5430594E-3,-3.1427804E-2,2.5020394E-2,5.0849468E-3],"categories":[],"categories_nodes":[],"categories_segments":[],"categories_sizes":[],"default_left":[0,0,0,0,0,0,0,0,0,0,0,0,0,0,0],"id":59,"left_children":[1,3,5,7,9,11,13,-1,-1,-1,-1,-1,-1,-1,-1],"loss_changes":[4.4704494E0,2.1425142E0,5.4001794E0,1.6130246E0,2.737197E0,2.3875804E0,1.1863785E0,0E0,0E0,0E0,0E0,0E0,0E0,0E0,0E0],"parents":[2147483647,0,0,1,1,2,2,3,3,4,4,5,5,6,6],"right_children":[2,4,6,8,10,12,14,-1,-1,-1,-1,-1,-1,-1,-1],"split_conditions":[9.7094184E-1,3.4011974E0,2.7842857E1,5.241086E1,3.3672957E0,6.2304816E0,2.3931566E-1,-4.4269683E-3,8.533132E-3,-1.7309792E-2,-1.3736571E-3,2.5430594E-3,-3.1427804E-2,2.5020394E-2,5.0849468E-3],"split_indices":[1,8,12,17,5,2,0,0,0,0,0,0,0,0,0],"split_type":[0,0,0,0,0,0,0,0,0,0,0,0,0,0,0],"sum_hessian":[4.35E2,3.9E2,4.5E1,4.3E1,3.47E2,2.7E1,1.8E1,1.1E1,3.2E1,9E0,3.38E2,2.6E1,1E0,1.4E1,4E0],"tree_param":{"num_deleted":"0","num_feature":"22","num_nodes":"15","size_leaf_vector":"1"}},{"base_weights":[3.9259866E-2,7.510968E-1,2.0611841E-2,3.6301216E-1,1.1441959E0,-6.537447E-2,1.1821946E-1,2.8707765E-3,1.3524045E-2,9.02122E-3,3.839674E-2,-9.57212E-4,-7.7738105E-3,-6.473089E-3,4.708755E-3],"categories":[],"categories_nodes":[],"categories_segments":[],"categories_sizes":[],"default_left":[0,0,0,0,0,0,0,0,0,0,0,0,0,0,0],"id":60,"left_children":[1,3,5,7,9,11,13,-1,-1,-1,-1,-1,-1,-1,-1],"loss_changes":[5.7190385E0,1.2627559E0,3.5495403E0,1.2113637E-1,1.8741465E-1,1.4507208E0,2.5956745E0,0E0,0E0,0E0,0E0,0E0,0E0,0E0,0E0],"parents":[2147483647,0,0,1,1,2,2,3,3,4,4,5,5,6,6],"right_children":[2,4,6,8,10,12,14,-1,-1,-1,-1,-1,-1,-1,-1],"split_conditions":[2.7725887E0,9.7094184E-1,1.2053668E-1,2.8903718E0,3.3672957E0,6.8416157E0,5.0360672E1,2.8707765E-3,1.3524045E-2,9.02122E-3,3.839674E-2,-9.57212E-4,-7.7738105E-3,-6.473089E-3,4.708755E-3],"split_indices":[2,1,1,4,7,9,17,0,0,0,0,0,0,0,0],"split_type":[0,0,0,0,0,0,0,0,0,0,0,0,0,0,0],"sum_hessian":[4.31E2,1E1,4.21E2,6E0,4E0,2.24E2,1.97E2,2E0,4E0,1E0,3E0,1.92E2,3.2E1,2E1,1.77E2],"tree_param":{"num_deleted":"0","num_feature":"22","num_nodes":"15","size_leaf_vector":"1"}},{"base_weights":[-3.6576986E-3,3.9492708E-1,-3.1002592E-2,2.2747551E-1,1.1197093E0,-7.282128E-2,1.7916176E-1,8.7548215E-3,-9.6079E-3,8.912576E-3,3.7532806E-2,-2.5933373E-3,1.31799625E-2,7.085034E-3,-1.0540305E-2],"categories":[],"categories_nodes":[],"categories_segments":[],"categories_sizes":[],"default_left":[0,0,0,0,0,0,0,0,0,0,0,0,0,0,0],"id":61,"left_children":[1,3,5,7,9,11,13,-1,-1,-1,-1,-1,-1,-1,-1],"loss_changes":[4.7534213E0,3.1435394E0,3.5988762E0,9.39414E-1,1.6871691E-1,2.4172094E0,2.1394322E0,0E0,0E0,0E0,0E0,0E0,0E0,0E0,0E0],"parents":[2147483647,0,0,1,1,2,2,3,3,4,4,5,5,6,6],"right_children":[2,4,6,8,10,12,14,-1,-1,-1,-1,-1,-1,-1,-1],"split_conditions":[3.1780539E0,2.8324675E1,9.880115E-1,3.8988836E0,3.218876E0,3.0744047E1,7.9007355E1,8.7548215E-3,-9.6079E-3,8.912576E-3,3.7532806E-2,-2.5933373E-3,1.31799625E-2,7.085034E-3,-1.0540305E-2],"split_indices":[2,13,19,11,5,14,18,0,0,0,0,0,0,0,0],"split_type":[0,0,0,0,0,0,0,0,0,0,0,0,0,0,0],"sum_hessian":[4.34E2,2.7E1,4.07E2,2.3E1,4E0,3.4E2,6.7E1,2.1E1,2E0,1E0,3E0,3.32E2,8E0,6.1E1,6E0],"tree_param":{"num_deleted":"0","num_feature":"22","num_nodes":"15","size_leaf_vector":"1"}},{"base_weights":[-1.4279725E-2,6.758605E-1,-2.906966E-2,8.442569E-1,-1.0069653E-2,-1.6896899E-1,1.0807121E-2,2.725995E-2,5.901E-3,-3.766757E-3,-4.2882856E-2,9.136129E-3,-4.6730117E-4],"categories":[],"categories_nodes":[],"categories_segments":[],"categories_sizes":[],"default_left":[0,0,0,0,0,0,0,0,0,0,0,0,0],"id":62,"left_children":[1,3,5,7,-1,9,11,-1,-1,-1,-1,-1,-1],"loss_changes":[4.378091E0,1.8163991E0,2.339316E0,1.5492916E-1,0E0,4.909211E0,2.5389075E0,0E0,0E0,0E0,0E0,0E0,0E0],"parents":[2147483647,0,0,1,1,2,2,3,3,5,5,6,6],"right_children":[2,4,6,8,-1,10,12,-1,-1,-1,-1,-1,-1],"split_conditions":[2.7725887E0,3.4011974E0,5.3523746E1,2.7080503E0,-1.0069653E-2,5.3441704E1,3.4011974E0,2.725995E-2,5.901E-3,-3.766757E-3,-4.2882856E-2,9.136129E-3,-4.6730117E-4],"split_indices":[2,3,17,2,0,17,8,0,0,0,0,0,0],"split_type":[0,0,0,0,0,0,0,0,0,0,0,0,0],"sum_hessian":[4.26E2,8E0,4.18E2,7E0,1E0,9.2E1,3.26E2,6E0,1E0,9E1,2E0,2.6E1,3E2],"tree_param":{"num_deleted":"0","num_feature":"22","num_nodes":"13","size_leaf_vector":"1"}},{"base_weights":[-9.382524E-3,-3.8496178E-2,2.5771603E-1,-1.7284133E-1,1.8917479E-3,-2.8964418E-1,4.3781748E-1,-1.7288453E-3,-2.7219698E-2,7.5703347E-3,-7.2264404E-4,-3.3570665E-3,-3.1005956E-2,2.605535E-2,9.150666E-3],"categories":[],"categories_nodes":[],"categories_segments":[],"categories_sizes":[],"default_left":[0,0,0,0,0,0,0,0,0,0,0,0,0,0,0],"id":63,"left_children":[1,3,5,7,9,11,13,-1,-1,-1,-1,-1,-1,-1,-1],"loss_changes":[3.3225887E0,2.0893068E0,4.267186E0,7.479069E0,1.9385784E0,1.3387661E0,1.5652976E0,0E0,0E0,0E0,0E0,0E0,0E0,0E0,0E0],"parents":[2147483647,0,0,1,1,2,2,3,3,4,4,5,5,6,6],"right_children":[2,4,6,8,10,12,14,-1,-1,-1,-1,-1,-1,-1,-1],"split_conditions":[9.7094184E-1,5.4096558E1,2.6177319E1,6.6312265E-1,3.4011974E0,1E0,3.4011974E0,-1.7288453E-3,-2.7219698E-2,7.5703347E-3,-7.2264404E-4,-3.3570665E-3,-3.1005956E-2,2.605535E-2,9.150666E-3],"split_indices":[1,16,15,1,8,1,2,0,0,0,0,0,0,0,0],"split_type":[0,0,0,0,0,0,0,0,0,0,0,0,0,0,0],"sum_hessian":[4.25E2,3.84E2,4.1E1,8.8E1,2.96E2,1E1,3.1E1,7.7E1,1.1E1,2.7E1,2.69E2,9E0,1E0,6E0,2.5E1],"tree_param":{"num_deleted":"0","num_feature":"22","num_nodes":"15","size_leaf_vector":"1"}},{"base_weights":[4.9208133E-3,6.01789E-1,-1.3434287E-2,1.0130643E-1,9.019273E-1,-6.887772E-2,5.9654795E-2,7.6101394E-3,-9.907769E-3,3.0323897E-2,1.15063945E-2,-1.6791009E-3,-2.4589973E-2,-1.0449906E-2,3.4407577E-3],"categories":[],"categories_nodes":[],"categories_segments":[],"categories_sizes":[],"default_left":[0,0,0,0,0,0,0,0,0,0,0,0,0,0,0],"id":64,"left_children":[1,3,5,7,9,11,13,-1,-1,-1,-1,-1,-1,-1,-1],"loss_changes":[4.77376E0,1.8614106E0,1.718236E0,4.783097E-1,6.379795E-2,2.28964E0,4.1490917E0,0E0,0E0,0E0,0E0,0E0,0E0,0E0,0E0],"parents":[2147483647,0,0,1,1,2,2,3,3,4,4,5,5,6,6],"right_children":[2,4,6,8,10,12,14,-1,-1,-1,-1,-1,-1,-1,-1],"split_conditions":[2.7080503E0,-2.3931566E-1,2.574375E1,3.2580965E0,6.0864025E1,2.5701492E1,5.008456E1,7.6101394E-3,-9.907769E-3,3.0323897E-2,1.15063945E-2,-1.6791009E-3,-2.4589973E-2,-1.0449906E-2,3.4407577E-3],"split_indices":[2,0,15,3,18,15,16,0,0,0,0,0,0,0,0],"split_type":[0,0,0,0,0,0,0,0,0,0,0,0,0,0,0],"sum_hessian":[4.34E2,1.2E1,4.22E2,5E0,7E0,2.4E2,1.82E2,4E0,1E0,5E0,2E0,2.37E2,3E0,2.1E1,1.61E2],"tree_param":{"num_deleted":"0","num_feature":"22","num_nodes":"15","size_leaf_vector":"1"}},{"base_weights":[-1.6550628E-2,8.339854E-1,-2.854748E-2,3.0986322E-2,8.724026E-3,7.567738E-2,-7.85631E-2,3.1492785E-3,-1.7591616E-2,-3.1060888E-2,-2.046476E-3],"categories":[],"categories_nodes":[],"categories_segments":[],"categories_sizes":[],"default_left":[0,0,0,0,0,0,0,0,0,0,0],"id":65,"left_children":[1,3,5,-1,-1,7,9,-1,-1,-1,-1],"loss_changes":[4.401219E0,3.4784842E-1,2.2162027E0,0E0,0E0,2.738418E0,2.7707393E0,0E0,0E0,0E0,0E0],"parents":[2147483647,0,0,1,1,2,2,5,5,6,6],"right_children":[2,4,6,-1,-1,8,10,-1,-1,-1,-1],"split_conditions":[2.0794415E0,1.609438E0,4.1870947E0,3.0986322E-2,8.724026E-3,2.9467533E1,3.912023E0,3.1492785E-3,-1.7591616E-2,-3.1060888E-2,-2.046476E-3],"split_indices":[2,3,10,0,0,12,2,0,0,0,0],"split_type":[0,0,0,0,0,0,0,0,0,0,0],"sum_hessian":[4.28E2,5E0,4.23E2,3E0,2E0,1.37E2,2.86E2,1.32E2,5E0,2E0,2.84E2],"tree_param":{"num_deleted":"0","num_feature":"22","num_nodes":"11","size_leaf_vector":"1"}},{"base_weights":[5.6089815E-3,2.8283736E-1,-2.6772019E-2,1.0049934E-1,6.529693E-1,-1.0226767E0,-1.3935363E-2,8.959405E-3,-2.106206E-3,2.4810845E-2,-9.56827E-3,2.145667E-3,-5.3279504E-2,8.020195E-3,-9.6874236E-4],"categories":[],"categories_nodes":[],"categories_segments":[],"categories_sizes":[],"default_left":[0,0,0,0,0,0,0,0,0,0,0,0,0,0,0],"id":66,"left_children":[1,3,5,7,9,11,13,-1,-1,-1,-1,-1,-1,-1,-1],"loss_changes":[3.9484448E0,3.0388763E0,5.0226784E0,1.1033673E0,2.8013234E0,4.2483597E0,2.0222423E0,0E0,0E0,0E0,0E0,0E0,0E0,0E0,0E0],"parents":[2147483647,0,0,1,1,2,2,3,3,4,4,5,5,6,6],"right_children":[2,4,6,8,10,12,14,-1,-1,-1,-1,-1,-1,-1,-1],"split_conditions":[3.4210541E0,2.5172596E1,3.4339871E0,5.1562196E-1,1.2053668E-1,3.0910425E0,3.4965076E0,8.959405E-3,-2.106206E-3,2.4810845E-2,-9.56827E-3,2.145667E-3,-5.3279504E-2,8.020195E-3,-9.6874236E-4],"split_indices":[10,15,4,19,0,4,9,0,0,0,0,0,0,0,0],"split_type":[0,0,0,0,0,0,0,0,0,0,0,0,0,0,0],"sum_hessian":[4.38E2,4.5E1,3.93E2,3.1E1,1.4E1,4E0,3.89E2,1.4E1,1.7E1,1.2E1,2E0,2E0,2E0,2.3E1,3.66E2],"tree_param":{"num_deleted":"0","num_feature":"22","num_nodes":"15","size_leaf_vector":"1"}},{"base_weights":[-1.3260162E-2,2.79958E-1,-3.875612E-2,7.7926606E-1,-1.44316675E-2,-3.5050386E-1,-2.3230176E-2,8.141807E-3,2.7134651E-2,5.2170744E-3,-5.1804357E-3,-3.27412E-2,-2.3857265E-4,-5.396102E-4,-3.0470451E-2],"categories":[],"categories_nodes":[],"categories_segments":[],"categories_sizes":[],"default_left":[0,0,0,0,0,0,0,0,0,0,0,0,0,0,0],"id":67,"left_children":[1,3,5,7,9,11,13,-1,-1,-1,-1,-1,-1,-1,-1],"loss_changes":[3.270333E0,5.155936E0,1.9376097E0,5.8128834E-1,7.155168E-1,4.8132534E0,1.9799094E0,0E0,0E0,0E0,0E0,0E0,0E0,0E0,0E0],"parents":[2147483647,0,0,1,1,2,2,3,3,4,4,5,5,6,6],"right_children":[2,4,6,8,10,12,14,-1,-1,-1,-1,-1,-1,-1,-1],"split_conditions":[3.3672957E0,8.115746E-1,3.6150138E0,1.725974E1,3.03714E0,5.8453114E1,7.832009E0,8.141807E-3,2.7134651E-2,5.2170744E-3,-5.1804357E-3,-3.27412E-2,-2.3857265E-4,-5.396102E-4,-3.0470451E-2],"split_indices":[3,20,10,13,11,17,20,0,0,0,0,0,0,0,0],"split_type":[0,0,0,0,0,0,0,0,0,0,0,0,0,0,0],"sum_hessian":[4.35E2,3.4E1,4.01E2,1.2E1,2.2E1,1.8E1,3.83E2,3E0,9E0,1E1,1.2E1,5E0,1.3E1,3.82E2,1E0],"tree_param":{"num_deleted":"0","num_feature":"22","num_nodes":"15","size_leaf_vector":"1"}},{"base_weights":[-7.696881E-3,7.123915E-2,-9.9415936E-2,6.196975E-1,4.858139E-2,-8.75175E-1,-6.622916E-2,2.5484828E-2,-3.6918228E-3,1.845035E-3,-2.003075E-2,-4.186301E-3,-6.1641395E-2,-2.5488795E-3,1.1117344E-2],"categories":[],"categories_nodes":[],"categories_segments":[],"categories_sizes":[],"default_left":[0,0,0,0,0,0,0,0,0,0,0,0,0,0,0],"id":68,"left_children":[1,3,5,7,9,11,13,-1,-1,-1,-1,-1,-1,-1,-1],"loss_changes":[3.084056E0,2.8156402E0,5.0137925E0,1.6406898E0,2.0862174E0,6.654923E0,1.5862415E0,0E0,0E0,0E0,0E0,0E0,0E0,0E0,0E0],"parents":[2147483647,0,0,1,1,2,2,3,3,4,4,5,5,6,6],"right_children":[2,4,6,8,10,12,14,-1,-1,-1,-1,-1,-1,-1,-1],"split_conditions":[4.691348E0,4.87514E-1,4.727388E0,3.583519E0,2.9785213E0,6.6312265E-1,1.5633819E0,2.5484828E-2,-3.6918228E-3,1.845035E-3,-2.003075E-2,-4.186301E-3,-6.1641395E-2,-2.5488795E-3,1.1117344E-2],"split_indices":[8,20,8,2,20,1,20,0,0,0,0,0,0,0,0],"split_type":[0,0,0,0,0,0,0,0,0,0,0,0,0,0,0],"sum_hessian":[4.24E2,2.28E2,1.96E2,8E0,2.2E2,7E0,1.89E2,6E0,2E0,2.17E2,3E0,5E0,2E0,1.82E2,7E0],"tree_param":{"num_deleted":"0","num_feature":"22","num_nodes":"15","size_leaf_vector":"1"}},{"base_weights":[-5.5179265E-3,5.4590595E-1,-2.3031354E-2,1.04808524E-1,8.0849075E-1,-5.703301E-2,1.2670001E-1,7.67132E-3,-9.745533E-3,6.2076757E-3,2.594606E-2,8.5482816E-4,-3.1915782E-3,5.2493783E-3,-1.12257805E-2],"categories":[],"categories_nodes":[],"categories_segments":[],"categories_sizes":[],"default_left":[0,0,0,0,0,0,0,0,0,0,0,0,0,0,0],"id":69,"left_children":[1,3,5,7,9,11,13,-1,-1,-1,-1,-1,-1,-1,-1],"loss_changes":[4.0783057E0,1.4209943E0,2.0894918E0,4.720872E-1,9.23605E-2,1.4128529E0,1.9033638E0,0E0,0E0,0E0,0E0,0E0,0E0,0E0,0E0],"parents":[2147483647,0,0,1,1,2,2,3,3,4,4,5,5,6,6],"right_children":[2,4,6,8,10,12,14,-1,-1,-1,-1,-1,-1,-1,-1],"split_conditions":[2.7725887E0,-2.3931566E-1,9.799689E-1,3.3672957E0,3.3672957E0,4.271651E0,7.996397E1,7.67132E-3,-9.745533E-3,6.2076757E-3,2.594606E-2,8.5482816E-4,-3.1915782E-3,5.2493783E-3,-1.12257805E-2],"split_indices":[2,0,19,3,7,11,17,0,0,0,0,0,0,0,0],"split_type":[0,0,0,0,0,0,0,0,0,0,0,0,0,0,0],"sum_hessian":[4.2E2,1.2E1,4.08E2,5E0,7E0,3.33E2,7.5E1,4E0,1E0,1E0,6E0,1.22E2,2.11E2,6.9E1,6E0],"tree_param":{"num_deleted":"0","num_feature":"22","num_nodes":"15","size_leaf_vector":"1"}},{"base_weights":[1.3799883E-2,3.740593E-2,-2.3858358E-1,4.435023E-2,-6.524869E-1,-3.7878478E-1,1.8802982E-2,3.9705148E-4,7.2936076E-3,-1.6399475E-3,-2.5006177E-2,3.839997E-4,-1.3732251E-2,-4.4170907E-3,4.852111E-3],"categories":[],"categories_nodes":[],"categories_segments":[],"categories_sizes":[],"default_left":[0,0,0,0,0,0,0,0,0,0,0,0,0,0,0],"id":70,"left_children":[1,3,5,7,9,11,13,-1,-1,-1,-1,-1,-1,-1,-1],"loss_changes":[2.576726E0,1.9213128E0,1.3423009E0,2.4212105E0,3.8738298E-1,7.478988E-1,3.5607103E-1,0E0,0E0,0E0,0E0,0E0,0E0,0E0,0E0],"parents":[2147483647,0,0,1,1,2,2,3,3,4,4,5,5,6,6],"right_children":[2,4,6,8,10,12,14,-1,-1,-1,-1,-1,-1,-1,-1],"split_conditions":[6.8167357E0,7.832009E0,7.3466554E0,9.350162E-1,1.609438E0,1.9450321E1,9.350162E-1,3.9705148E-4,7.2936076E-3,-1.6399475E-3,-2.5006177E-2,3.839997E-4,-1.3732251E-2,-4.4170907E-3,4.852111E-3],"split_indices":[8,20,7,1,5,15,0,0,0,0,0,0,0,0,0],"split_type":[0,0,0,0,0,0,0,0,0,0,0,0,0,0,0],"sum_hessian":[4.3E2,3.94E2,3.6E1,3.91E2,3E0,2.3E1,1.3E1,3.39E2,5.2E1,1E0,2E0,4E0,1.9E1,6E0,7E0],"tree_param":{"num_deleted":"0","num_feature":"22","num_nodes":"15","size_leaf_vector":"1"}},{"base_weights":[1.4691682E-3,5.357033E-1,-1.3907998E-2,1.1694461E-1,8.181102E-1,-3.5075954E-1,2.1674084E-3,8.052128E-3,-9.605306E-3,6.005155E-3,2.663214E-2,-4.380969E-2,-4.029639E-3,6.2226425E-3,-6.5756176E-4],"categories":[],"categories_nodes":[],"categories_segments":[],"categories_sizes":[],"default_left":[0,0,0,0,0,0,0,0,0,0,0,0,0,0,0],"id":71,"left_children":[1,3,5,7,9,11,13,-1,-1,-1,-1,-1,-1,-1,-1],"loss_changes":[3.5234735E0,1.3234506E0,2.258826E0,4.8317447E-1,1.2347937E-1,4.3667345E0,1.9771128E0,0E0,0E0,0E0,0E0,0E0,0E0,0E0,0E0],"parents":[2147483647,0,0,1,1,2,2,3,3,4,4,5,5,6,6],"right_children":[2,4,6,8,10,12,14,-1,-1,-1,-1,-1,-1,-1,-1],"split_conditions":[2.7725887E0,-2.3931566E-1,5.239227E-1,3.3672957E0,3.3672957E0,-3.546049E-1,3.4965076E0,8.052128E-3,-9.605306E-3,6.005155E-3,2.663214E-2,-4.380969E-2,-4.029639E-3,6.2226425E-3,-6.5756176E-4],"split_indices":[2,0,20,3,7,0,9,0,0,0,0,0,0,0,0],"split_type":[0,0,0,0,0,0,0,0,0,0,0,0,0,0,0],"sum_hessian":[4.27E2,1.1E1,4.16E2,5E0,6E0,1.8E1,3.98E2,4E0,1E0,1E0,5E0,2E0,1.6E1,4.1E1,3.57E2],"tree_param":{"num_deleted":"0","num_feature":"22","num_nodes":"15","size_leaf_vector":"1"}},{"base_weights":[-5.0265696E-3,7.175236E-2,-9.285805E-2,4.9659064E-1,4.8145913E-2,-3.9632332E-1,-3.9388184E-2,2.124172E-2,-3.1007177E-3,1.7185222E-3,-2.9159592E-2,-1.3250994E-3,-2.386888E-2,-2.0878718E-3,1.1075361E-2],"categories":[],"categories_nodes":[],"categories_segments":[],"categories_sizes":[],"default_left":[0,0,0,0,0,0,0,0,0,0,0,0,0,0,0],"id":72,"left_children":[1,3,5,7,9,11,13,-1,-1,-1,-1,-1,-1,-1,-1],"loss_changes":[2.9064138E0,2.2827435E0,3.2458656E0,1.5956113E0,2.0972264E0,4.183365E0,2.1484833E0,0E0,0E0,0E0,0E0,0E0,0E0,0E0,0E0],"parents":[2147483647,0,0,1,1,2,2,3,3,4,4,5,5,6,6],"right_children":[2,4,6,8,10,12,14,-1,-1,-1,-1,-1,-1,-1,-1],"split_conditions":[4.65396E0,4.87514E-1,4.7401376E0,3.583519E0,6.2304816E0,6.6312265E-1,1.556828E0,2.124172E-2,-3.1007177E-3,1.7185222E-3,-2.9159592E-2,-1.3250994E-3,-2.386888E-2,-2.0878718E-3,1.1075361E-2],"split_indices":[7,20,11,2,2,1,20,0,0,0,0,0,0,0,0],"split_type":[0,0,0,0,0,0,0,0,0,0,0,0,0,0,0],"sum_hessian":[4.29E2,2.29E2,2E2,1.1E1,2.18E2,2.9E1,1.71E2,8E0,3E0,2.17E2,1E0,1.6E1,1.3E1,1.6E2,1.1E1],"tree_param":{"num_deleted":"0","num_feature":"22","num_nodes":"15","size_leaf_vector":"1"}},{"base_weights":[1.1636936E-2,8.361261E-2,-6.970692E-2,6.271014E-1,5.8298387E-2,-1.1118141E0,-4.2903654E-2,9.289488E-3,3.793817E-2,2.2095114E-3,-9.191774E-3,-1.3134591E-2,-4.2456117E-2,-2.1887E-3,1.0654299E-2],"categories":[],"categories_nodes":[],"categories_segments":[],"categories_sizes":[],"default_left":[0,0,0,0,0,0,0,0,0,0,0,0,0,0,0],"id":73,"left_children":[1,3,5,7,9,11,13,-1,-1,-1,-1,-1,-1,-1,-1],"loss_changes":[2.5058188E0,3.0865064E0,5.5666065E0,1.6321845E0,1.2430897E0,4.0281105E-1,2.3825247E0,0E0,0E0,0E0,0E0,0E0,0E0,0E0,0E0],"parents":[2147483647,0,0,1,1,2,2,3,3,4,4,5,5,6,6],"right_children":[2,4,6,8,10,12,14,-1,-1,-1,-1,-1,-1,-1,-1],"split_conditions":[4.65396E0,4.87514E-1,3.912023E0,4.94876E0,3.0144842E1,3.912023E0,1.5633819E0,9.289488E-3,3.793817E-2,2.2095114E-3,-9.191774E-3,-1.3134591E-2,-4.2456117E-2,-2.1887E-3,1.0654299E-2],"split_indices":[7,20,2,9,13,3,20,0,0,0,0,0,0,0,0],"split_type":[0,0,0,0,0,0,0,0,0,0,0,0,0,0,0],"sum_hessian":[4.26E2,2.26E2,2E2,9E0,2.17E2,4E0,1.96E2,7E0,2E0,2.09E2,8E0,2E0,2E0,1.83E2,1.3E1],"tree_param":{"num_deleted":"0","num_feature":"22","num_nodes":"15","size_leaf_vector":"1"}},{"base_weights":[2.1603318E-4,-3.3095162E-2,2.5204435E-1,1.3486195E-1,-6.2112197E-2,-1.4345542E-3,5.0558066E-1,-1.3622794E-2,5.3030048E-3,-6.3701085E-4,-7.2282725E-3,1.6192948E-2,-3.7310768E-3,2.4775345E-2,4.392769E-3],"categories":[],"categories_nodes":[],"categories_segments":[],"categories_sizes":[],"default_left":[0,0,0,0,0,0,0,0,0,0,0,0,0,0,0],"id":74,"left_children":[1,3,5,7,9,11,13,-1,-1,-1,-1,-1,-1,-1,-1],"loss_changes":[3.5903172E0,1.850604E0,3.2140298E0,1.4623537E0,2.3561149E0,1.7969671E0,2.7546883E0,0E0,0E0,0E0,0E0,0E0,0E0,0E0,0E0],"parents":[2147483647,0,0,1,1,2,2,3,3,4,4,5,5,6,6],"right_children":[2,4,6,8,10,12,14,-1,-1,-1,-1,-1,-1,-1,-1],"split_conditions":[9.7094184E-1,3.7841897E0,2.7207329E1,1.8649351E1,6.6312265E-1,2.4730953E1,2.8358242E1,-1.3622794E-2,5.3030048E-3,-6.3701085E-4,-7.2282725E-3,1.6192948E-2,-3.7310768E-3,2.4775345E-2,4.392769E-3],"split_indices":[1,9,12,12,1,12,15,0,0,0,0,0,0,0,0],"split_type":[0,0,0,0,0,0,0,0,0,0,0,0,0,0,0],"sum_hessian":[4.26E2,3.77E2,4.9E1,5.5E1,3.22E2,2.5E1,2.4E1,3E0,5.2E1,2.63E2,5.9E1,4E0,2.1E1,1.2E1,1.2E1],"tree_param":{"num_deleted":"0","num_feature":"22","num_nodes":"15","size_leaf_vector":"1"}},{"base_weights":[-4.8385074E-4,2.670637E-2,-1.0445814E-2,9.748057E-3,-2.1065214E-1,-7.2125775E-5,1.4772984E-2,-9.938407E-3,6.1565597E-4],"categories":[],"categories_nodes":[],"categories_segments":[],"categories_sizes":[],"default_left":[0,0,0,0,0,0,0,0,0],"id":75,"left_children":[1,-1,3,5,7,-1,-1,-1,-1],"loss_changes":[4.0110593E0,0E0,1.8092482E0,2.3885262E0,1.1501275E0,0E0,0E0,0E0,0E0],"parents":[2147483647,0,0,2,2,3,3,4,4],"right_children":[2,-1,4,6,8,-1,-1,-1,-1],"split_conditions":[2.0794415E0,2.670637E-2,6.8167357E0,3.0333334E1,7.4324837E0,-7.2125775E-5,1.4772984E-2,-9.938407E-3,6.1565597E-4],"split_indices":[3,0,8,14,6,0,0,0,0],"split_type":[0,0,0,0,0,0,0,0,0],"sum_hessian":[4.5E2,4E0,4.46E2,4.06E2,4E1,3.97E2,9E0,2.6E1,1.4E1],"tree_param":{"num_deleted":"0","num_feature":"22","num_nodes":"9","size_leaf_vector":"1"}},{"base_weights":[-1.6524771E-2,-4.848842E-2,2.7382466E-1,1.8368149E-1,-7.550102E-2,1.6743222E-2,5.841473E-1,1.9153913E-3,1.9651232E-2,-1.34692555E-2,-1.6375195E-3,-3.6622777E-3,1.7060135E-2,2.0740137E-2,-6.539464E-3],"categories":[],"categories_nodes":[],"categories_segments":[],"categories_sizes":[],"default_left":[0,0,0,0,0,0,0,0,0,0,0,0,0,0,0],"id":76,"left_children":[1,3,5,7,9,11,13,-1,-1,-1,-1,-1,-1,-1,-1],"loss_changes":[3.9297025E0,2.4033144E0,3.3409033E0,2.217595E0,2.6471875E0,1.908257E0,1.7843332E0,0E0,0E0,0E0,0E0,0E0,0E0,0E0,0E0],"parents":[2147483647,0,0,1,1,2,2,3,3,4,4,5,5,6,6],"right_children":[2,4,6,8,10,12,14,-1,-1,-1,-1,-1,-1,-1,-1],"split_conditions":[9.7094184E-1,3.3672957E0,2.7810715E1,7.126779E1,3.4339871E0,4.454347E0,5.0875964E0,1.9153913E-3,1.9651232E-2,-1.34692555E-2,-1.6375195E-3,-3.6622777E-3,1.7060135E-2,2.0740137E-2,-6.539464E-3],"split_indices":[1,8,12,16,4,4,5,0,0,0,0,0,0,0,0],"split_type":[0,0,0,0,0,0,0,0,0,0,0,0,0,0,0],"sum_hessian":[4.21E2,3.8E2,4.1E1,3.9E1,3.41E2,2.3E1,1.8E1,3.2E1,7E0,1.7E1,3.24E2,1.9E1,4E0,1.6E1,2E0],"tree_param":{"num_deleted":"0","num_feature":"22","num_nodes":"15","size_leaf_vector":"1"}},{"base_weights":[4.2153574E-3,3.020369E-1,-1.4363961E-2,1.9845636E-1,8.221159E-1,-4.9778335E-2,1.5891986E-1,7.737662E-3,-8.518672E-3,2.962653E-2,4.887156E-3,-1.9652906E-3,9.083291E-3,6.393858E-3,-5.7919915E-3],"categories":[],"categories_nodes":[],"categories_segments":[],"categories_sizes":[],"default_left":[0,0,0,0,0,0,0,0,0,0,0,0,0,0,0],"id":77,"left_children":[1,3,5,7,9,11,13,-1,-1,-1,-1,-1,-1,-1,-1],"loss_changes":[2.4500668E0,1.2374675E0,2.5669305E0,7.3303896E-1,2.7534962E-1,1.9443533E0,1.39588E0,0E0,0E0,0E0,0E0,0E0,0E0,0E0,0E0],"parents":[2147483647,0,0,1,1,2,2,3,3,4,4,5,5,6,6],"right_children":[2,4,6,8,10,12,14,-1,-1,-1,-1,-1,-1,-1,-1],"split_conditions":[3.1354942E0,2.8324675E1,9.880115E-1,4.65396E0,-1.2053668E-1,9.9270886E-1,6.079933E0,7.737662E-3,-8.518672E-3,2.962653E-2,4.887156E-3,-1.9652906E-3,9.083291E-3,6.393858E-3,-5.7919915E-3],"split_indices":[2,13,19,8,0,1,8,0,0,0,0,0,0,0,0],"split_type":[0,0,0,0,0,0,0,0,0,0,0,0,0,0,0],"sum_hessian":[4.41E2,2.5E1,4.16E2,2.2E1,3E0,3.46E2,7E1,2E1,2E0,2E0,1E0,3.32E2,1.4E1,6.1E1,9E0],"tree_param":{"num_deleted":"0","num_feature":"22","num_nodes":"15","size_leaf_vector":"1"}},{"base_weights":[-1.7647563E-2,-1.7867258E-1,8.943504E-3,-4.7011282E-2,-1.2858082E-1,-1.1714113E-1,4.9568824E-2,6.9759283E-3,-4.562353E-3,-3.7928228E-4,-1.6769363E-2,-6.024579E-4,4.0532737E-3],"categories":[],"categories_nodes":[],"categories_segments":[],"categories_sizes":[],"default_left":[0,0,0,0,0,0,0,0,0,0,0,0,0],"id":78,"left_children":[1,3,5,-1,7,9,11,-1,-1,-1,-1,-1,-1],"loss_changes":[1.8128108E0,3.9712615E0,1.8702978E0,0E0,5.359936E-1,4.102181E0,1.6471066E0,0E0,0E0,0E0,0E0,0E0,0E0],"parents":[2147483647,0,0,1,1,2,2,4,4,5,5,6,6],"right_children":[2,4,6,-1,8,10,12,-1,-1,-1,-1,-1,-1],"split_conditions":[8.17119E-5,-4.6472317E-1,5.472259E1,-4.7011282E-2,2.0794415E0,6.6312265E-1,4.6472317E-1,6.9759283E-3,-4.562353E-3,-3.7928228E-4,-1.6769363E-2,-6.024579E-4,4.0532737E-3],"split_indices":[19,0,16,0,2,1,1,0,0,0,0,0,0],"split_type":[0,0,0,0,0,0,0,0,0,0,0,0,0],"sum_hessian":[4.22E2,5.9E1,3.63E2,1E0,5.8E1,8.8E1,2.75E2,3E0,5.5E1,7.2E1,1.6E1,1.52E2,1.23E2],"tree_param":{"num_deleted":"0","num_feature":"22","num_nodes":"13","size_leaf_vector":"1"}},{"base_weights":[-1.0968651E-2,6.659122E-1,-2.0658404E-2,2.5181195E-2,6.379807E-3,-5.243679E-2,1.5593514E-1,-1.03973915E-4,-4.0844097E-3,6.316808E-3,-2.1482464E-2],"categories":[],"categories_nodes":[],"categories_segments":[],"categories_sizes":[],"default_left":[0,0,0,0,0,0,0,0,0,0,0],"id":79,"left_children":[1,3,5,-1,-1,7,9,-1,-1,-1,-1],"loss_changes":[2.7881327E0,2.932279E-1,2.3539333E0,0E0,0E0,1.4548054E0,3.199359E0,0E0,0E0,0E0,0E0],"parents":[2147483647,0,0,1,1,2,2,5,5,6,6],"right_children":[2,4,6,-1,-1,8,10,-1,-1,-1,-1],"split_conditions":[2.0794415E0,1.609438E0,9.880115E-1,2.5181195E-2,6.379807E-3,2.5953571E1,8.3476456E1,-1.03973915E-4,-4.0844097E-3,6.316808E-3,-2.1482464E-2],"split_indices":[2,3,19,0,0,12,17,0,0,0,0],"split_type":[0,0,0,0,0,0,0,0,0,0,0],"sum_hessian":[4.22E2,5E0,4.17E2,3E0,2E0,3.54E2,6.3E1,2.24E2,1.3E2,6E1,3E0],"tree_param":{"num_deleted":"0","num_feature":"22","num_nodes":"11","size_leaf_vector":"1"}},{"base_weights":[7.831807E-3,3.2176167E-2,-2.1858361E-1,3.886799E-2,-2.4718495E-2,-3.7367013E-1,-5.3088363E-2,4.903179E-4,1.0321405E-2,-6.341632E-3,-1.6996771E-2,-8.636142E-3,6.1049956E-5],"categories":[],"categories_nodes":[],"categories_segments":[],"categories_sizes":[],"default_left":[0,0,0,0,0,0,0,0,0,0,0,0,0],"id":80,"left_children":[1,3,5,7,-1,9,11,-1,-1,-1,-1,-1,-1],"loss_changes":[2.3275592E0,2.2147918E0,1.0324715E0,2.5995722E0,0E0,5.375886E-1,2.7236846E-1,0E0,0E0,0E0,0E0,0E0,0E0],"parents":[2147483647,0,0,1,1,2,2,3,3,5,5,6,6],"right_children":[2,4,6,8,-1,10,12,-1,-1,-1,-1,-1,-1],"split_conditions":[6.8416157E0,7.832009E0,7.026427E0,9.9270886E-1,-2.4718495E-2,6.453625E0,7.111512E0,4.903179E-4,1.0321405E-2,-6.341632E-3,-1.6996771E-2,-8.636142E-3,6.1049956E-5],"split_indices":[9,20,5,1,0,3,9,0,0,0,0,0,0],"split_type":[0,0,0,0,0,0,0,0,0,0,0,0,0],"sum_hessian":[4.2E2,3.8E2,4E1,3.78E2,2E0,2E1,2E1,3.53E2,2.5E1,1.2E1,8E0,3E0,1.7E1],"tree_param":{"num_deleted":"0","num_feature":"22","num_nodes":"13","size_leaf_vector":"1"}},{"base_weights":[-1.4117351E-3,3.6472926E-1,-2.5030233E-2,2.2884454E-1,7.008672E-1,-3.6322374E-2,6.1897135E-1,1.1603645E-2,-1.692584E-3,2.3044119E-2,4.4586933E-3,5.933789E-3,-1.700767E-3,4.429387E-3,2.3339164E-2],"categories":[],"categories_nodes":[],"categories_segments":[],"categories_sizes":[],"default_left":[0,0,0,0,0,0,0,0,0,0,0,0,0,0,0],"id":81,"left_children":[1,3,5,7,9,11,13,-1,-1,-1,-1,-1,-1,-1,-1],"loss_changes":[3.710345E0,1.0271864E0,2.9531624E0,9.229351E-1,1.4588404E-1,1.9044653E0,4.097228E-1,0E0,0E0,0E0,0E0,0E0,0E0,0E0,0E0],"parents":[2147483647,0,0,1,1,2,2,3,3,4,4,5,5,6,6],"right_children":[2,4,6,8,10,12,14,-1,-1,-1,-1,-1,-1,-1,-1],"split_conditions":[3.1354942E0,9.7094184E-1,1E0,2.1603743E1,3.3672957E0,3.4011974E0,2.6255589E1,1.1603645E-2,-1.692584E-3,2.3044119E-2,4.4586933E-3,5.933789E-3,-1.700767E-3,4.429387E-3,2.3339164E-2],"split_indices":[2,1,1,14,3,8,15,0,0,0,0,0,0,0,0],"split_type":[0,0,0,0,0,0,0,0,0,0,0,0,0,0,0],"sum_hessian":[4.27E2,2.5E1,4.02E2,1.9E1,6E0,3.96E2,6E0,1.2E1,7E0,5E0,1E0,3.1E1,3.65E2,2E0,4E0],"tree_param":{"num_deleted":"0","num_feature":"22","num_nodes":"15","size_leaf_vector":"1"}},{"base_weights":[4.3356726E-3,2.3083043E-1,-2.5244154E-2,5.1464114E-2,6.087674E-1,-1.2408019E0,-1.2382377E-2,-1.0291409E-3,1.19832E-2,2.496619E-2,-8.088036E-3,-5.074541E-2,1.6699942E-3,-7.3392724E-4,1.311279E-2],"categories":[],"categories_nodes":[],"categories_segments":[],"categories_sizes":[],"default_left":[0,0,0,0,0,0,0,0,0,0,0,0,0,0,0],"id":82,"left_children":[1,3,5,7,9,11,13,-1,-1,-1,-1,-1,-1,-1,-1],"loss_changes":[2.900087E0,3.358128E0,5.9725475E0,1.0582945E0,3.364552E0,2.4314952E0,2.0742834E0,0E0,0E0,0E0,0E0,0E0,0E0,0E0,0E0],"parents":[2147483647,0,0,1,1,2,2,3,3,4,4,5,5,6,6],"right_children":[2,4,6,8,10,12,14,-1,-1,-1,-1,-1,-1,-1,-1],"split_conditions":[3.462449E0,6.6312265E-1,3.4339871E0,3.465736E0,4.4188404E0,9.7094184E-1,3.0744047E1,-1.0291409E-3,1.19832E-2,2.496619E-2,-8.088036E-3,-5.074541E-2,1.6699942E-3,-7.3392724E-4,1.311279E-2],"split_indices":[10,1,4,5,2,1,14,0,0,0,0,0,0,0,0],"split_type":[0,0,0,0,0,0,0,0,0,0,0,0,0,0,0],"sum_hessian":[4.31E2,4.9E1,3.82E2,3.4E1,1.5E1,3E0,3.79E2,2.8E1,6E0,1.2E1,3E0,2E0,1E0,3.7E2,9E0],"tree_param":{"num_deleted":"0","num_feature":"22","num_nodes":"15","size_leaf_vector":"1"}},{"base_weights":[1.794031E-2,6.692606E-3,6.286977E-1,1.9719936E-2,-8.534257E-4,4.3554776E-3,2.2970168E-2,-2.766989E-3,1.137767E-3],"categories":[],"categories_nodes":[],"categories_segments":[],"categories_sizes":[],"default_left":[0,0,0,0,0,0,0,0,0],"id":83,"left_children":[1,3,5,-1,7,-1,-1,-1,-1],"loss_changes":[3.0390334E0,2.1412077E0,4.1867208E-1,0E0,1.534336E0,0E0,0E0,0E0,0E0],"parents":[2147483647,0,0,1,1,2,2,4,4],"right_children":[2,4,6,-1,8,-1,-1,-1,-1],"split_conditions":[1E0,2.4849067E0,2.6255589E1,1.9719936E-2,-5.6806475E-1,4.3554776E-3,2.2970168E-2,-2.766989E-3,1.137767E-3],"split_indices":[1,2,15,0,1,0,0,0,0],"split_type":[0,0,0,0,0,0,0,0,0],"sum_hessian":[4.42E2,4.35E2,7E0,4E0,4.31E2,2E0,5E0,1.28E2,3.03E2],"tree_param":{"num_deleted":"0","num_feature":"22","num_nodes":"9","size_leaf_vector":"1"}},{"base_weights":[3.044823E-3,-6.0722595E-3,4.291834E-1,1.3055332E-2,-1.9375932E-1,1.8142294E-2,5.8547936E-2,-8.7472965E-4,2.95127E-3,-8.966844E-3,1.1851056E-3,6.5300073E-3,-2.011421E-3],"categories":[],"categories_nodes":[],"categories_segments":[],"categories_sizes":[],"default_left":[0,0,0,0,0,0,0,0,0,0,0,0,0],"id":84,"left_children":[1,3,5,7,9,-1,11,-1,-1,-1,-1,-1,-1],"loss_changes":[1.6693314E0,1.5139203E0,5.502114E-1,1.3822913E0,9.682511E-1,0E0,9.4532385E-2,0E0,0E0,0E0,0E0,0E0,0E0],"parents":[2147483647,0,0,1,1,2,2,3,3,4,4,6,6],"right_children":[2,4,6,8,10,-1,12,-1,-1,-1,-1,-1,-1],"split_conditions":[3.0928572E1,6.6567264E0,4.804021E0,4.7791233E0,7.4324837E0,1.8142294E-2,2.6966837E1,-8.7472965E-4,2.95127E-3,-8.966844E-3,1.1851056E-3,6.5300073E-3,-2.011421E-3],"split_indices":[14,8,2,3,6,0,12,0,0,0,0,0,0],"split_type":[0,0,0,0,0,0,0,0,0,0,0,0,0],"sum_hessian":[4.28E2,4.2E2,8E0,3.82E2,3.8E1,5E0,3E0,2.56E2,1.26E2,2.6E1,1.2E1,1E0,2E0],"tree_param":{"num_deleted":"0","num_feature":"22","num_nodes":"13","size_leaf_vector":"1"}},{"base_weights":[1.6861672E-2,4.2066995E-2,-1.9924113E-1,5.3645855E-1,3.099442E-2,-2.7342224E-1,7.289871E-2,2.1479936E-2,5.337594E-3,6.607799E-4,1.6738653E-2,-4.4647446E-3,-1.0595975E-2,6.3721663E-3,-1.665203E-3],"categories":[],"categories_nodes":[],"categories_segments":[],"categories_sizes":[],"default_left":[0,0,0,0,0,0,0,0,0,0,0,0,0,0,0],"id":85,"left_children":[1,3,5,7,9,11,13,-1,-1,-1,-1,-1,-1,-1,-1],"loss_changes":[2.2416275E0,1.9978738E0,8.8800025E-1,3.8758397E-1,1.6937989E0,2.8539538E-1,1.9092436E-1,0E0,0E0,0E0,0E0,0E0,0E0,0E0,0E0],"parents":[2147483647,0,0,1,1,2,2,3,3,4,4,5,5,6,6],"right_children":[2,4,6,8,10,12,14,-1,-1,-1,-1,-1,-1,-1,-1],"split_conditions":[6.6567264E0,2.3978953E0,7.4587626E0,2.713516E0,3.0928572E1,6.598509E0,7.5310163E0,2.1479936E-2,5.337594E-3,6.607799E-4,1.6738653E-2,-4.4647446E-3,-1.0595975E-2,6.3721663E-3,-1.665203E-3],"split_indices":[8,2,5,10,14,4,9,0,0,0,0,0,0,0,0],"split_type":[0,0,0,0,0,0,0,0,0,0,0,0,0,0,0],"sum_hessian":[4.09E2,3.67E2,4.2E1,7E0,3.6E2,3.3E1,9E0,4E0,3E0,3.55E2,5E0,1.4E1,1.9E1,4E0,5E0],"tree_param":{"num_deleted":"0","num_feature":"22","num_nodes":"15","size_leaf_vector":"1"}},{"base_weights":[1.1920091E-2,5.423114E-1,3.4163038E-3,2.1679617E-2,-8.096163E-3,-3.2205366E-2,1.00290366E-1,-1.248817E-3,1.1891381E-2,1.492449E-2,1.5189578E-3],"categories":[],"categories_nodes":[],"categories_segments":[],"categories_sizes":[],"default_left":[0,0,0,0,0,0,0,0,0,0,0],"id":86,"left_children":[1,3,5,-1,-1,7,9,-1,-1,-1,-1],"loss_changes":[2.000736E0,1.2203228E0,1.5146873E0,0E0,0E0,1.3127201E0,2.30224E0,0E0,0E0,0E0,0E0],"parents":[2147483647,0,0,1,1,2,2,5,5,6,6],"right_children":[2,4,6,-1,-1,8,10,-1,-1,-1,-1],"split_conditions":[2.0794415E0,4.4188404E0,7.161826E1,2.1679617E-2,-8.096163E-3,3.0928572E1,3.8467748E0,-1.248817E-3,1.1891381E-2,1.492449E-2,1.5189578E-3],"split_indices":[3,2,16,0,0,14,11,0,0,0,0],"split_type":[0,0,0,0,0,0,0,0,0,0,0],"sum_hessian":[4.43E2,6E0,4.37E2,5E0,1E0,3.2E2,1.17E2,3.14E2,6E0,1.2E1,1.05E2],"tree_param":{"num_deleted":"0","num_feature":"22","num_nodes":"11","size_leaf_vector":"1"}},{"base_weights":[-1.1953434E-2,1.8529476E-1,-3.959807E-2,3.6181938E-2,5.805169E-1,-1.2196463E0,-2.7362105E-2,3.4609998E-3,-6.624821E-3,2.4394743E-2,-7.876084E-3,-4.9723998E-2,1.4072196E-3,-5.4460578E-3,-2.6698035E-5],"categories":[],"categories_nodes":[],"categories_segments":[],"categories_sizes":[],"default_left":[0,0,0,0,0,0,0,0,0,0,0,0,0,0,0],"id":87,"left_children":[1,3,5,7,9,11,13,-1,-1,-1,-1,-1,-1,-1,-1],"loss_changes":[2.4393108E0,3.2202933E0,5.626728E0,8.598757E-1,3.1554165E0,2.2958393E0,1.5874634E0,0E0,0E0,0E0,0E0,0E0,0E0,0E0,0E0],"parents":[2147483647,0,0,1,1,2,2,3,3,4,4,5,5,6,6],"right_children":[2,4,6,8,10,12,14,-1,-1,-1,-1,-1,-1,-1,-1],"split_conditions":[3.462449E0,7.485108E-1,3.4339871E0,8.2486975E-1,1.2053668E-1,-2.3931566E-1,8.17119E-5,3.4609998E-3,-6.624821E-3,2.4394743E-2,-7.876084E-3,-4.9723998E-2,1.4072196E-3,-5.4460578E-3,-2.6698035E-5],"split_indices":[10,1,4,19,0,0,19,0,0,0,0,0,0,0,0],"split_type":[0,0,0,0,0,0,0,0,0,0,0,0,0,0,0],"sum_hessian":[4.45E2,5.4E1,3.91E2,4E1,1.4E1,3E0,3.88E2,3.1E1,9E0,1.1E1,3E0,2E0,1E0,5.6E1,3.32E2],"tree_param":{"num_deleted":"0","num_feature":"22","num_nodes":"15","size_leaf_vector":"1"}},{"base_weights":[-1.9278748E-2,-1.2762854E-1,2.3349835E-2,2.524991E-1,-1.5318462E-1,-1.3668178E-1,6.755962E-2,1.287005E-2,-9.376181E-4,-3.3428867E-3,-1.0315858E-2,-1.2846037E-3,-2.2104304E-2,2.9029504E-3,-6.0526393E-3],"categories":[],"categories_nodes":[],"categories_segments":[],"categories_sizes":[],"default_left":[0,0,0,0,0,0,0,0,0,0,0,0,0,0,0],"id":88,"left_children":[1,3,5,7,9,11,13,-1,-1,-1,-1,-1,-1,-1,-1],"loss_changes":[1.9798257E0,1.214142E0,2.1883228E0,4.1407323E-1,8.693223E-1,3.7424953E0,1.9229571E0,0E0,0E0,0E0,0E0,0E0,0E0,0E0,0E0],"parents":[2147483647,0,0,1,1,2,2,3,3,4,4,5,5,6,6],"right_children":[2,4,6,8,10,12,14,-1,-1,-1,-1,-1,-1,-1,-1],"split_conditions":[-5.6806475E-1,1.683117E1,5.3523746E1,6.326427E-1,2.4380928E1,4.882802E0,7.9007355E1,1.287005E-2,-9.376181E-4,-3.3428867E-3,-1.0315858E-2,-1.2846037E-3,-2.2104304E-2,2.9029504E-3,-6.0526393E-3],"split_indices":[1,12,16,20,14,5,18,0,0,0,0,0,0,0,0],"split_type":[0,0,0,0,0,0,0,0,0,0,0,0,0,0,0],"sum_hessian":[4.27E2,1.2E2,3.07E2,7E0,1.13E2,6.6E1,2.41E2,4E0,3E0,9.4E1,1.9E1,5.8E1,8E0,2.18E2,2.3E1],"tree_param":{"num_deleted":"0","num_feature":"22","num_nodes":"15","size_leaf_vector":"1"}},{"base_weights":[7.834966E-3,-1.9192796E-3,4.751682E-1,-1.0382545E-2,3.9700782E-1,3.0740162E-2,5.977562E-1,-9.374839E-4,4.4985306E-3,1.6994815E-2,1.3058039E-3,2.096423E-3,-7.1311573E-4,6.3890778E-3,2.1272313E-2],"categories":[],"categories_nodes":[],"categories_segments":[],"categories_sizes":[],"default_left":[0,0,0,0,0,0,0,0,0,0,0,0,0,0,0],"id":89,"left_children":[1,3,5,7,9,11,13,-1,-1,-1,-1,-1,-1,-1,-1],"loss_changes":[2.0066447E0,1.4626516E0,4.7195888E-1,1.4232491E0,5.145333E-1,8.061847E-3,1.4883184E-1,0E0,0E0,0E0,0E0,0E0,0E0,0E0,0E0],"parents":[2147483647,0,0,1,1,2,2,3,3,4,4,5,5,6,6],"right_children":[2,4,6,8,10,12,14,-1,-1,-1,-1,-1,-1,-1,-1],"split_conditions":[1E0,3.0928572E1,6.0019916E-1,1.4656944E0,4.804021E0,3.7376697E0,2.5461514E1,-9.374839E-4,4.4985306E-3,1.6994815E-2,1.3058039E-3,2.096423E-3,-7.1311573E-4,6.3890778E-3,2.1272313E-2],"split_indices":[1,14,20,20,2,2,12,0,0,0,0,0,0,0,0],"split_type":[0,0,0,0,0,0,0,0,0,0,0,0,0,0,0],"sum_hessian":[4.39E2,4.31E2,8E0,4.23E2,8E0,2E0,6E0,3.75E2,4.8E1,5E0,3E0,1E0,1E0,2E0,4E0],"tree_param":{"num_deleted":"0","num_feature":"22","num_nodes":"15","size_leaf_vector":"1"}},{"base_weights":[3.696312E-3,-2.5449295E-2,2.2905323E-1,1.9777723E-1,-4.7311295E-2,2.733165E-1,-2.8433768E-2,1.7097035E-3,1.3534131E-2,-8.934586E-3,-9.0624724E-4,1.3671576E-2,5.1293615E-4],"categories":[],"categories_nodes":[],"categories_segments":[],"categories_sizes":[],"default_left":[0,0,0,0,0,0,0,0,0,0,0,0,0],"id":90,"left_children":[1,3,5,7,9,11,-1,-1,-1,-1,-1,-1,-1],"loss_changes":[2.8104355E0,1.8589445E0,2.8115091E0,1.1870658E0,1.4734253E0,2.2354867E0,0E0,0E0,0E0,0E0,0E0,0E0,0E0],"parents":[2147483647,0,0,1,1,2,2,3,3,4,4,5,5],"right_children":[2,4,6,8,10,12,-1,-1,-1,-1,-1,-1,-1],"split_conditions":[9.7094184E-1,3.3322046E0,6.2304816E0,5.6806475E-1,3.781721E0,1.2053668E-1,-2.8433768E-2,1.7097035E-3,1.3534131E-2,-8.934586E-3,-9.0624724E-4,1.3671576E-2,5.1293615E-4],"split_indices":[1,8,2,1,11,0,0,0,0,0,0,0,0],"split_type":[0,0,0,0,0,0,0,0,0,0,0,0,0],"sum_hessian":[4.26E2,3.78E2,4.8E1,3.3E1,3.45E2,4.7E1,1E0,2.2E1,1.1E1,2.1E1,3.24E2,2.7E1,2E1],"tree_param":{"num_deleted":"0","num_feature":"22","num_nodes":"13","size_leaf_vector":"1"}},{"base_weights":[-3.743345E-3,1.7353609E-1,-3.165154E-2,3.3692896E-1,7.0073664E-2,-8.019245E-2,5.2480962E-2,-1.9586051E-3,1.4481836E-2,-9.5986805E-5,8.266759E-3,-2.008548E-3,-3.3381872E-2,2.9916467E-2,9.468887E-4],"categories":[],"categories_nodes":[],"categories_segments":[],"categories_sizes":[],"default_left":[0,0,0,0,0,0,0,0,0,0,0,0,0,0,0],"id":91,"left_children":[1,3,5,7,9,11,13,-1,-1,-1,-1,-1,-1,-1,-1],"loss_changes":[2.1824145E0,9.9069154E-1,1.5601623E0,1.3802962E0,5.730305E-1,3.2340412E0,2.7352E0,0E0,0E0,0E0,0E0,0E0,0E0,0E0,0E0],"parents":[2147483647,0,0,1,1,2,2,3,3,4,4,5,5,6,6],"right_children":[2,4,6,8,10,12,14,-1,-1,-1,-1,-1,-1,-1,-1],"split_conditions":[4.8990448E1,4.0775375E0,2.625E1,3.3322046E0,4.7E1,2.8391594E1,2.6352543E1,-1.9586051E-3,1.4481836E-2,-9.5986805E-5,8.266759E-3,-2.008548E-3,-3.3381872E-2,2.9916467E-2,9.468887E-4],"split_indices":[18,2,14,7,18,15,14,0,0,0,0,0,0,0,0],"split_type":[0,0,0,0,0,0,0,0,0,0,0,0,0,0,0],"sum_hessian":[4.39E2,5.9E1,3.8E2,2.2E1,3.7E1,2.41E2,1.39E2,6E0,1.6E1,2.8E1,9E0,2.39E2,2E0,2E0,1.37E2],"tree_param":{"num_deleted":"0","num_feature":"22","num_nodes":"15","size_leaf_vector":"1"}},{"base_weights":[1.8981932E-2,-7.523803E-3,1.9231291E-1,9.432495E-3,-1.6037871E-1,6.776634E-1,6.430188E-2,2.594611E-3,-1.2858076E-3,-7.398851E-3,2.2123735E-3,-7.989499E-3,2.3630712E-2,-7.863525E-3,7.7403034E-3],"categories":[],"categories_nodes":[],"categories_segments":[],"categories_sizes":[],"default_left":[0,0,0,0,0,0,0,0,0,0,0,0,0,0,0],"id":92,"left_children":[1,3,5,7,9,11,13,-1,-1,-1,-1,-1,-1,-1,-1],"loss_changes":[2.0091407E0,9.86417E-1,3.5599782E0,1.3857888E0,7.8552777E-1,1.4561343E0,3.0394447E0,0E0,0E0,0E0,0E0,0E0,0E0,0E0,0E0],"parents":[2147483647,0,0,1,1,2,2,3,3,4,4,5,5,6,6],"right_children":[2,4,6,8,10,12,14,-1,-1,-1,-1,-1,-1,-1,-1],"split_conditions":[9.350162E-1,6.8416157E0,3.6109178E0,8.9155644E-1,7.4587626E0,3.3672957E0,4.3820267E0,2.594611E-3,-1.2858076E-3,-7.398851E-3,2.2123735E-3,-7.989499E-3,2.3630712E-2,-7.863525E-3,7.7403034E-3],"split_indices":[1,9,3,20,5,9,4,0,0,0,0,0,0,0,0],"split_type":[0,0,0,0,0,0,0,0,0,0,0,0,0,0,0],"sum_hessian":[4.36E2,3.79E2,5.7E1,3.42E2,3.7E1,1.1E1,4.6E1,1.38E2,2.04E2,2.7E1,1E1,1E0,1E1,1.7E1,2.9E1],"tree_param":{"num_deleted":"0","num_feature":"22","num_nodes":"15","size_leaf_vector":"1"}},{"base_weights":[4.6464363E-3,1.19573735E-1,-5.1168434E-2,1.4566128E-1,-7.6468676E-1,-1.7935078E-1,1.7100481E-2,1.2445748E-3,9.748011E-3,-3.1862278E-2,-9.345951E-3,-3.9695734E-3,-2.2752654E-2,-1.5578188E-4,1.7159633E-2],"categories":[],"categories_nodes":[],"categories_segments":[],"categories_sizes":[],"default_left":[0,0,0,0,0,0,0,0,0,0,0,0,0,0,0],"id":93,"left_children":[1,3,5,7,9,11,13,-1,-1,-1,-1,-1,-1,-1,-1],"loss_changes":[2.6297112E0,3.2025223E0,2.4183068E0,2.4330478E0,2.0818353E-1,2.5141745E0,2.2419798E0,0E0,0E0,0E0,0E0,0E0,0E0,0E0,0E0],"parents":[2147483647,0,0,1,1,2,2,3,3,4,4,5,5,6,6],"right_children":[2,4,6,8,10,12,14,-1,-1,-1,-1,-1,-1,-1,-1],"split_conditions":[4.1870947E0,3.0144842E1,4.65396E0,5.6806475E-1,3.8066626E0,4.919981E0,9.9270886E-1,1.2445748E-3,9.748011E-3,-3.1862278E-2,-9.345951E-3,-3.9695734E-3,-2.2752654E-2,-1.5578188E-4,1.7159633E-2],"split_indices":[10,13,3,1,2,5,1,0,0,0,0,0,0,0,0],"split_type":[0,0,0,0,0,0,0,0,0,0,0,0,0,0,0],"sum_hessian":[4.08E2,1.33E2,2.75E2,1.3E2,3E0,9.5E1,1.8E2,8.3E1,4.7E1,1E0,2E0,8.9E1,6E0,1.74E2,6E0],"tree_param":{"num_deleted":"0","num_feature":"22","num_nodes":"15","size_leaf_vector":"1"}},{"base_weights":[-1.1113015E-2,-2.0806018E-2,5.1612157E-1,1.5373418E-1,-4.189515E-2,3.7805208E-3,6.2515336E-1,1.8186664E-3,1.4765587E-2,-1.44400755E-2,-8.698908E-4,4.8254873E-3,2.0575326E-2],"categories":[],"categories_nodes":[],"categories_segments":[],"categories_sizes":[],"default_left":[0,0,0,0,0,0,0,0,0,0,0,0,0],"id":94,"left_children":[1,3,5,7,9,-1,11,-1,-1,-1,-1,-1,-1],"loss_changes":[2.2644627E0,1.6039518E0,2.614901E-1,1.4513177E0,2.1853251E0,0E0,5.8756113E-2,0E0,0E0,0E0,0E0,0E0,0E0],"parents":[2147483647,0,0,1,1,2,2,3,3,4,4,6,6],"right_children":[2,4,6,8,10,-1,12,-1,-1,-1,-1,-1,-1],"split_conditions":[1E0,3.4011974E0,2.6255589E1,7.126779E1,3.3672957E0,3.7805208E-3,2.4009329E1,1.8186664E-3,1.4765587E-2,-1.44400755E-2,-8.698908E-4,4.8254873E-3,2.0575326E-2],"split_indices":[1,8,15,16,5,0,12,0,0,0,0,0,0],"split_type":[0,0,0,0,0,0,0,0,0,0,0,0,0],"sum_hessian":[4.4E2,4.33E2,7E0,4.6E1,3.87E2,2E0,5E0,3.7E1,9E0,1E1,3.77E2,1E0,4E0],"tree_param":{"num_deleted":"0","num_feature":"22","num_nodes":"13","size_leaf_vector":"1"}},{"base_weights":[-1.21507505E-2,6.216569E-1,-1.8158084E-2,2.3195395E-2,2.5063204E-3,-1.2457054E-2,-6.0795087E-1,3.7369311E-3,-1.0885603E-3,-2.3579473E-2,-1.1078425E-3],"categories":[],"categories_nodes":[],"categories_segments":[],"categories_sizes":[],"default_left":[0,0,0,0,0,0,0,0,0,0,0],"id":95,"left_children":[1,3,5,-1,-1,7,9,-1,-1,-1,-1],"loss_changes":[1.6218578E0,2.6155126E-1,1.4046457E0,0E0,0E0,1.3660191E0,3.7761557E-1,0E0,0E0,0E0,0E0],"parents":[2147483647,0,0,1,1,2,2,5,5,6,6],"right_children":[2,4,6,-1,-1,8,10,-1,-1,-1,-1],"split_conditions":[1.1036309E-1,1.609438E0,7.832009E0,2.3195395E-2,2.5063204E-3,3.7841897E0,4.0073333E0,3.7369311E-3,-1.0885603E-3,-2.3579473E-2,-1.1078425E-3],"split_indices":[20,3,20,0,0,9,3,0,0,0,0],"split_type":[0,0,0,0,0,0,0,0,0,0,0],"sum_hessian":[4.22E2,3E0,4.19E2,2E0,1E0,4.16E2,3E0,6.1E1,3.55E2,2E0,1E0],"tree_param":{"num_deleted":"0","num_feature":"22","num_nodes":"11","size_leaf_vector":"1"}},{"base_weights":[1.159539E-2,9.563701E-2,-3.5401512E-2,1.1820603E-1,-3.3948678E-1,-1.0601798E-1,5.2309357E-2,4.4286735E-3,-2.7714598E-3,-4.01425E-2,-1.7026164E-4,-1.7748253E-3,-1.4569917E-2,2.73789E-3,-6.084621E-3],"categories":[],"categories_nodes":[],"categories_segments":[],"categories_sizes":[],